34 128
1 0.013748 -0.195354 0.033081 0.007981 -0.008645 -0.111257 -0.036320 0.280431 0.210151 -0.005501 0.015363 0.245446 0.095099 -0.168573 0.029753 -0.092183 -0.086749 -0.138138 0.041678 0.035915 0.074406 -0.037533 0.070901 -0.036284 0.063996 0.110672 -0.096640 0.001306 0.067966 0.055733 0.004235 0.015200 -0.052305 0.001610 -0.094041 -0.241170 0.122223 0.031043 -0.038835 0.051171 -0.060210 -0.173799 0.160216 0.232803 -0.169798 0.021838 -0.018461 -0.044998 0.000759 0.013310 -0.167040 -0.017114 0.012394 0.047143 -0.034996 -0.036593 -0.079158 0.165555 -0.017687 -0.104523 0.163777 -0.222038 0.139063 0.095050 -0.011136 0.146439 -0.020868 0.020754 -0.079727 -0.196693 -0.099137 0.089031 0.069219 -0.145085 0.253334 0.084371 0.117639 0.007496 -0.112980 -0.169625 -0.057753 -0.095007 -0.034109 0.038114 -0.245046 0.010986 0.243177 -0.075854 0.190395 0.027863 0.174364 -0.052758 0.084388 0.049763 -0.189055 0.021485 -0.021288 -0.242979 0.182729 0.174987 -0.145361 0.018193 -0.140093 0.067010 -0.129774 0.011507 0.178311 0.205789 -0.206344 -0.169471 -0.012398 0.062616 0.088108 -0.016346 -0.119159 -0.022377 -0.097126 0.178085 -0.234585 -0.144819 0.043478 -0.057163 0.095293 -0.316495 -0.288485 -0.100752 0.126613 0.146108
34 -0.085680 -0.147791 0.122401 0.100488 0.110655 -0.116479 0.126577 0.089101 0.002698 0.023502 -0.072059 0.211751 0.117428 -0.227976 -0.163408 -0.232579 -0.042924 -0.184220 0.008338 0.149752 0.319933 -0.062542 0.305778 0.024214 -0.033870 -0.071064 -0.214703 -0.035280 0.036170 0.297230 0.067455 0.086053 -0.076055 0.009721 -0.184848 -0.136227 0.335540 0.204996 0.001061 0.007848 -0.249300 0.134102 0.216104 0.200774 -0.127571 0.078305 0.026878 -0.163900 -0.131793 0.028288 0.068194 0.137008 0.056394 0.068112 -0.151431 -0.141629 -0.161931 0.081498 -0.038409 0.011162 0.137389 -0.184729 0.018467 0.136096 0.113921 -0.135354 -0.141812 -0.076698 0.000401 -0.107074 0.021980 0.040672 0.012659 -0.049231 0.072896 -0.045435 0.089841 0.096117 -0.079410 0.115138 -0.082682 -0.173830 0.017177 -0.213790 -0.070408 0.231401 0.000180 -0.033380 -0.050081 0.005924 -0.013869 0.084898 0.054568 -0.008164 -0.121616 0.268599 -0.149570 0.139352 0.092370 -0.049261 -0.162314 0.137973 -0.084258 -0.048468 -0.038686 0.059829 0.185945 0.053815 -0.076504 -0.043424 0.102130 -0.068346 -0.063420 -0.071074 -0.012956 -0.035077 -0.101817 0.202266 -0.095655 0.105791 -0.008440 -0.143007 0.003271 -0.239998 -0.088937 0.171119 0.050949 0.068138
33 -0.070236 -0.159394 0.106199 0.101389 0.090042 -0.105685 0.108933 0.105375 0.042860 0.019322 -0.049747 0.209114 0.103198 -0.213588 -0.128682 -0.196177 -0.057626 -0.179738 -0.004027 0.133960 0.280507 -0.061886 0.269074 0.012403 -0.026131 -0.054382 -0.206082 -0.046337 0.032838 0.261799 0.057187 0.081692 -0.064259 -0.003849 -0.183793 -0.156351 0.311399 0.190000 -0.021615 0.013453 -0.231099 0.102922 0.208455 0.194633 -0.133393 0.080853 0.024687 -0.147644 -0.122628 0.023129 0.040032 0.131269 0.044177 0.051101 -0.125913 -0.125405 -0.156960 0.086761 -0.012676 -0.003926 0.144641 -0.187585 0.035387 0.131230 0.102510 -0.113150 -0.113735 -0.058801 -0.006165 -0.108799 0.022583 0.044713 0.019642 -0.054567 0.085120 -0.030518 0.082900 0.084433 -0.087611 0.079162 -0.062847 -0.151108 0.014735 -0.181814 -0.099388 0.200057 0.030606 -0.039003 -0.022574 0.009056 0.020167 0.076475 0.066348 0.009872 -0.121602 0.252298 -0.125825 0.088858 0.114687 -0.025916 -0.161852 0.121371 -0.103720 -0.027550 -0.049035 0.043327 0.186487 0.078892 -0.090840 -0.065234 0.098933 -0.046671 -0.041659 -0.082632 -0.026438 -0.029945 -0.115627 0.212710 -0.131352 0.070598 0.008731 -0.138640 0.029487 -0.273690 -0.136366 0.143119 0.066848 0.088783
3 -0.028905 -0.184938 0.071183 0.053112 0.042022 -0.120113 0.035426 0.211893 0.133136 0.002712 -0.011875 0.245331 0.105503 -0.208109 -0.052276 -0.158791 -0.073323 -0.175707 0.021950 0.089086 0.175181 -0.044050 0.167016 -0.004974 0.025102 0.030160 -0.153110 -0.016896 0.056264 0.160904 0.030334 0.040972 -0.063267 0.002955 -0.137494 -0.203840 0.208615 0.105436 -0.030173 0.034450 -0.131310 -0.051079 0.177435 0.213192 -0.155769 0.050453 0.003897 -0.089368 -0.060559 0.017160 -0.064758 0.047201 0.023528 0.049585 -0.078843 -0.079565 -0.105530 0.125113 -0.025560 -0.051862 0.143884 -0.196665 0.090255 0.114188 0.032401 0.027958 -0.060515 -0.012305 -0.045295 -0.155728 -0.042917 0.070211 0.040000 -0.098735 0.174698 0.027616 0.097267 0.038951 -0.094146 -0.053604 -0.061386 -0.112625 -0.013899 -0.056277 -0.169906 0.100028 0.142175 -0.055470 0.087678 0.012728 0.094769 0.006021 0.073494 0.027304 -0.154301 0.119769 -0.070322 -0.085834 0.145044 0.080834 -0.148979 0.061620 -0.118662 0.022480 -0.086018 0.031331 0.174360 0.139047 -0.138768 -0.115356 0.035056 0.009247 0.029211 -0.040368 -0.072860 -0.022803 -0.099926 0.183733 -0.165166 -0.049265 0.022415 -0.096881 0.056779 -0.286254 -0.205998 0.013743 0.089606 0.115737
2 0.006706 -0.170304 0.039886 0.009934 0.002900 -0.092005 -0.028249 0.223840 0.141716 -0.002891 0.008312 0.204936 0.083667 -0.148151 0.013432 -0.090103 -0.073825 -0.105976 0.033212 0.038057 0.072644 -0.020114 0.071598 -0.026279 0.034634 0.088274 -0.081500 0.010511 0.063020 0.055029 0.011026 0.011472 -0.058965 0.019256 -0.092082 -0.197850 0.118531 0.030094 -0.024053 0.051207 -0.059799 -0.124311 0.144644 0.200937 -0.145431 0.026848 -0.021535 -0.051648 -0.018297 0.000301 -0.122639 -0.021133 0.020357 0.054898 -0.055034 -0.037850 -0.069666 0.142513 -0.031000 -0.072965 0.135977 -0.189617 0.111483 0.084053 0.002351 0.114259 -0.029123 0.004031 -0.067262 -0.176180 -0.083429 0.086528 0.064682 -0.129033 0.221500 0.075312 0.116273 0.019180 -0.100725 -0.123959 -0.059808 -0.105371 -0.035755 0.006962 -0.210369 0.058609 0.205155 -0.069672 0.156733 0.016920 0.146097 -0.028629 0.074057 0.021335 -0.182307 0.054498 -0.046694 -0.185831 0.155724 0.140155 -0.142798 0.023418 -0.124520 0.051935 -0.111229 0.011897 0.175321 0.182861 -0.182847 -0.153484 -0.005684 0.043310 0.067255 -0.023811 -0.102331 -0.022447 -0.095049 0.167849 -0.204647 -0.112414 0.030164 -0.079771 0.077396 -0.293046 -0.234361 -0.065051 0.110930 0.124469
4 -0.006243 -0.169347 0.047780 0.031804 0.019298 -0.106835 -0.005969 0.222141 0.150033 -0.004852 0.007366 0.218321 0.094078 -0.165813 -0.009375 -0.106766 -0.072458 -0.137100 0.027751 0.062434 0.114914 -0.033680 0.105429 -0.019613 0.036655 0.066812 -0.118614 -0.006419 0.057346 0.095669 0.015309 0.025479 -0.056863 0.001718 -0.117506 -0.213663 0.163349 0.066970 -0.034643 0.044237 -0.093085 -0.104011 0.161676 0.211885 -0.151125 0.035320 -0.010061 -0.066111 -0.036109 0.004480 -0.102902 0.012362 0.021261 0.045568 -0.057111 -0.052271 -0.081697 0.131296 -0.021908 -0.073329 0.148524 -0.198320 0.109364 0.100707 0.013750 0.081903 -0.042595 0.003757 -0.058826 -0.163384 -0.064713 0.080468 0.053312 -0.117892 0.200537 0.051341 0.099194 0.028318 -0.101034 -0.093827 -0.051228 -0.104221 -0.022606 -0.008447 -0.191176 0.062291 0.179909 -0.062298 0.130540 0.018196 0.122711 -0.018262 0.073779 0.029738 -0.160783 0.074891 -0.048077 -0.150801 0.148958 0.113661 -0.144392 0.037786 -0.118097 0.048913 -0.103425 0.021743 0.164091 0.163735 -0.159535 -0.133116 0.013026 0.028892 0.054569 -0.027826 -0.088083 -0.018236 -0.095387 0.172175 -0.186368 -0.089014 0.033104 -0.078800 0.065071 -0.292314 -0.229876 -0.033731 0.099466 0.125222
32 -0.038266 -0.158231 0.056466 0.067485 0.051460 -0.113059 0.067292 0.155288 0.104553 0.002218 -0.017109 0.223156 0.098722 -0.188860 -0.075066 -0.153667 -0.062854 -0.185680 0.008719 0.111345 0.222662 -0.049862 0.206580 0.006804 0.004992 -0.017284 -0.190363 -0.045080 0.036884 0.204146 0.051512 0.054473 -0.054679 -0.017865 -0.169158 -0.193962 0.253033 0.145294 -0.046184 0.009807 -0.168072 0.003577 0.179800 0.193560 -0.162675 0.068549 0.020437 -0.092687 -0.071734 0.013188 -0.032996 0.096112 0.022385 0.037602 -0.081259 -0.096822 -0.098884 0.099592 -0.020025 -0.038373 0.135968 -0.177229 0.072041 0.127137 0.027114 -0.020943 -0.083690 -0.018495 -0.036335 -0.132564 -0.023739 0.061686 0.019127 -0.072637 0.130524 0.001931 0.054183 0.049441 -0.089045 -0.009744 -0.060052 -0.103617 0.006883 -0.075011 -0.132583 0.113431 0.094938 -0.042807 0.050457 -0.002567 0.064337 0.029568 0.083765 0.028864 -0.116683 0.147410 -0.067439 -0.032707 0.119901 0.037596 -0.137228 0.073907 -0.109447 0.005595 -0.064375 0.039366 0.168218 0.107020 -0.102887 -0.073038 0.053640 -0.007760 0.015006 -0.044317 -0.056820 -0.020491 -0.095418 0.183761 -0.130876 -0.020394 0.019722 -0.105754 0.046615 -0.279667 -0.178412 0.061816 0.063695 0.109697
14 -0.026646 -0.158870 0.065332 0.041444 0.039621 -0.103095 0.029963 0.171177 0.107028 0.007375 -0.019246 0.213657 0.094408 -0.177706 -0.049663 -0.135925 -0.063626 -0.149239 0.023553 0.081498 0.176840 -0.039439 0.163345 -0.001922 0.013614 0.026587 -0.142721 -0.016833 0.043475 0.158538 0.035569 0.045698 -0.060010 0.002814 -0.132129 -0.188150 0.200939 0.100769 -0.028103 0.026284 -0.135919 -0.033145 0.166530 0.197579 -0.141547 0.053534 0.002251 -0.082751 -0.056282 0.017318 -0.059278 0.051815 0.026093 0.047978 -0.076903 -0.074673 -0.101272 0.116762 -0.028804 -0.049175 0.138004 -0.189958 0.082734 0.104297 0.031090 0.019163 -0.063802 -0.021650 -0.043555 -0.142400 -0.042224 0.066336 0.034112 -0.087064 0.161375 0.025391 0.087692 0.041122 -0.090768 -0.041867 -0.061662 -0.113074 -0.006994 -0.059778 -0.159200 0.106083 0.121696 -0.054405 0.079441 0.008665 0.084764 0.009348 0.071929 0.022442 -0.143468 0.126638 -0.072542 -0.066155 0.134677 0.067407 -0.149021 0.064379 -0.111432 0.022176 -0.083170 0.032501 0.173554 0.133565 -0.134807 -0.104082 0.032243 0.001369 0.020178 -0.038834 -0.066202 -0.025834 -0.096585 0.172247 -0.156869 -0.034884 0.019542 -0.094640 0.048456 -0.271774 -0.179955 0.022781 0.076290 0.102719
24 -0.057177 -0.146119 0.093595 0.084901 0.083840 -0.124563 0.094850 0.124536 0.056492 0.012427 -0.037941 0.223725 0.121427 -0.220688 -0.124825 -0.203659 -0.058472 -0.196034 0.012599 0.138527 0.288315 -0.053484 0.268331 0.028524 -0.017878 -0.042368 -0.216732 -0.045824 0.035429 0.268952 0.056937 0.076487 -0.072223 -0.008227 -0.182559 -0.166128 0.294564 0.170353 -0.024817 -0.001397 -0.206962 0.075248 0.189627 0.190567 -0.141379 0.082624 0.013292 -0.119015 -0.102555 0.014691 0.025526 0.121847 0.032664 0.054925 -0.111246 -0.110029 -0.114681 0.083581 -0.036583 -0.008879 0.131131 -0.174061 0.044151 0.126862 0.057757 -0.084649 -0.108661 -0.042404 -0.020702 -0.091722 0.007853 0.044612 0.008878 -0.046758 0.077012 -0.032075 0.050043 0.062973 -0.069937 0.064352 -0.057351 -0.123997 0.014287 -0.134310 -0.082515 0.162021 0.022891 -0.030143 -0.007581 -0.004592 0.008490 0.061494 0.067564 -0.001500 -0.098919 0.203093 -0.101169 0.066279 0.091565 -0.018538 -0.144174 0.105339 -0.077159 -0.016538 -0.039818 0.052957 0.163271 0.073316 -0.066284 -0.040506 0.073387 -0.048291 -0.024199 -0.053587 -0.035302 -0.028004 -0.088216 0.170090 -0.090061 0.044977 0.005309 -0.122117 0.011484 -0.242526 -0.104666 0.127488 0.039693 0.079850
8 -0.011171 -0.169502 0.053976 0.032094 0.019720 -0.102054 0.009052 0.202731 0.134198 0.004317 -0.005342 0.217722 0.091457 -0.170491 -0.018943 -0.121449 -0.069052 -0.137617 0.032573 0.067133 0.138521 -0.038506 0.129965 -0.016870 0.029429 0.056771 -0.126856 -0.009585 0.052210 0.122354 0.024878 0.033867 -0.057861 0.005605 -0.119360 -0.201262 0.177342 0.073453 -0.026852 0.040108 -0.106567 -0.077879 0.157626 0.207794 -0.147495 0.045959 -0.008895 -0.070975 -0.039911 0.012432 -0.094182 0.023063 0.026801 0.050662 -0.068398 -0.060535 -0.091697 0.127704 -0.027617 -0.066384 0.142068 -0.198028 0.099915 0.103286 0.020168 0.058431 -0.049631 -0.008826 -0.054343 -0.161492 -0.063861 0.074081 0.043212 -0.107294 0.189075 0.047840 0.093390 0.029966 -0.096909 -0.079810 -0.056324 -0.109326 -0.020744 -0.026387 -0.189736 0.080899 0.166238 -0.061117 0.115346 0.011821 0.115335 -0.012440 0.074072 0.027643 -0.159020 0.087507 -0.056541 -0.128507 0.143284 0.099698 -0.144959 0.044568 -0.123945 0.036059 -0.093962 0.020167 0.173985 0.150747 -0.156279 -0.127492 0.016572 0.025876 0.045164 -0.033058 -0.090633 -0.020874 -0.097025 0.170660 -0.181237 -0.070138 0.025010 -0.087433 0.068467 -0.285533 -0.213610 -0.020572 0.097414 0.114827
9 -0.038359 -0.159047 0.069726 0.060561 0.051994 -0.108343 0.054056 0.161245 0.098842 0.007066 -0.022811 0.221804 0.103043 -0.195927 -0.074263 -0.158470 -0.067348 -0.164741 0.013869 0.103547 0.209214 -0.046686 0.205293 -0.002370 0.003344 0.004444 -0.171703 -0.033158 0.043851 0.193964 0.043417 0.058390 -0.063732 -0.005426 -0.150636 -0.186720 0.242857 0.129193 -0.031956 0.023290 -0.167186 -0.001750 0.182642 0.203725 -0.148201 0.059611 0.008362 -0.104536 -0.077084 0.011661 -0.034845 0.076402 0.027898 0.049703 -0.087263 -0.090823 -0.113389 0.106123 -0.025347 -0.038591 0.141729 -0.187039 0.067331 0.116989 0.050075 -0.017596 -0.079393 -0.026774 -0.036870 -0.132678 -0.022979 0.063436 0.035167 -0.082990 0.142428 0.006274 0.079598 0.057358 -0.092325 -0.004934 -0.058521 -0.124002 -0.004819 -0.095208 -0.140917 0.128575 0.099506 -0.049519 0.049619 0.009040 0.068383 0.027233 0.076543 0.022038 -0.137287 0.153849 -0.080745 -0.027531 0.125208 0.043459 -0.151686 0.075718 -0.110253 0.008417 -0.069912 0.035995 0.171402 0.119662 -0.120769 -0.092035 0.054957 -0.009987 0.010411 -0.049950 -0.058009 -0.027632 -0.100438 0.184857 -0.145009 -0.007297 0.015306 -0.106681 0.040041 -0.268660 -0.170752 0.060890 0.073623 0.101913
30 -0.053588 -0.151243 0.087876 0.085763 0.075369 -0.110922 0.096550 0.118764 0.055417 0.015526 -0.048221 0.217047 0.109374 -0.213352 -0.122013 -0.196419 -0.054235 -0.184993 0.004902 0.135609 0.270206 -0.058516 0.257730 0.013966 -0.014000 -0.043080 -0.199151 -0.041605 0.031040 0.253027 0.055840 0.069082 -0.063700 -0.008176 -0.175635 -0.157277 0.283436 0.171103 -0.019911 0.003608 -0.205107 0.070990 0.192760 0.195305 -0.135255 0.075635 0.018949 -0.130090 -0.103027 0.022359 0.020516 0.117544 0.040153 0.045961 -0.108354 -0.110897 -0.133327 0.088391 -0.023954 -0.011301 0.134678 -0.181298 0.048490 0.126177 0.077828 -0.082883 -0.108429 -0.048855 -0.016366 -0.112263 0.006305 0.047025 0.016622 -0.057151 0.092886 -0.028883 0.068163 0.073671 -0.080896 0.059302 -0.069435 -0.137434 0.007454 -0.143810 -0.096183 0.172474 0.036590 -0.035494 -0.005879 0.003849 0.025721 0.054298 0.067420 0.011705 -0.112384 0.211147 -0.111131 0.062185 0.105859 -0.012928 -0.144642 0.107235 -0.093267 -0.023735 -0.049928 0.046440 0.174360 0.081591 -0.089507 -0.056847 0.075126 -0.045057 -0.028810 -0.063514 -0.029413 -0.029874 -0.101033 0.186340 -0.114325 0.050381 0.003165 -0.120072 0.021464 -0.254674 -0.125191 0.123582 0.060902 0.085295
7 0.044401 -0.201662 -0.002985 0.020007 -0.036495 -0.101668 -0.029758 0.311686 0.279599 -0.011833 0.043915 0.273080 0.082131 -0.161589 0.063943 -0.061676 -0.099730 -0.167259 0.022802 0.026409 0.046780 -0.058558 0.045721 -0.039921 0.102758 0.103114 -0.116945 -0.041922 0.053129 0.042413 0.020579 0.004087 -0.041905 -0.040270 -0.097140 -0.280850 0.124180 0.030837 -0.080104 0.051936 -0.048959 -0.206476 0.160068 0.242087 -0.197519 0.031522 0.008254 -0.029868 0.024846 0.021707 -0.195396 -0.006251 -0.001435 0.013439 0.015318 -0.028130 -0.065668 0.162847 0.027847 -0.130188 0.165887 -0.215162 0.174189 0.102667 -0.027517 0.178106 -0.014773 0.039319 -0.085130 -0.237169 -0.116439 0.112418 0.042861 -0.162788 0.314208 0.105570 0.095150 -0.000888 -0.148834 -0.218805 -0.060320 -0.051291 -0.027792 0.100753 -0.297503 -0.042394 0.297321 -0.079004 0.226586 0.039950 0.217417 -0.079061 0.113483 0.106210 -0.197969 0.013715 0.022357 -0.306112 0.216228 0.213910 -0.144809 0.013764 -0.177110 0.084859 -0.163918 -0.006955 0.173672 0.222404 -0.218295 -0.178392 0.005000 0.107708 0.105197 -0.034577 -0.139323 -0.017242 -0.120689 0.200506 -0.274788 -0.172883 0.064093 -0.041481 0.149920 -0.381614 -0.384013 -0.125170 0.165500 0.190806
6 0.029506 -0.180253 0.010370 0.024700 -0.020200 -0.094706 -0.019481 0.267341 0.224387 -0.008120 0.033854 0.238171 0.077360 -0.149166 0.041921 -0.067814 -0.088300 -0.150632 0.025978 0.031221 0.061600 -0.050927 0.059496 -0.037009 0.079180 0.085542 -0.109549 -0.034960 0.052340 0.061804 0.019293 0.005160 -0.039931 -0.027210 -0.096439 -0.248316 0.134490 0.046048 -0.068287 0.042395 -0.057654 -0.165272 0.152986 0.215488 -0.179170 0.032474 0.005205 -0.040124 0.009528 0.018693 -0.160688 0.001963 0.000845 0.018112 0.001275 -0.036675 -0.065293 0.143853 0.013661 -0.113095 0.153370 -0.193749 0.146346 0.094789 -0.016031 0.136962 -0.026095 0.025511 -0.075989 -0.202237 -0.094171 0.094596 0.040189 -0.136719 0.264433 0.084119 0.088359 0.008140 -0.127243 -0.169843 -0.058318 -0.059097 -0.021451 0.067044 -0.245381 -0.016191 0.251456 -0.070919 0.186158 0.029687 0.179772 -0.057892 0.096754 0.082842 -0.172095 0.024785 0.005065 -0.248374 0.186924 0.172096 -0.127968 0.014915 -0.147554 0.070153 -0.137515 0.004406 0.159224 0.193999 -0.186043 -0.153651 0.007742 0.081104 0.086043 -0.025650 -0.114995 -0.014125 -0.102698 0.175393 -0.228815 -0.144093 0.053313 -0.050047 0.120293 -0.333808 -0.318533 -0.091542 0.137878 0.154233
28 -0.061915 -0.151194 0.093935 0.085406 0.082613 -0.117681 0.102738 0.125161 0.057535 0.011912 -0.041260 0.230600 0.114971 -0.214839 -0.128333 -0.201930 -0.057788 -0.202230 0.009987 0.141623 0.292690 -0.063501 0.279107 0.021337 -0.016156 -0.046768 -0.230269 -0.049053 0.039286 0.275845 0.065811 0.080111 -0.064506 -0.009692 -0.188569 -0.178491 0.308403 0.184940 -0.026826 0.006455 -0.218495 0.069364 0.202933 0.202418 -0.153305 0.081127 0.019862 -0.130438 -0.109895 0.020293 0.018062 0.126997 0.040242 0.046307 -0.111043 -0.122652 -0.134292 0.087447 -0.033008 -0.011715 0.139966 -0.188172 0.053684 0.139132 0.071946 -0.086300 -0.117123 -0.045493 -0.023439 -0.119650 0.002459 0.052662 0.007850 -0.061680 0.097431 -0.028110 0.061032 0.074846 -0.089644 0.059746 -0.069573 -0.137463 0.016801 -0.142421 -0.097604 0.174682 0.039880 -0.033761 -0.005760 0.000360 0.019648 0.059672 0.070299 0.010208 -0.108879 0.210587 -0.105810 0.064878 0.105604 -0.015394 -0.149315 0.112726 -0.096542 -0.021754 -0.043994 0.053023 0.177129 0.080170 -0.076092 -0.053528 0.080961 -0.038843 -0.029203 -0.061718 -0.031769 -0.030749 -0.098453 0.184233 -0.105450 0.041351 0.007488 -0.123478 0.022207 -0.254845 -0.131870 0.122922 0.051899 0.086529
25 -0.076995 -0.149930 0.094367 0.097153 0.096250 -0.134710 0.121529 0.105328 0.047467 0.007856 -0.049438 0.232366 0.126162 -0.229186 -0.153653 -0.228819 -0.056303 -0.226110 0.008327 0.171059 0.353739 -0.067047 0.331823 0.037353 -0.029999 -0.080692 -0.266451 -0.066224 0.030747 0.330551 0.081461 0.092837 -0.071389 -0.020606 -0.225066 -0.175462 0.343263 0.215976 -0.036488 -0.009897 -0.250515 0.110083 0.211199 0.193534 -0.155842 0.101218 0.028401 -0.137018 -0.120616 0.018151 0.043042 0.158645 0.043133 0.052727 -0.135627 -0.139984 -0.126140 0.076062 -0.041527 0.005730 0.138836 -0.181581 0.040045 0.147928 0.065868 -0.120881 -0.131438 -0.052397 -0.023140 -0.099872 0.020518 0.039327 0.007981 -0.039753 0.068278 -0.054407 0.039931 0.082656 -0.076425 0.088202 -0.068738 -0.142898 0.022764 -0.173184 -0.073107 0.196136 0.007188 -0.035567 -0.034453 -0.018269 -0.006765 0.080920 0.082014 0.000627 -0.099117 0.239767 -0.117147 0.100892 0.093816 -0.037595 -0.154851 0.122651 -0.088424 -0.030178 -0.029058 0.057841 0.180474 0.067634 -0.050788 -0.030871 0.085685 -0.058189 -0.033455 -0.066006 -0.030925 -0.029205 -0.088169 0.189120 -0.080889 0.058934 0.003799 -0.134043 0.002626 -0.262796 -0.105832 0.170576 0.026231 0.078493
29 -0.062328 -0.140083 0.087352 0.077501 0.082644 -0.115197 0.096244 0.109425 0.047263 0.014740 -0.042947 0.215145 0.106921 -0.208409 -0.122357 -0.196800 -0.059089 -0.188557 0.012218 0.131721 0.290633 -0.061678 0.268142 0.018839 -0.020915 -0.047129 -0.215160 -0.046308 0.042365 0.269929 0.064509 0.074619 -0.063854 -0.005085 -0.182840 -0.160988 0.298674 0.175644 -0.018784 0.001275 -0.208019 0.077247 0.191194 0.189069 -0.136830 0.081759 0.017942 -0.129893 -0.106795 0.020548 0.021952 0.117582 0.038043 0.052923 -0.123438 -0.113638 -0.126245 0.090934 -0.030772 -0.007164 0.139324 -0.185571 0.040173 0.130051 0.072397 -0.088027 -0.119291 -0.051782 -0.017481 -0.109513 0.002359 0.045642 0.014728 -0.055852 0.097358 -0.023153 0.075158 0.073356 -0.080678 0.060518 -0.073830 -0.139698 0.014979 -0.157559 -0.098180 0.180785 0.042818 -0.044409 -0.004222 -0.004457 0.022506 0.059435 0.068326 0.009817 -0.116290 0.220965 -0.117245 0.066597 0.108005 -0.014015 -0.158721 0.113857 -0.095952 -0.020017 -0.046584 0.050904 0.177466 0.079507 -0.085235 -0.055469 0.083914 -0.041078 -0.031347 -0.063654 -0.039487 -0.032823 -0.098361 0.185286 -0.104712 0.047275 0.003503 -0.124839 0.014978 -0.257947 -0.118524 0.129278 0.051288 0.078179
26 -0.071537 -0.148807 0.100795 0.097761 0.103951 -0.139334 0.127453 0.109626 0.040612 0.008424 -0.053310 0.237673 0.132797 -0.242169 -0.158773 -0.230728 -0.055968 -0.228901 0.006114 0.173411 0.354831 -0.065080 0.333550 0.039244 -0.032816 -0.080599 -0.268109 -0.065607 0.030389 0.332373 0.082516 0.092654 -0.070680 -0.019990 -0.222518 -0.176308 0.344983 0.211695 -0.033131 -0.009176 -0.247122 0.107158 0.208477 0.194689 -0.159037 0.103087 0.023527 -0.140230 -0.125529 0.023661 0.052454 0.159688 0.039994 0.046902 -0.130710 -0.137647 -0.127037 0.079768 -0.045850 0.005986 0.137956 -0.184815 0.038845 0.153328 0.070304 -0.122257 -0.127602 -0.059497 -0.016164 -0.096735 0.022610 0.040846 -0.000382 -0.039392 0.067211 -0.056366 0.037058 0.080123 -0.076487 0.091773 -0.073737 -0.135687 0.024374 -0.169125 -0.064479 0.199351 -0.003417 -0.027663 -0.037326 -0.014872 -0.007710 0.080795 0.079223 0.006153 -0.089323 0.235806 -0.119572 0.111030 0.092508 -0.047145 -0.146226 0.122838 -0.080742 -0.030885 -0.025489 0.062286 0.177883 0.060144 -0.043747 -0.021748 0.082464 -0.062573 -0.038351 -0.060105 -0.021067 -0.029959 -0.089154 0.182643 -0.072212 0.059154 0.000402 -0.139920 -0.000088 -0.260250 -0.097536 0.170912 0.025365 0.071241
20 -0.010362 -0.154303 0.047814 0.025616 0.016171 -0.097235 0.000487 0.190542 0.117348 -0.000939 -0.004944 0.190714 0.088335 -0.150563 -0.015523 -0.104046 -0.067238 -0.115597 0.026969 0.051297 0.118948 -0.033205 0.111212 -0.015383 0.029003 0.061639 -0.101897 -0.002701 0.055272 0.093559 0.014152 0.026585 -0.057187 0.008533 -0.109103 -0.192379 0.168007 0.064090 -0.027484 0.035038 -0.102177 -0.084006 0.154807 0.202823 -0.140231 0.037256 -0.006311 -0.068724 -0.036030 0.005067 -0.096494 0.015755 0.026938 0.047674 -0.067851 -0.055038 -0.086156 0.124457 -0.032197 -0.061822 0.147250 -0.192177 0.097377 0.098835 0.018368 0.065876 -0.049792 -0.003521 -0.056186 -0.152968 -0.064465 0.075755 0.049608 -0.110558 0.189303 0.051765 0.105752 0.029805 -0.092152 -0.078084 -0.056027 -0.113266 -0.021278 -0.031475 -0.176712 0.078493 0.158577 -0.058877 0.112576 0.017296 0.114029 -0.011201 0.069445 0.020390 -0.156135 0.081902 -0.053182 -0.128271 0.135682 0.106088 -0.143588 0.039192 -0.116070 0.040892 -0.095271 0.024701 0.162560 0.151202 -0.149459 -0.121961 0.011551 0.024429 0.043816 -0.025956 -0.085083 -0.024082 -0.087021 0.166268 -0.173324 -0.071463 0.023994 -0.075775 0.058308 -0.270453 -0.199749 -0.023005 0.086641 0.111754
31 -0.045815 -0.150117 0.087401 0.068776 0.064434 -0.113397 0.066359 0.139116 0.064513 0.013613 -0.033535 0.216584 0.110496 -0.201633 -0.094105 -0.177137 -0.063631 -0.160445 0.017115 0.110178 0.236877 -0.052648 0.219842 0.008618 -0.004568 -0.007464 -0.174328 -0.021928 0.045669 0.213973 0.041629 0.066356 -0.070260 0.007510 -0.156950 -0.168543 0.261471 0.143831 -0.014608 0.015006 -0.184634 0.033127 0.192207 0.203867 -0.140936 0.064469 0.005772 -0.121950 -0.091276 0.018353 -0.014780 0.088580 0.039669 0.055148 -0.108587 -0.102981 -0.123972 0.100489 -0.034111 -0.029521 0.146798 -0.190606 0.053884 0.113931 0.063677 -0.043433 -0.098714 -0.041123 -0.028899 -0.120131 -0.013393 0.050611 0.032967 -0.073624 0.119995 -0.003201 0.092146 0.061194 -0.078511 0.025559 -0.061795 -0.140068 -0.000943 -0.123882 -0.117529 0.152980 0.069211 -0.048690 0.027631 0.004410 0.041343 0.044949 0.066076 0.004635 -0.136074 0.178735 -0.103321 0.011173 0.113757 0.023609 -0.154913 0.089673 -0.096649 -0.008236 -0.063736 0.041340 0.175256 0.103977 -0.107300 -0.078784 0.056907 -0.030653 -0.012063 -0.054994 -0.045284 -0.024784 -0.099998 0.188260 -0.136773 0.020201 0.007820 -0.114252 0.026360 -0.260740 -0.143046 0.084216 0.062988 0.089590
5 0.041128 -0.196218 -0.010282 0.017309 -0.029274 -0.104451 -0.024133 0.299006 0.276668 -0.017034 0.047609 0.268016 0.076032 -0.151615 0.062527 -0.066228 -0.100542 -0.170493 0.027056 0.031951 0.059492 -0.054114 0.050207 -0.034354 0.098408 0.094754 -0.121311 -0.049677 0.049984 0.051014 0.020183 0.001237 -0.040239 -0.039240 -0.093738 -0.279088 0.129342 0.038659 -0.081860 0.050055 -0.042569 -0.202196 0.153668 0.232589 -0.201000 0.032644 0.008544 -0.027633 0.024412 0.018229 -0.191627 0.000877 0.002809 0.005868 0.019948 -0.035639 -0.057638 0.158970 0.024261 -0.135544 0.158675 -0.213985 0.175397 0.106550 -0.035358 0.171862 -0.014144 0.034888 -0.085394 -0.233950 -0.115999 0.107178 0.039045 -0.162129 0.305188 0.095210 0.083137 -0.006934 -0.150478 -0.216809 -0.063953 -0.050700 -0.027032 0.096269 -0.292062 -0.045904 0.296025 -0.072591 0.224019 0.033489 0.212874 -0.079449 0.113278 0.107429 -0.192077 0.006600 0.019565 -0.301538 0.214106 0.213321 -0.140280 0.011103 -0.170180 0.077764 -0.160437 -0.005397 0.171483 0.213685 -0.213331 -0.171531 -0.002126 0.104329 0.107279 -0.032034 -0.140271 -0.012417 -0.109303 0.196934 -0.257692 -0.173320 0.064240 -0.041352 0.145210 -0.383682 -0.378554 -0.115783 0.154100 0.187236
11 0.019846 -0.183486 0.011870 0.026912 -0.013105 -0.096317 -0.014141 0.260423 0.223619 -0.013086 0.029580 0.240450 0.072781 -0.146499 0.038394 -0.079791 -0.087889 -0.155270 0.022890 0.034037 0.081963 -0.053177 0.077849 -0.029656 0.073367 0.071815 -0.124222 -0.038727 0.046628 0.069476 0.027723 0.009239 -0.041222 -0.033537 -0.104963 -0.248463 0.155080 0.058817 -0.065443 0.048557 -0.066144 -0.151091 0.164465 0.223796 -0.185699 0.040318 0.011448 -0.043006 -0.000953 0.020422 -0.150684 0.013167 0.007658 0.019293 -0.009667 -0.049560 -0.072809 0.152280 0.007006 -0.106218 0.155682 -0.209414 0.153697 0.110223 -0.013098 0.130849 -0.040218 0.018223 -0.071559 -0.221534 -0.094634 0.099794 0.036342 -0.147972 0.279694 0.082200 0.093994 0.008995 -0.142461 -0.167705 -0.064845 -0.068038 -0.023666 0.048247 -0.262622 0.001042 0.257167 -0.071099 0.187728 0.030152 0.179895 -0.057549 0.104727 0.090222 -0.180784 0.043639 -0.003553 -0.237350 0.193182 0.176703 -0.137164 0.031830 -0.159198 0.064390 -0.140729 0.003806 0.176118 0.190118 -0.191131 -0.158904 0.014254 0.083314 0.076567 -0.038834 -0.120010 -0.020521 -0.117562 0.200955 -0.241724 -0.138378 0.053942 -0.064642 0.128892 -0.366256 -0.335918 -0.081901 0.141274 0.168686
18 -0.001938 -0.172737 0.045584 0.021474 0.014973 -0.101032 -0.014054 0.224226 0.148369 0.004087 -0.000693 0.219935 0.093121 -0.163002 -0.002336 -0.111193 -0.075633 -0.122733 0.028290 0.053350 0.109005 -0.033397 0.103274 -0.021622 0.040993 0.080135 -0.101927 0.001657 0.060528 0.085673 0.012685 0.026121 -0.057219 0.012402 -0.101612 -0.208905 0.157465 0.058619 -0.026122 0.050262 -0.093400 -0.103015 0.161781 0.218532 -0.153145 0.037623 -0.015167 -0.067870 -0.029423 0.007403 -0.113708 0.000979 0.026907 0.055857 -0.061367 -0.050717 -0.092674 0.140030 -0.027722 -0.078593 0.156312 -0.213290 0.113291 0.099508 0.021003 0.090329 -0.044511 -0.003100 -0.057835 -0.174163 -0.077263 0.083869 0.061281 -0.131648 0.221404 0.064723 0.122388 0.029759 -0.105117 -0.106281 -0.064203 -0.111468 -0.025035 -0.018163 -0.208702 0.066178 0.193529 -0.066334 0.134824 0.024772 0.133376 -0.026088 0.077190 0.025765 -0.179171 0.073358 -0.051878 -0.156887 0.156313 0.123331 -0.146061 0.039253 -0.124178 0.045741 -0.107301 0.018480 0.168359 0.165006 -0.174066 -0.146354 0.004468 0.031501 0.049898 -0.031289 -0.091527 -0.024612 -0.097309 0.171034 -0.195640 -0.090196 0.028532 -0.080208 0.071723 -0.286935 -0.226350 -0.051472 0.101462 0.119646
21 -0.058465 -0.138309 0.085921 0.076703 0.070825 -0.106431 0.090333 0.110621 0.054803 0.015868 -0.040533 0.205444 0.103685 -0.200915 -0.114608 -0.181660 -0.053435 -0.177951 0.008744 0.125805 0.266121 -0.058972 0.249929 0.018921 -0.012313 -0.042799 -0.199744 -0.044687 0.033816 0.247384 0.059824 0.069254 -0.061646 -0.008350 -0.176372 -0.165117 0.284443 0.172581 -0.022177 0.007334 -0.207547 0.069679 0.188602 0.188837 -0.140887 0.076618 0.021502 -0.124039 -0.096805 0.020838 0.021090 0.117575 0.038700 0.043525 -0.107449 -0.110443 -0.128178 0.084227 -0.028269 -0.009995 0.132992 -0.178132 0.048492 0.129408 0.075927 -0.079779 -0.107824 -0.048685 -0.022437 -0.117885 0.006599 0.044882 0.016759 -0.058386 0.102772 -0.023792 0.066918 0.068014 -0.083188 0.054459 -0.068984 -0.132316 0.011234 -0.145291 -0.104646 0.164540 0.042653 -0.040451 0.002255 0.000398 0.029257 0.057344 0.068050 0.018861 -0.115861 0.206462 -0.106622 0.056651 0.110187 -0.006977 -0.148526 0.104264 -0.095077 -0.015094 -0.045491 0.049381 0.170249 0.078503 -0.085733 -0.058084 0.081726 -0.034198 -0.026422 -0.060367 -0.035470 -0.025473 -0.100901 0.185568 -0.112247 0.045955 0.007313 -0.120281 0.024097 -0.261253 -0.130326 0.118888 0.060182 0.082133
16 -0.054886 -0.150342 0.088743 0.078375 0.072730 -0.109407 0.088707 0.128702 0.062324 0.014033 -0.043739 0.215405 0.103673 -0.201045 -0.105365 -0.186208 -0.062019 -0.179342 0.004384 0.118019 0.255182 -0.055383 0.244973 0.009941 -0.009238 -0.029854 -0.192795 -0.038544 0.037347 0.233257 0.049512 0.070141 -0.064446 -0.007476 -0.165854 -0.162780 0.281761 0.159280 -0.023270 0.009242 -0.201452 0.060268 0.196147 0.197499 -0.135715 0.069400 0.019838 -0.122862 -0.100479 0.023776 0.012647 0.105345 0.038722 0.053224 -0.108093 -0.110585 -0.133559 0.095383 -0.022778 -0.021756 0.142417 -0.188178 0.049529 0.120411 0.076874 -0.068160 -0.103779 -0.041348 -0.021720 -0.122089 0.001537 0.046310 0.025768 -0.069106 0.110680 -0.017834 0.084236 0.066649 -0.087810 0.042955 -0.062565 -0.139331 0.008580 -0.141304 -0.109026 0.167183 0.056596 -0.038656 0.009769 0.007118 0.031193 0.053872 0.063194 0.013560 -0.125185 0.203677 -0.101622 0.039001 0.110277 -0.000303 -0.144547 0.102540 -0.093020 -0.018412 -0.057068 0.039895 0.171243 0.087142 -0.094370 -0.065809 0.072759 -0.029833 -0.024993 -0.059337 -0.036016 -0.025176 -0.100735 0.193563 -0.123370 0.035032 0.008075 -0.116555 0.026188 -0.260776 -0.135568 0.107738 0.064701 0.091901
22 -0.004367 -0.168565 0.046348 0.029414 0.016008 -0.103946 0.001715 0.209998 0.142598 0.000355 -0.002793 0.221204 0.093574 -0.169558 -0.012017 -0.114109 -0.076597 -0.137630 0.030674 0.064120 0.124667 -0.038355 0.119033 -0.019038 0.030982 0.064917 -0.119288 -0.013494 0.056366 0.107668 0.020292 0.027210 -0.058067 0.002242 -0.112738 -0.203794 0.162895 0.067191 -0.032601 0.036942 -0.094771 -0.093370 0.156093 0.210160 -0.145662 0.041725 -0.010280 -0.065618 -0.031221 0.008704 -0.103121 0.015386 0.018083 0.044596 -0.055072 -0.056573 -0.088842 0.136405 -0.017327 -0.074255 0.148975 -0.196365 0.106627 0.102671 0.017166 0.072897 -0.049950 -0.000856 -0.051115 -0.158629 -0.065498 0.077989 0.050301 -0.115006 0.200287 0.052987 0.098046 0.030925 -0.096567 -0.091447 -0.059368 -0.105686 -0.018133 -0.024183 -0.191822 0.063879 0.175614 -0.065519 0.125229 0.017738 0.123468 -0.016833 0.075162 0.028548 -0.163025 0.082222 -0.050275 -0.138486 0.152252 0.108715 -0.142897 0.042994 -0.120633 0.041772 -0.099583 0.021426 0.168217 0.160646 -0.161717 -0.130511 0.018806 0.028938 0.050588 -0.029974 -0.089194 -0.022186 -0.099350 0.174900 -0.190673 -0.077976 0.030728 -0.080675 0.070833 -0.285864 -0.222440 -0.027805 0.102113 0.121147
10 -0.044953 -0.140764 0.072886 0.068524 0.065307 -0.100994 0.075380 0.125701 0.068502 0.006173 -0.029952 0.203644 0.096571 -0.183572 -0.095327 -0.163655 -0.054212 -0.163378 0.009034 0.112772 0.237631 -0.051557 0.222057 0.016456 -0.007819 -0.024970 -0.181442 -0.039170 0.035545 0.214926 0.046711 0.057790 -0.058392 -0.003308 -0.160583 -0.162793 0.257399 0.143047 -0.026997 0.007955 -0.179468 0.037527 0.179915 0.187597 -0.132073 0.071263 0.018456 -0.109866 -0.081573 0.013217 -0.001151 0.095702 0.036149 0.044290 -0.098583 -0.097795 -0.111642 0.086758 -0.030071 -0.019581 0.131805 -0.173366 0.051062 0.119571 0.057396 -0.049541 -0.096941 -0.038897 -0.028325 -0.118713 -0.006183 0.048383 0.024058 -0.066155 0.112988 -0.010089 0.069317 0.058209 -0.084681 0.027325 -0.066145 -0.125048 0.006281 -0.113126 -0.111705 0.144154 0.058946 -0.041944 0.017885 0.000731 0.040829 0.043284 0.070962 0.016080 -0.115997 0.177374 -0.091440 0.018008 0.106813 0.014094 -0.139702 0.087445 -0.091841 -0.007839 -0.054971 0.040115 0.164313 0.090373 -0.092170 -0.061305 0.064884 -0.029998 -0.009737 -0.053535 -0.039630 -0.024817 -0.088790 0.175387 -0.114589 0.017410 0.009122 -0.109082 0.027319 -0.245572 -0.130987 0.088217 0.053931 0.086170
15 -0.064611 -0.157357 0.100479 0.081547 0.082398 -0.110533 0.097580 0.120911 0.052797 0.015255 -0.045919 0.220233 0.112971 -0.214550 -0.120969 -0.200618 -0.061834 -0.185257 0.005232 0.128951 0.278862 -0.056283 0.261535 0.016351 -0.020864 -0.037275 -0.207483 -0.038624 0.039234 0.253625 0.053483 0.077735 -0.064618 -0.002728 -0.176170 -0.163076 0.294182 0.174188 -0.013823 0.012089 -0.216840 0.073661 0.200403 0.202684 -0.135999 0.079194 0.012599 -0.134743 -0.109199 0.018815 0.020035 0.114261 0.041317 0.058279 -0.122628 -0.122590 -0.146221 0.091117 -0.026481 -0.011072 0.147710 -0.187558 0.047843 0.125327 0.083789 -0.079136 -0.110470 -0.050646 -0.014399 -0.111595 0.006409 0.045977 0.025227 -0.066631 0.095474 -0.024920 0.081624 0.074680 -0.087803 0.054970 -0.066425 -0.143586 0.010348 -0.158363 -0.106066 0.177089 0.042034 -0.044578 -0.003254 0.006992 0.025843 0.063315 0.068808 0.003020 -0.128334 0.219980 -0.113365 0.065812 0.110372 -0.005531 -0.151197 0.109475 -0.098464 -0.020787 -0.048126 0.043389 0.181854 0.085700 -0.094058 -0.067465 0.080771 -0.043562 -0.030722 -0.068689 -0.037536 -0.026738 -0.102409 0.201190 -0.124972 0.053612 0.008966 -0.129963 0.025982 -0.259143 -0.134333 0.123144 0.063984 0.089564
23 -0.058272 -0.139920 0.087408 0.084202 0.076869 -0.102176 0.094470 0.112328 0.049975 0.013987 -0.047857 0.202883 0.103074 -0.201809 -0.120945 -0.183012 -0.052832 -0.171942 0.007290 0.129408 0.262649 -0.060503 0.248832 0.016854 -0.015112 -0.044202 -0.200800 -0.045306 0.029127 0.250077 0.055975 0.073315 -0.060885 -0.008120 -0.172329 -0.154488 0.283871 0.167947 -0.022051 0.007846 -0.206417 0.076798 0.190754 0.187431 -0.127858 0.071075 0.019121 -0.124670 -0.104549 0.022725 0.025862 0.114311 0.040698 0.045140 -0.110485 -0.117954 -0.138294 0.086797 -0.021970 -0.014439 0.135257 -0.179540 0.045945 0.124857 0.082906 -0.087450 -0.105856 -0.046189 -0.012857 -0.102881 0.009018 0.043509 0.020337 -0.053999 0.084280 -0.026884 0.072182 0.073133 -0.076228 0.061718 -0.060438 -0.136178 0.016245 -0.150473 -0.092916 0.171504 0.032406 -0.035003 -0.013263 0.002850 0.019045 0.060260 0.059496 0.011285 -0.114005 0.206967 -0.106097 0.066245 0.101811 -0.010900 -0.143714 0.106611 -0.087374 -0.026680 -0.046285 0.041734 0.164688 0.072194 -0.080898 -0.052963 0.076836 -0.043079 -0.032945 -0.066632 -0.029655 -0.029784 -0.099746 0.186280 -0.110411 0.053385 0.007643 -0.115291 0.019252 -0.247371 -0.121191 0.119464 0.056664 0.079297
13 -0.018329 -0.168607 0.061358 0.039536 0.031662 -0.110955 0.024332 0.193374 0.129166 0.005911 -0.011207 0.222918 0.101891 -0.187347 -0.038711 -0.135422 -0.074085 -0.156290 0.023994 0.078993 0.167293 -0.041044 0.150236 -0.007820 0.016575 0.037095 -0.141971 -0.016211 0.052304 0.147470 0.029231 0.044137 -0.059594 -0.002170 -0.131934 -0.200341 0.197572 0.096363 -0.031329 0.031464 -0.121101 -0.055281 0.165091 0.203874 -0.148924 0.053328 -0.001950 -0.077022 -0.052851 0.014144 -0.076832 0.044818 0.026162 0.050040 -0.074965 -0.071902 -0.097672 0.119013 -0.023016 -0.058806 0.145044 -0.191808 0.088579 0.104063 0.027420 0.033744 -0.059487 -0.013993 -0.044996 -0.148905 -0.050279 0.066707 0.040820 -0.098653 0.170264 0.028963 0.083932 0.034861 -0.094802 -0.060764 -0.055463 -0.111046 -0.013211 -0.046475 -0.174444 0.091421 0.145454 -0.058261 0.092494 0.014307 0.102655 0.000869 0.072372 0.021578 -0.148470 0.107174 -0.063572 -0.100822 0.139026 0.083281 -0.145762 0.057063 -0.118613 0.030183 -0.088298 0.023493 0.177496 0.142116 -0.142420 -0.118789 0.033166 0.012326 0.034291 -0.034218 -0.082486 -0.026860 -0.099629 0.178681 -0.166325 -0.058205 0.026059 -0.088722 0.060770 -0.279788 -0.202595 0.009568 0.087652 0.114769
27 -0.057806 -0.153833 0.095590 0.083747 0.085862 -0.116329 0.102185 0.125641 0.045398 0.017480 -0.049772 0.219835 0.114186 -0.215223 -0.127256 -0.206459 -0.053655 -0.190523 0.009461 0.130954 0.291623 -0.059900 0.272475 0.022577 -0.014983 -0.046300 -0.215554 -0.038491 0.036707 0.269590 0.060546 0.072483 -0.072566 -0.005942 -0.177565 -0.167828 0.303036 0.178022 -0.019291 0.005422 -0.220389 0.079409 0.201524 0.204201 -0.139141 0.081530 0.023272 -0.138223 -0.109720 0.025393 0.028776 0.121624 0.040388 0.058142 -0.121124 -0.122472 -0.139448 0.093024 -0.025263 -0.009799 0.140120 -0.184462 0.043649 0.129946 0.084393 -0.087639 -0.121678 -0.051531 -0.016832 -0.116228 -0.000027 0.053023 0.016094 -0.065914 0.098302 -0.029202 0.081253 0.072887 -0.087135 0.065778 -0.074627 -0.147554 0.011661 -0.153661 -0.103266 0.184131 0.043495 -0.040755 -0.010965 0.005673 0.015938 0.057476 0.067045 0.008042 -0.125852 0.224954 -0.117219 0.066641 0.111451 -0.015437 -0.160200 0.114255 -0.089922 -0.026287 -0.049932 0.051928 0.182059 0.076299 -0.091436 -0.054345 0.084753 -0.044496 -0.034442 -0.066521 -0.031607 -0.032060 -0.103737 0.197326 -0.119877 0.055295 0.002494 -0.124854 0.023868 -0.270093 -0.132393 0.132385 0.062267 0.086741
19 -0.056389 -0.153080 0.096673 0.080880 0.078015 -0.107612 0.093222 0.116807 0.053315 0.015861 -0.049254 0.214043 0.104723 -0.204206 -0.119160 -0.189831 -0.059521 -0.179506 0.009352 0.129467 0.273415 -0.062867 0.258861 0.015343 -0.014878 -0.035169 -0.203634 -0.039983 0.036854 0.250956 0.056823 0.074207 -0.065431 -0.007556 -0.176619 -0.165505 0.293854 0.177458 -0.016453 0.013519 -0.213449 0.070803 0.202986 0.202488 -0.137463 0.076752 0.022752 -0.138111 -0.107875 0.023075 0.016878 0.113254 0.039492 0.053267 -0.116152 -0.118213 -0.147134 0.099106 -0.021749 -0.016855 0.146460 -0.196359 0.053099 0.134022 0.084204 -0.084012 -0.112336 -0.052603 -0.020758 -0.125600 0.002523 0.051477 0.023805 -0.067382 0.106238 -0.024967 0.088181 0.078454 -0.093937 0.051591 -0.072285 -0.148267 0.009978 -0.160043 -0.113009 0.181417 0.054386 -0.040873 -0.003055 0.004978 0.028773 0.061914 0.072764 0.013442 -0.132640 0.224445 -0.115994 0.057732 0.115715 -0.006296 -0.155482 0.113577 -0.104209 -0.023988 -0.056668 0.046475 0.182975 0.087393 -0.100041 -0.068545 0.080127 -0.039159 -0.028182 -0.069802 -0.033680 -0.027829 -0.101921 0.205678 -0.129666 0.052524 0.005852 -0.128150 0.025041 -0.272460 -0.142989 0.122054 0.062305 0.087768
17 0.017583 -0.187896 0.024914 0.040105 -0.009291 -0.109891 0.003391 0.269287 0.224747 -0.000483 0.024134 0.263692 0.093631 -0.171429 0.011869 -0.092901 -0.090095 -0.176223 0.017493 0.057336 0.103564 -0.061890 0.103370 -0.031569 0.074539 0.074356 -0.139987 -0.039905 0.054569 0.102016 0.027839 0.019906 -0.044057 -0.030117 -0.118277 -0.256221 0.174918 0.072136 -0.066316 0.045337 -0.091710 -0.143406 0.170124 0.237932 -0.186716 0.039128 0.010138 -0.055012 -0.012414 0.022048 -0.142615 0.019059 0.009695 0.018841 -0.013649 -0.052736 -0.090496 0.152822 0.016202 -0.108658 0.163495 -0.212450 0.145681 0.105400 0.003616 0.115575 -0.041107 0.014739 -0.068774 -0.199296 -0.087565 0.093216 0.041714 -0.140603 0.259007 0.076156 0.087434 0.013775 -0.130066 -0.150231 -0.058182 -0.076147 -0.013470 0.040967 -0.247366 0.013036 0.237385 -0.071760 0.173806 0.029348 0.161285 -0.044381 0.096846 0.083584 -0.178103 0.060799 -0.008763 -0.209113 0.191932 0.158621 -0.141031 0.034447 -0.152919 0.062535 -0.133080 0.007113 0.173603 0.184070 -0.189521 -0.143890 0.022873 0.067529 0.077403 -0.037173 -0.109049 -0.020260 -0.114146 0.198647 -0.230472 -0.123390 0.054873 -0.058209 0.115706 -0.343155 -0.318240 -0.064028 0.136544 0.163273
12 -0.011171 -0.168896 0.043977 0.035899 0.017667 -0.103011 0.013640 0.200790 0.146336 0.002128 0.003641 0.226509 0.088892 -0.166133 -0.019898 -0.113891 -0.076292 -0.148933 0.025520 0.064773 0.138505 -0.041810 0.131154 -0.016207 0.031737 0.041758 -0.132835 -0.025020 0.047259 0.123060 0.031607 0.033153 -0.057018 -0.008825 -0.121913 -0.205345 0.183809 0.087302 -0.040948 0.035797 -0.110031 -0.076518 0.166527 0.205652 -0.158156 0.050058 0.004285 -0.071679 -0.039494 0.013481 -0.093353 0.038572 0.019563 0.033653 -0.055372 -0.067201 -0.088441 0.126858 -0.013410 -0.068219 0.146239 -0.191445 0.102776 0.108147 0.014476 0.058144 -0.052461 -0.005486 -0.050155 -0.160575 -0.055554 0.077937 0.039441 -0.107876 0.196569 0.043448 0.089958 0.033790 -0.104692 -0.079869 -0.060727 -0.096781 -0.016902 -0.023368 -0.192554 0.069091 0.167271 -0.059328 0.112817 0.013455 0.117116 -0.010009 0.080283 0.042306 -0.152969 0.090484 -0.044595 -0.132731 0.154556 0.104798 -0.147157 0.047842 -0.126081 0.036016 -0.101347 0.017191 0.172588 0.152815 -0.150411 -0.125462 0.023420 0.029936 0.043795 -0.036263 -0.086201 -0.019691 -0.102187 0.185311 -0.189564 -0.075375 0.030338 -0.084255 0.077586 -0.299630 -0.237015 -0.012377 0.097609 0.126068
