124 128
120435151326642 -0.176720 -0.245282 0.116996 0.096118 -0.088805 0.215723 -0.181316 -0.149744 -0.009156 0.158597 0.019877 -0.099535 0.059464 -0.063717 -0.079740 -0.008144 -0.103365 -0.012889 0.069811 0.258584 -0.099478 -0.133226 -0.115633 -0.050073 0.120751 0.038313 -0.112990 -0.027429 -0.119292 -0.039581 -0.092321 0.028617 -0.240062 0.066509 -0.337889 -0.023239 0.004547 -0.029721 -0.102823 -0.265817 -0.130972 -0.223665 0.172397 0.244001 0.110169 -0.021738 0.226183 0.047256 0.333908 -0.016750 -0.110876 -0.018323 0.160270 -0.092025 -0.172970 -0.112878 0.247988 -0.026218 -0.310365 -0.450949 0.020640 0.021669 0.026534 0.451138 -0.119502 -0.045227 0.144353 0.087616 0.025007 0.019029 -0.000114 -0.002706 0.059839 0.131616 -0.083773 0.136220 0.030195 0.098706 0.094243 -0.132036 -0.196738 -0.107242 0.054975 0.369737 0.091825 -0.030036 0.040383 0.035308 -0.164264 0.068821 0.180939 0.184899 -0.214201 -0.055502 0.149410 0.158115 -0.181463 -0.032820 -0.002964 0.068733 0.116547 -0.037569 0.073665 -0.057419 -0.015601 -0.095149 0.117283 -0.123143 0.099081 -0.069132 -0.282050 0.135016 0.198342 -0.092936 0.180788 -0.093215 -0.030913 0.127619 -0.344421 0.169807 -0.313294 -0.063422 -0.026432 0.094604 0.018309 0.193188 0.048498 -0.146701
106447832755806 -0.079106 -0.198857 -0.042724 0.007210 -0.047536 0.310967 -0.249520 -0.153934 0.130468 0.346878 -0.025766 -0.224676 -0.115382 0.070528 0.092066 0.021366 -0.066815 -0.087184 0.229580 0.400482 -0.315340 -0.213378 -0.270676 0.020210 0.010093 0.046637 -0.063899 -0.048162 -0.066484 -0.023103 -0.087776 -0.104143 -0.074401 -0.086374 -0.233955 -0.012854 -0.073193 0.002578 -0.053812 -0.216536 -0.077199 -0.219901 0.056355 0.029198 0.029667 -0.068170 0.094687 0.007265 0.185469 0.038061 0.011252 -0.042428 -0.053793 -0.067303 -0.149771 -0.010785 0.209921 -0.017918 -0.218809 -0.159686 0.034289 0.012928 -0.049869 0.186798 -0.165928 -0.071057 0.027019 0.091479 0.107915 0.045485 0.156173 0.044773 0.059969 0.055228 -0.034124 0.040409 -0.045611 -0.055788 0.114824 -0.171178 -0.291832 -0.075487 0.037214 0.402122 0.109392 0.042467 -0.065668 0.022762 -0.154926 -0.105695 0.167130 0.271833 -0.102547 -0.105277 -0.001998 0.122619 -0.194614 0.019880 -0.049872 0.067361 0.111691 -0.133344 0.026316 0.017686 0.018180 0.058453 0.120277 -0.113210 0.076100 -0.060011 -0.164579 0.175191 0.273583 -0.090082 0.172738 -0.376437 0.076621 0.164472 -0.375998 0.159719 -0.122860 -0.056586 0.049891 0.002010 -0.032476 0.267549 0.128394 -0.212235
882293191827159 -0.024063 -0.191549 0.127769 0.059222 -0.195110 0.118499 -0.187170 -0.187620 0.257197 0.557096 0.015472 -0.236938 -0.161505 0.026150 -0.231236 0.052755 -0.160937 -0.362949 0.222389 0.627275 -0.297912 -0.359662 -0.035571 0.074163 -0.070952 0.038922 -0.036146 0.019197 0.014612 0.032808 0.042965 0.133436 -0.160186 0.024822 -0.372089 -0.036078 0.030271 0.012974 -0.170342 -0.265527 -0.000844 -0.245865 0.092345 0.080979 0.053673 -0.025972 -0.088697 -0.046532 0.029234 -0.105391 -0.080773 -0.028126 0.012936 -0.111471 -0.295474 -0.099456 0.269850 -0.098906 -0.325392 -0.191154 -0.047383 0.237025 0.066122 0.441759 -0.058217 -0.187255 0.199967 0.108443 0.415901 -0.125137 -0.028138 0.213198 0.164653 0.032007 -0.097890 -0.015790 -0.319992 -0.268782 -0.033658 -0.432278 -0.187412 -0.124881 0.136495 0.180371 0.045282 0.272364 -0.312705 0.190541 -0.170348 -0.197594 0.207272 0.378419 0.004986 -0.164568 0.079609 0.173348 -0.327113 -0.040370 -0.310670 -0.073514 0.013948 0.019313 0.032942 0.020046 0.076305 0.008952 -0.001196 -0.008910 -0.125798 -0.038920 0.094476 0.139486 0.142120 -0.155788 -0.086060 -0.492194 0.006516 0.252191 -0.114886 0.052146 -0.123497 0.057305 -0.007559 -0.062324 -0.137492 0.232252 -0.077446 -0.102026
1077656456 -0.082060 -0.457451 0.139380 -0.366363 -0.480304 0.707376 0.863970 -0.442966 -0.078080 0.821154 -0.600858 0.280293 0.331904 0.197302 -0.202038 0.026280 -0.073737 -0.318243 0.296457 -0.050869 0.550506 -0.872211 0.004875 0.171608 0.306572 0.198751 -1.213369 -0.633146 -0.152721 -0.607237 -0.138906 0.076664 -0.081091 -0.145895 -0.197554 -0.020350 0.207578 0.018539 0.025142 -1.166866 -0.051850 -0.573639 -0.312703 -0.398375 -0.154018 0.250014 -0.304494 -0.307169 -0.132112 0.111583 0.156225 0.276287 0.020096 -0.135875 -0.154451 0.355559 -0.283862 -0.175710 -0.177536 -0.119202 0.048263 0.283282 -0.079047 0.293063 0.357214 0.754444 0.169589 -0.060809 0.911673 -0.081843 -0.656817 0.323187 -0.208731 0.075677 -0.404497 0.714173 -0.582281 -0.386798 0.292993 -0.151691 -0.619919 -0.808654 -0.326763 -0.097161 0.084927 -0.618371 0.023563 -0.239029 -0.801456 0.270165 -0.124422 0.263805 -0.181180 0.012382 -0.351010 0.292439 -0.371122 0.676363 -0.177003 -0.381572 -0.623417 -0.140755 0.679632 -0.451479 -0.090330 0.205092 -0.217548 0.140151 0.189525 0.452392 -0.001041 -0.214376 -0.228939 0.158180 -0.140817 -0.957210 -0.243971 -0.070690 0.237162 -0.171776 -0.399400 0.070483 0.499137 0.151369 -0.367430 0.224748 -0.123705 -0.172979
205051538675 -0.065136 -0.462436 0.025177 0.039949 0.046330 0.233958 -0.257584 -0.239604 -0.006181 0.290718 -0.115533 -0.148811 -0.046616 0.003125 0.059765 0.055091 0.076657 -0.180766 -0.087864 0.332756 -0.344967 0.094432 -0.282171 -0.270163 -0.071000 -0.156207 -0.067235 -0.204271 -0.312038 -0.004189 -0.171711 -0.206159 -0.207693 0.031883 -0.375800 -0.061372 -0.166660 0.085700 -0.122642 -0.109857 -0.012444 -0.292898 0.070566 0.025706 -0.023630 -0.135508 0.219563 -0.229889 0.272655 0.128203 -0.128261 0.116828 0.116898 0.153727 -0.182957 -0.004587 0.057034 0.009381 -0.171595 -0.133455 0.102428 -0.004164 0.051229 0.315790 -0.068079 -0.049282 0.147733 0.178044 -0.139102 -0.073365 0.067270 0.130467 -0.039854 0.081112 -0.195636 -0.072311 -0.112796 0.149258 0.323623 -0.198727 -0.078640 -0.078387 0.156025 0.566200 0.172852 -0.066940 -0.131138 -0.050810 -0.306864 -0.003230 -0.065156 0.237404 -0.127067 -0.193472 0.011183 0.136919 -0.005040 0.047427 -0.000386 0.009111 0.073970 -0.100357 -0.059536 -0.068154 -0.071239 -0.131357 0.202207 -0.207127 0.160375 -0.033438 -0.300256 0.151208 0.098717 -0.012969 0.189625 -0.234810 0.155140 0.134483 -0.311107 0.081608 -0.189840 0.120812 0.158940 0.223022 -0.082570 0.107352 0.132863 0.008939
10153684553352714 -0.086296 -0.514893 0.160232 -0.016350 0.154804 0.164777 -0.054140 -0.276049 -0.197797 0.456390 -0.169034 -0.048006 -0.043977 -0.040065 -0.013928 -0.081947 0.047318 -0.286683 -0.210108 0.250534 -0.171979 0.127631 -0.097593 -0.304663 -0.165444 -0.224597 -0.115598 -0.400588 -0.395389 -0.132418 -0.150035 -0.277433 -0.260172 0.079943 -0.529360 -0.225122 -0.221182 0.153006 -0.210778 -0.138286 0.024004 -0.346034 0.078192 0.088414 -0.199449 -0.153104 0.198206 -0.293221 0.377560 0.090383 -0.190963 0.173430 0.309619 0.154427 -0.322810 0.017016 -0.029016 0.082077 -0.079089 -0.299370 0.196044 0.059697 0.011297 0.385575 0.100696 0.120993 0.291482 0.227146 -0.217446 -0.131838 -0.055661 0.118142 -0.012163 0.083377 -0.270068 -0.049180 -0.162494 0.190312 0.381403 -0.326220 -0.222289 -0.020777 0.068533 0.390156 0.222675 -0.225528 -0.114575 -0.062134 -0.348108 0.039460 -0.144679 0.024240 -0.045861 -0.260325 0.206497 0.076832 -0.177909 0.062101 0.131881 -0.272436 -0.085389 -0.201150 -0.225385 -0.155526 -0.054468 -0.280923 -0.008805 -0.297723 0.262911 0.079039 -0.368494 0.234324 0.020216 0.004725 0.135280 -0.203809 0.112691 0.061613 -0.149280 0.040106 -0.242973 0.024106 0.179126 0.251932 -0.222840 -0.018020 -0.054883 0.312401
10153545546242714 -0.044142 -0.323038 0.064695 0.220352 -0.024004 0.305537 -0.192237 -0.061723 0.099424 0.247670 0.059542 0.085893 -0.057655 0.040770 0.155923 0.262209 -0.086081 -0.031977 0.012134 0.183136 -0.286391 0.064029 -0.308341 -0.240056 0.114487 -0.084434 -0.131910 -0.070741 -0.115327 -0.249279 -0.030071 -0.018605 -0.276926 0.249997 -0.306169 0.181935 0.150898 -0.197831 -0.140746 -0.049416 -0.151086 -0.452837 0.031494 0.080773 0.234749 -0.084275 0.137799 -0.073049 0.329600 0.074797 -0.247702 -0.036960 0.079154 -0.024434 -0.233883 -0.008823 0.037560 -0.163590 -0.194175 -0.053045 -0.047995 -0.141300 0.011308 0.336467 -0.026398 0.002251 -0.010537 0.108329 0.027478 0.098468 0.131830 0.251542 0.012117 0.159191 -0.198253 -0.037938 0.005979 0.058217 0.391161 -0.131235 -0.090064 -0.211618 0.161378 0.614238 0.209242 0.170263 0.194568 -0.007201 -0.569921 0.083464 0.010245 0.336742 -0.203776 -0.243344 -0.100213 0.362137 -0.119282 0.140468 -0.071285 0.151113 0.158759 -0.162496 0.204804 -0.128866 -0.054819 -0.123611 0.126548 -0.184902 0.067417 -0.109693 -0.150900 0.156437 0.128882 -0.134920 0.230306 -0.245287 0.015047 0.072159 -0.121664 0.303618 -0.150300 -0.052660 -0.077306 0.041957 -0.039596 0.225170 0.257490 -0.197595
1110350839021392 -0.091297 -0.179739 -0.055095 0.141240 -0.135777 0.188660 -0.210463 -0.164727 0.126710 0.429920 -0.017797 -0.176127 -0.208965 -0.016035 -0.128853 -0.016039 -0.043777 -0.297100 0.373700 0.549695 -0.222931 -0.264354 -0.295756 0.055329 -0.145503 0.114646 0.022543 0.001157 0.081077 0.043962 0.075885 0.045577 -0.191917 0.043659 -0.173068 0.129986 0.065540 0.021387 -0.214893 -0.287565 -0.077281 -0.312619 0.197025 0.107636 0.185762 -0.105761 -0.029786 -0.248989 -0.019075 -0.150774 -0.141507 0.143678 -0.086048 -0.082070 -0.237539 -0.134287 0.230965 -0.143783 -0.302180 -0.218891 -0.084504 0.176140 0.110807 0.229912 -0.078069 0.017691 0.095106 0.127422 0.298922 -0.107640 -0.009107 0.191075 0.041156 -0.027452 -0.062775 -0.013385 -0.150131 -0.217227 -0.183362 -0.354507 -0.137766 -0.093418 0.058508 0.162980 0.080211 0.226484 -0.224672 0.167952 -0.093102 -0.104885 0.254329 0.410671 -0.198885 -0.314613 0.034506 0.189763 -0.185001 0.046150 -0.194599 0.113715 0.236708 0.069616 0.100562 0.060593 0.159855 -0.044714 0.011858 -0.099905 -0.083707 0.002482 -0.076415 0.140066 0.006032 -0.091288 -0.015691 -0.132330 0.048348 0.052513 -0.303405 0.005947 -0.147381 0.159180 0.040252 -0.103822 -0.016580 0.202649 0.005679 -0.128208
10153794338689365 -0.322643 -0.326405 0.214822 0.054781 -0.144941 0.311697 -0.219291 -0.100080 -0.028104 0.141436 -0.105561 -0.074842 0.280748 -0.115250 -0.200432 0.111690 -0.026747 0.111860 0.139510 0.328166 -0.168660 -0.302868 -0.002134 -0.185676 0.028904 0.265295 -0.386358 -0.072088 -0.272302 0.079651 -0.067561 -0.014134 -0.221423 0.444751 -0.389352 0.155694 0.031847 -0.100928 -0.001683 -0.323423 -0.319542 0.007143 0.209429 0.199964 -0.036376 0.037612 -0.009653 0.143053 0.192078 -0.207175 -0.165571 0.121868 0.377061 -0.113926 0.029544 -0.098453 0.312882 -0.057852 -0.396380 -0.240548 0.139260 -0.012351 0.129660 0.332460 -0.001681 0.120541 0.549130 -0.049916 0.127311 -0.107371 -0.193434 -0.148785 -0.173499 0.169596 0.047737 0.342622 0.045782 -0.068546 -0.035671 -0.160723 -0.178779 -0.191346 0.073130 0.429287 0.296944 -0.149663 -0.031995 -0.055873 -0.044629 0.081954 -0.192525 0.330926 -0.266613 0.107552 -0.169929 0.372925 0.218550 -0.368220 -0.268589 -0.086744 0.107879 0.247022 0.229546 0.011015 -0.266781 0.118623 0.397922 0.085426 -0.187510 0.062558 -0.121609 0.004636 -0.085428 -0.301942 -0.013262 0.094547 0.100566 -0.033820 -0.040945 0.034022 -0.358491 0.181608 0.068494 0.230930 0.131272 0.358483 0.277887 -0.122577
1502659266 0.071798 -0.063706 -0.160735 -0.550552 -0.272626 -0.204739 0.136404 -0.596948 0.012852 0.622871 0.144481 0.177272 -0.060682 -0.104817 -0.057953 0.035393 0.364013 -0.592314 0.298514 0.206631 0.291794 -0.239258 0.049429 0.331984 -0.456877 0.089159 -0.768100 -0.148711 -0.042910 -0.056872 -0.141186 -0.111430 0.129787 0.161555 -0.233230 -0.521064 -0.522856 0.272876 0.321766 -0.192068 -0.122881 -0.204742 -0.730883 -0.205307 0.178566 0.142293 0.322081 -0.419832 -0.070663 0.030668 0.267470 0.519587 0.413439 -0.361151 -0.439277 0.297538 0.077538 0.210367 -0.322718 -0.700409 0.334017 0.384569 -0.331682 0.824066 0.635506 0.593893 0.963452 0.348588 0.453079 -0.535252 -0.742358 0.075833 -0.632650 0.147678 -0.604366 0.590466 -0.187818 0.191687 -0.129485 -0.768140 -0.195386 -0.837453 -0.722415 0.027413 0.389897 -0.601436 -0.152000 0.193108 -1.086861 0.116544 -0.378491 0.362482 -0.368916 0.133497 -0.404664 0.123585 -0.068595 -0.076323 0.061671 0.044190 -0.593637 0.032846 0.442037 -0.258350 -0.313956 0.685621 0.172401 -0.225257 0.198150 0.055198 0.052186 0.201283 -0.030778 0.225373 0.483518 -0.635218 -0.418085 -0.273479 -0.448226 -0.338683 -1.312508 0.239262 0.548595 0.175121 -0.013630 1.035852 -0.239017 -0.511353
100000705420860 0.143369 -0.071041 -0.169330 -0.000900 -0.903959 0.898181 0.262490 -0.247159 -0.316589 0.549589 -0.816389 0.513132 -0.430626 0.308144 0.255816 0.182284 0.352509 -0.400507 0.687232 0.014279 0.250515 -0.497881 -0.001189 -0.215676 -0.208454 0.170641 -1.136732 -0.600193 0.034024 0.041378 0.103550 -0.134952 -0.222723 0.122037 0.106273 -0.246835 0.602289 0.156211 0.079946 -0.205948 -0.221510 -0.213409 -0.036454 0.045077 0.136410 0.130574 -0.004050 -0.703786 -0.127189 0.185084 -0.626697 0.385379 0.434903 -0.350270 -0.100913 0.169622 -0.183759 0.083371 -0.334424 -0.490140 -0.085810 0.390097 0.122687 -0.251678 0.650515 0.512510 0.251224 0.219886 0.421538 -0.010003 -0.535456 0.462515 -0.375305 0.026398 -0.514141 0.032422 0.081080 -0.367105 -0.180714 -0.818773 0.029826 -0.893514 -0.380958 0.028285 0.795795 -0.447151 -0.083722 0.026574 -0.631885 0.102991 -0.400352 0.699232 -0.447100 -0.545342 -0.966938 0.952072 0.125706 -0.067547 -0.155750 -0.062613 -0.115862 0.070676 0.928208 -0.566203 0.081127 0.781138 0.176797 0.436930 -0.238954 0.021595 -0.343395 0.367867 -0.669511 0.089269 -0.274032 -0.348576 -0.169879 -0.269264 0.064532 -0.024512 -0.796889 0.170125 0.592293 0.201552 -0.327780 1.027753 0.019803 -0.906468
10153359888037714 -0.143574 -0.450027 -0.044620 0.090038 -0.028974 0.274408 -0.372231 -0.191272 0.106375 0.231175 -0.059586 -0.279487 -0.098169 -0.015616 0.034150 0.125854 0.047733 -0.122683 0.039048 0.419896 -0.389265 -0.008706 -0.330945 -0.190334 -0.046948 -0.122879 -0.030790 -0.014788 -0.202598 0.072595 -0.163993 -0.069651 -0.171950 0.083776 -0.284871 0.051494 -0.132590 0.028005 -0.037776 -0.150564 -0.130459 -0.274087 0.061968 0.005017 0.129994 -0.033289 0.196330 -0.220839 0.187622 0.083030 -0.116460 0.108614 0.139415 0.163533 -0.205060 -0.002778 0.097944 -0.072189 -0.214811 -0.167503 0.066703 0.006905 0.055804 0.314424 0.015374 -0.035229 0.074756 0.156813 -0.063899 -0.028926 0.084920 0.180531 -0.148376 0.071595 -0.176636 -0.118599 -0.082096 0.069210 0.317638 -0.080123 0.034352 -0.043001 0.137426 0.480570 0.089657 0.078367 -0.136509 -0.058290 -0.263640 -0.006694 -0.069987 0.292495 -0.099314 -0.195208 -0.129444 0.134054 0.069597 -0.037198 -0.103832 0.098189 0.113239 0.051882 0.035632 -0.042625 -0.182530 0.041725 0.210597 -0.102344 0.142804 -0.066075 -0.190132 0.181569 0.075239 -0.075684 0.121990 -0.231403 0.101140 0.157822 -0.366001 0.049592 -0.255583 0.168665 0.095257 0.182663 0.083986 0.194627 0.246042 -0.126642
10153379183117714 -0.003930 -0.287067 -0.127137 -0.013016 -0.118127 0.342044 -0.238414 -0.143638 -0.053478 0.445599 -0.109309 -0.152727 -0.185588 0.114819 0.209243 -0.060060 0.058131 -0.080655 0.159567 0.375190 -0.393853 -0.138734 -0.247792 -0.177218 -0.131079 -0.089344 -0.152496 -0.194076 -0.287570 -0.026203 -0.084424 -0.275890 -0.190842 -0.053643 -0.408223 -0.065766 -0.022478 0.041456 -0.251144 -0.227396 -0.052904 -0.288818 0.204784 0.057733 -0.050743 -0.071531 0.199427 -0.162195 0.324913 0.070410 -0.063367 0.059736 0.044970 -0.025541 -0.149455 0.002972 0.073201 0.164205 -0.146108 -0.136320 0.021152 -0.053292 -0.061758 0.003881 -0.059712 -0.028104 0.065182 0.134653 0.008786 -0.006650 0.245826 0.081926 0.029279 -0.027461 0.014367 -0.154908 0.035426 -0.005511 0.100282 -0.318021 -0.176418 -0.042477 0.076196 0.432039 0.238830 -0.054582 0.002134 -0.058166 -0.154767 -0.137805 -0.052862 0.255676 -0.042975 -0.245811 -0.098137 0.173083 -0.000002 -0.069709 0.149860 -0.080115 0.099611 -0.295792 -0.088279 -0.012451 -0.000705 0.014624 0.113272 -0.152830 0.048658 0.005918 -0.276423 0.230228 0.055859 -0.115935 0.058497 -0.287510 0.255383 -0.009741 -0.264550 0.135013 -0.151951 -0.012322 0.177180 0.178555 -0.094975 0.272598 0.156617 -0.077280
10153708456342714 -0.070519 -0.307722 0.063271 -0.023491 -0.014112 0.135805 -0.174011 -0.213960 0.011207 0.153759 -0.000347 -0.071439 0.066584 0.014056 -0.015657 0.080747 -0.034015 -0.121671 -0.042952 0.299782 -0.308697 -0.059641 -0.260046 -0.146237 0.020607 -0.127213 -0.186031 -0.124808 -0.305084 0.020840 -0.181165 -0.058917 -0.156931 0.110052 -0.327757 -0.017953 -0.088423 0.049929 -0.070038 -0.160620 -0.085902 -0.179894 0.059933 0.023097 -0.069485 -0.068654 0.185965 -0.018693 0.262673 0.058840 -0.219086 0.087330 0.085358 0.024563 -0.047808 -0.041542 0.185129 0.055414 -0.259128 -0.067750 -0.041554 0.045409 0.080737 0.270158 -0.152018 -0.102443 0.196117 0.121575 0.065545 0.007301 0.127925 0.091080 0.053978 -0.030787 -0.185487 0.039916 -0.050754 0.098866 0.168323 -0.235690 -0.135872 -0.062903 0.000929 0.591003 0.118299 -0.163024 -0.037753 -0.049093 -0.319078 -0.047704 -0.073558 0.221398 -0.068560 -0.059600 -0.002584 0.249625 -0.038680 0.025393 -0.183998 0.104147 0.096024 -0.010847 0.027352 0.035724 0.025438 -0.179187 0.201263 -0.120601 0.076449 0.071351 -0.162609 0.005426 0.104054 -0.091970 0.304417 -0.342128 0.188508 0.118044 -0.222839 0.186992 -0.098997 0.076947 0.147381 0.284028 -0.168422 0.243798 0.070067 -0.154091
10207991699259301 0.106810 -0.080596 -0.036159 0.146565 -0.345772 0.155455 -0.146543 -0.219508 -0.299845 -0.036277 -0.000728 0.030305 -0.018755 -0.012722 -0.069633 -0.196463 0.147269 -0.039364 0.215855 0.105996 0.025165 -0.073790 -0.235662 -0.149531 0.005888 -0.060459 -0.065733 -0.025429 -0.176446 0.166731 -0.010648 -0.016160 -0.393769 -0.079737 -0.189460 -0.149368 0.194104 0.054360 -0.273329 -0.414760 0.058257 -0.105185 0.181188 0.304628 0.105842 -0.049506 0.512404 -0.291049 0.329622 0.078514 -0.049128 0.029080 0.167307 -0.285449 -0.038080 -0.133497 0.100143 0.103807 -0.060808 -0.268232 -0.155253 0.157063 0.300321 0.247628 -0.269209 -0.077700 0.087751 0.143448 0.129889 -0.101583 -0.151482 0.020157 -0.048442 0.242516 -0.015814 0.124016 0.009686 0.214142 -0.107302 -0.547131 -0.017361 -0.711351 0.269057 0.546413 0.169807 -0.083569 -0.245488 0.223142 -0.284514 0.069165 0.339652 0.579881 -0.439827 -0.092417 0.213050 0.432992 -0.045702 0.149467 0.207228 0.148455 0.191778 -0.264359 0.239664 -0.331997 -0.046203 -0.072992 0.301959 -0.015083 -0.127269 -0.260068 -0.497568 -0.035768 0.074758 0.065549 0.019654 0.224162 -0.000105 0.143126 -0.363309 0.088616 -0.204414 -0.020878 -0.025419 -0.004663 0.006526 0.215800 0.117342 -0.035183
10208495659978004 -0.059691 0.021667 0.030931 -0.002300 0.350082 0.207645 -0.179526 -0.165085 0.108724 0.169394 0.093175 -0.161332 0.096930 -0.092666 0.144867 -0.027805 -0.221986 0.010197 0.173790 0.327763 -0.092617 -0.336885 -0.386667 -0.012509 0.324098 0.344373 -0.299401 0.068259 -0.000341 -0.093462 -0.313347 -0.060168 0.068015 0.082491 -0.289718 -0.121786 0.012441 0.301749 0.156144 -0.223004 -0.249601 -0.291127 0.051385 0.031595 -0.011740 -0.048383 0.176097 -0.002776 0.207217 0.259045 0.081142 -0.235900 0.293003 0.076123 -0.361744 0.115583 0.303576 -0.128314 -0.269662 -0.469403 0.130958 -0.068605 -0.048507 0.299712 -0.170454 -0.045049 0.127048 -0.030693 -0.082107 -0.073357 -0.234861 -0.220934 0.128740 0.377804 -0.266423 0.476132 -0.103267 -0.014637 0.313529 -0.183112 -0.422818 -0.165651 -0.080095 0.726105 0.259763 -0.149366 0.052406 0.044289 -0.235733 0.214068 0.041580 0.071017 -0.008893 -0.166364 0.193881 0.179720 -0.390450 0.115579 -0.033108 -0.135920 -0.263000 0.020486 -0.074771 -0.129278 -0.484686 0.224000 -0.093480 -0.317463 0.004129 -0.003740 -0.071655 0.068321 0.484539 0.006534 0.127402 -0.154302 -0.023736 0.227548 -0.366345 0.130938 -0.096477 -0.098057 -0.119292 -0.111229 -0.033020 0.063523 0.050170 0.102015
10153214855357714 0.029107 -0.261815 -0.160746 0.034026 -0.146016 0.294975 -0.262474 -0.020772 0.038810 0.410182 0.001242 -0.107228 -0.132107 0.120263 0.234599 0.043226 0.076679 0.060640 0.165941 0.333685 -0.389862 -0.111881 -0.242334 -0.197124 -0.062999 -0.088349 -0.141790 -0.082870 -0.262309 -0.058713 -0.098170 -0.156424 -0.148523 0.011519 -0.256895 0.070188 0.005144 -0.014612 -0.208157 -0.125236 -0.029720 -0.211192 0.201188 0.046352 0.079449 0.002067 0.198738 -0.069660 0.284425 0.088124 -0.015824 0.094648 -0.009638 -0.009427 -0.089068 0.025892 0.077599 0.077847 -0.148294 -0.083556 0.029542 -0.168860 -0.153590 0.014989 -0.073101 -0.010144 -0.003645 0.063653 0.066573 -0.006503 0.296082 0.071918 -0.037834 -0.027004 0.048220 -0.132019 0.110016 0.001436 0.040880 -0.264165 -0.122650 -0.096752 0.163468 0.456572 0.209343 0.035432 0.077913 -0.070496 -0.146907 -0.093193 -0.005110 0.393438 -0.123439 -0.116700 -0.197854 0.188456 0.058122 -0.101421 0.166603 0.016856 0.098072 -0.231441 0.016412 0.010065 -0.036992 0.062290 0.190281 -0.142194 0.018948 -0.114948 -0.294779 0.204360 0.082992 -0.150007 0.063769 -0.328652 0.264813 -0.017992 -0.393019 0.152409 -0.276288 -0.019933 0.150513 0.192033 -0.018506 0.335342 0.239984 -0.237917
10209406141899483 -0.309542 -0.308964 -0.142752 -0.083057 -0.242926 0.539419 -0.281970 -0.179502 -0.149654 0.257114 -0.090199 -0.218505 0.056737 0.034582 0.031508 0.057333 -0.009068 0.137596 0.172184 0.273653 -0.123794 -0.418049 -0.194285 0.173234 0.125481 0.109390 -0.046029 -0.232671 -0.177792 -0.041658 -0.106899 -0.227050 -0.335172 -0.092613 -0.400140 0.131266 0.050136 -0.048928 -0.187678 -0.627885 -0.199891 -0.298788 0.106478 0.043604 0.019627 -0.017514 0.126746 -0.033122 0.287384 -0.016915 -0.127533 0.087694 -0.046558 -0.185222 -0.145577 -0.047170 0.275005 0.106676 -0.158778 -0.214338 -0.085553 -0.080841 0.049446 0.111763 -0.097011 0.175306 0.157437 0.171590 0.322760 0.055915 0.207173 0.040945 0.071129 -0.056250 0.077744 0.293410 -0.000896 0.027598 0.081869 -0.019216 -0.209180 -0.077151 0.044361 0.348273 -0.014655 -0.100074 0.147820 0.063962 -0.100735 0.037334 0.106649 0.295221 -0.153098 -0.101953 -0.057018 0.156767 -0.070309 -0.001168 -0.046225 0.171729 0.207941 -0.214540 0.122809 0.079190 0.014577 -0.004255 0.069980 -0.000363 0.112519 0.091679 -0.152996 0.136077 0.111623 -0.197739 0.069342 -0.167314 0.190169 0.082379 -0.156710 0.156350 0.115079 -0.228421 -0.057109 0.034266 0.094776 0.206855 0.048960 -0.108278
10210362062716906 -0.311113 -0.220119 -0.022300 -0.023640 -0.158771 0.444122 -0.176614 -0.322922 -0.114247 0.141761 -0.319168 -0.238030 -0.107498 -0.012441 0.110434 -0.067119 0.152773 -0.195693 0.123586 0.407909 -0.416827 -0.150229 -0.294775 0.074225 -0.173328 0.159591 0.045196 -0.262438 0.000550 -0.106952 0.116272 -0.288012 -0.287526 -0.180227 -0.311785 0.057950 -0.145429 -0.121316 -0.097036 -0.537341 -0.126782 -0.360628 -0.072355 0.055270 0.052615 -0.204920 0.036560 -0.051919 0.289978 -0.117597 0.013977 -0.077022 -0.150494 -0.222065 -0.222957 -0.245976 0.086685 0.094306 -0.163405 -0.058776 0.053574 0.074703 0.066480 0.014523 -0.179955 -0.014350 0.330553 0.216638 0.244997 0.063658 0.074124 0.152356 0.084560 0.118847 -0.042638 -0.063442 -0.083774 0.115367 0.212087 -0.060918 -0.370719 -0.146165 -0.064448 0.392091 0.111337 -0.041546 -0.023157 -0.046151 -0.194186 -0.049381 0.178396 0.086160 -0.338869 -0.314045 0.120136 0.270465 -0.158644 -0.023776 -0.059240 0.197621 0.365893 -0.299980 0.220854 0.043447 0.142910 -0.109973 0.211526 0.107083 0.299871 0.060321 -0.391869 0.083056 0.104128 -0.143617 0.398262 -0.213930 0.034166 0.103103 -0.230054 0.104270 -0.123339 -0.028163 0.186491 0.001795 -0.029562 0.185771 0.144698 -0.096075
10153415206027714 -0.059094 -0.238378 0.048578 0.236140 -0.039883 0.408770 -0.061336 -0.053063 0.043209 0.256553 0.084604 0.100326 -0.205807 0.054319 0.159889 0.233031 -0.125196 -0.010111 0.059020 0.148651 -0.191002 -0.062403 -0.328440 -0.170288 0.115849 -0.080876 -0.133615 -0.030895 0.052868 -0.343507 0.058676 0.052715 -0.230947 0.270394 -0.241934 0.191950 0.307582 -0.201928 -0.213453 -0.075579 -0.214502 -0.555401 0.032900 0.169865 0.293676 -0.038216 0.065469 -0.075248 0.399644 -0.009352 -0.373149 -0.008989 0.072872 -0.177656 -0.334241 -0.084049 -0.045377 -0.179283 -0.152469 -0.110058 -0.167632 -0.115774 -0.075483 0.097893 0.088283 0.148348 0.070391 0.046786 0.111550 0.178027 0.161851 0.315491 0.058391 0.144501 -0.181899 -0.164992 0.144036 -0.021371 0.282414 -0.211690 -0.138084 -0.206486 0.041676 0.519121 0.358632 0.251837 0.240249 -0.000577 -0.555628 0.026843 0.002233 0.225253 -0.150875 -0.412617 -0.105451 0.427477 -0.246393 0.019240 -0.139581 0.086673 0.221190 -0.157030 0.265712 -0.160850 0.035958 -0.094268 -0.095319 -0.080783 0.093830 -0.068244 -0.142146 0.179539 -0.021296 -0.225476 0.169515 -0.197388 -0.007822 -0.027345 0.007125 0.376743 -0.184097 -0.180021 -0.145764 -0.044540 -0.022216 0.301621 0.254385 -0.178143
10210339593755196 -0.192080 -0.268697 -0.022942 -0.082534 -0.073026 0.441703 -0.371883 -0.091588 0.157785 0.452172 -0.064020 -0.242851 0.173359 -0.033959 0.076190 0.150526 0.190350 0.099940 0.133810 0.288439 -0.231346 -0.217819 -0.079173 0.071260 0.011569 0.085279 0.081574 -0.086750 -0.148317 -0.074918 -0.076308 -0.078516 -0.238758 -0.042354 -0.318133 0.375090 -0.092940 -0.010929 -0.049086 -0.303879 -0.004603 -0.299636 -0.071374 0.004354 -0.005824 0.089274 -0.185610 -0.105099 0.102633 0.147630 0.064682 0.154822 -0.008574 -0.109112 -0.050091 -0.009721 0.238889 -0.168983 -0.144955 -0.189166 0.246754 -0.167699 -0.134965 0.312914 -0.236109 0.184560 0.236564 -0.050190 0.136371 -0.065500 0.138101 -0.229055 -0.174615 0.192159 0.097337 0.283489 -0.018263 0.165028 0.259836 0.019316 -0.256548 -0.325719 0.245953 0.492517 -0.005257 0.026445 -0.164486 -0.126251 -0.100531 0.056089 0.143112 0.553529 -0.358619 0.296009 0.057821 0.152984 0.030013 -0.143793 -0.079294 0.106539 0.084668 -0.176601 0.168630 0.035068 -0.017934 0.038715 0.272185 0.018166 0.131959 -0.193875 -0.193904 0.011874 0.186098 -0.046487 0.128652 -0.265043 0.152978 0.186167 -0.271088 0.063019 -0.077630 -0.224259 -0.000105 -0.028885 0.076626 0.043924 0.137959 -0.068251
10153618288247714 -0.092178 -0.327254 0.022037 0.026945 0.004074 0.271126 -0.223060 -0.131644 0.031818 0.360096 -0.066589 -0.090013 -0.023593 0.043021 0.107584 0.086612 -0.002136 -0.074052 -0.011006 0.294658 -0.280019 -0.065424 -0.213270 -0.112232 0.023648 -0.094779 -0.129527 -0.166119 -0.264235 -0.085620 -0.173866 -0.156158 -0.181468 0.028581 -0.378623 0.001519 -0.040725 0.031985 -0.108657 -0.159485 -0.072627 -0.304847 0.090564 0.045613 -0.003056 -0.061650 0.134253 -0.077067 0.275826 0.127613 -0.138539 0.060472 0.109511 0.074816 -0.185938 0.013428 0.129751 0.009192 -0.175344 -0.171866 0.065242 -0.049960 -0.055900 0.253391 -0.038265 -0.015013 0.090465 0.138689 -0.020137 0.021619 0.151472 0.094284 0.018377 0.035071 -0.137067 0.005179 -0.033740 0.089555 0.282244 -0.148911 -0.157113 -0.012474 0.084555 0.469008 0.119179 -0.047288 0.033543 -0.027453 -0.273243 -0.022451 -0.031229 0.220055 -0.084236 -0.137406 -0.007379 0.155649 -0.096780 0.014717 -0.011709 0.016599 0.047744 -0.136227 -0.042181 -0.039540 -0.021651 -0.087497 0.106417 -0.189966 0.142418 -0.032242 -0.174016 0.187562 0.162918 -0.074067 0.157309 -0.292428 0.137738 0.096840 -0.221950 0.167034 -0.111952 -0.045111 0.048688 0.155816 -0.078570 0.166080 0.087080 -0.070365
10153708770092714 -0.134834 -0.310015 0.021035 0.056146 0.043543 0.291147 -0.274231 -0.174077 0.024144 0.261824 -0.079941 -0.143616 -0.027943 -0.006952 0.114044 0.039421 0.041216 -0.071843 0.046320 0.360731 -0.335714 -0.085518 -0.313795 -0.129325 -0.002199 0.010326 -0.135446 -0.116197 -0.218111 -0.034840 -0.180086 -0.164410 -0.144345 0.060830 -0.328802 -0.006802 -0.062922 0.074777 -0.046894 -0.162012 -0.125093 -0.255384 0.085332 0.074551 0.022341 -0.083979 0.150728 -0.065260 0.270181 0.099546 -0.091166 0.036738 0.135478 0.064641 -0.193910 -0.027678 0.152431 -0.014807 -0.212777 -0.192042 0.084519 -0.030472 -0.036983 0.192969 -0.103699 -0.034871 0.173495 0.112975 -0.047224 -0.009464 0.065081 0.023173 -0.000933 0.099112 -0.131004 0.035039 -0.008731 0.105372 0.246488 -0.152756 -0.199926 -0.052427 0.067427 0.547525 0.181908 -0.050251 -0.018473 -0.032158 -0.220810 -0.015376 -0.033971 0.206792 -0.138745 -0.161456 0.025958 0.192566 -0.073100 -0.045990 -0.025080 0.034707 0.081222 -0.064870 -0.022786 -0.031897 -0.112864 -0.045562 0.163006 -0.163921 0.134041 -0.050840 -0.225450 0.149346 0.178548 -0.074693 0.193043 -0.175047 0.133401 0.105077 -0.310952 0.135499 -0.168509 0.024155 0.073478 0.135229 -0.026323 0.177425 0.150141 -0.039262
1823916067884361 -0.068773 -0.448950 0.015181 -0.083353 -0.385930 0.625880 0.090814 -0.318950 -0.003854 0.914501 -0.402782 0.106191 -0.031520 0.133185 0.008355 0.157031 0.072092 -0.356942 0.478078 0.454583 0.084365 -0.637496 -0.263521 -0.072698 0.080833 0.086387 -0.878535 -0.466462 -0.213499 -0.261828 -0.225219 -0.000068 -0.238749 0.083141 -0.372824 -0.054360 0.097283 0.170905 -0.010659 -0.612814 -0.176311 -0.517353 -0.041519 -0.029208 0.093544 0.052145 0.077477 -0.391975 0.164108 0.109294 -0.209468 0.375448 0.320589 -0.167166 -0.376225 0.095388 0.097168 -0.131738 -0.395650 -0.593863 0.219604 0.200602 -0.113949 0.553598 0.265199 0.478107 0.384144 0.200469 0.625109 -0.219247 -0.381407 0.363110 -0.295069 0.187121 -0.502697 0.467311 -0.251246 -0.131411 0.128409 -0.730010 -0.598228 -0.798630 -0.059786 0.518122 0.472803 -0.414151 -0.154637 0.058585 -0.846643 0.199952 -0.022990 0.732907 -0.501893 -0.223641 -0.379374 0.672849 -0.318848 0.123525 -0.096868 -0.068728 -0.258434 -0.008136 0.609965 -0.374960 -0.128590 0.312203 0.189861 -0.056011 0.149115 0.075455 -0.394635 0.262002 -0.034289 0.057859 0.064356 -0.799893 -0.092661 0.054743 -0.467141 0.018422 -0.758440 0.127867 0.395463 0.215722 -0.258502 0.688580 -0.025957 -0.538842
1504032116290351 0.106178 -0.269824 -0.417966 -0.151944 0.325503 0.297158 0.104202 0.240584 -0.078312 0.947771 -0.286227 -0.008076 0.061522 0.129874 -0.321879 0.386957 0.222170 0.134608 0.472979 0.291297 0.599517 -0.791992 -0.241697 -0.304529 0.034706 0.064343 -0.502608 -0.377850 -0.057516 -0.523230 -0.463330 0.033027 0.373586 0.216651 0.162581 0.450682 -0.072874 0.384904 -0.032928 -0.200455 0.163743 -0.362636 -0.538197 -0.475788 -0.027638 -0.070533 0.073617 -0.499972 0.255712 0.237343 0.222049 0.818097 0.287838 0.083041 -0.525196 0.209712 -0.003219 -0.566691 0.082430 -0.205403 0.768790 -0.348856 -0.444743 0.374465 0.902367 1.168010 0.132950 -0.001821 0.435742 -0.641943 -0.336055 0.624382 -0.624493 0.425607 -0.409115 0.597006 -0.323014 -0.263877 -0.050783 -0.596748 -0.714096 -0.862469 0.537635 0.160298 0.545709 -0.279015 -0.346798 0.464405 -0.624333 0.501133 -0.034415 0.668523 -0.493409 -0.073639 -0.536015 0.379777 -0.444684 0.315873 0.290130 -0.166833 -0.831316 0.116699 0.400945 -0.574391 -0.504809 0.664044 -0.127054 -0.107468 0.388988 -0.221543 -0.245764 0.249530 -0.031475 0.394849 -0.435506 -0.892310 -0.010403 0.300333 -0.713332 -0.417571 -0.693342 0.153382 -0.052950 -0.210520 0.049211 0.281829 0.104630 -0.183445
1147866551960506 0.348483 -0.220590 0.309099 -0.168697 -0.167459 0.304371 0.509054 -0.037120 0.296022 0.689128 -0.249687 0.255761 -0.128750 0.101917 -0.045666 0.066401 -0.382682 -0.452947 0.407338 -0.059795 0.534047 -0.306089 -0.057159 -0.275688 0.469956 -0.381317 -0.957865 -0.296367 -0.118182 -0.330488 -0.162395 0.626706 0.323375 0.115515 0.558883 -0.260693 -0.416594 0.171063 0.579202 0.238725 0.103217 0.141661 0.107750 -0.181804 0.175096 0.234217 -0.234600 -0.261489 -0.316053 -0.081431 -0.160566 0.512594 0.343755 0.214930 0.022818 0.208424 -0.482697 -0.427536 0.113743 -0.446726 0.528540 0.221606 -0.088580 0.712204 0.349145 0.422301 -0.038539 0.147550 0.424378 -0.157270 -0.321095 0.405965 -0.624883 0.183653 -0.831674 0.509680 -0.341494 -0.208646 0.205017 -0.873560 -0.963225 -0.844150 0.004003 0.352093 0.413411 -0.744268 -0.458703 -0.286388 -0.877476 0.327821 0.103315 0.654967 -0.666927 0.069108 -0.572568 0.649223 -0.616436 -0.104525 0.001528 -0.217751 -0.426345 0.507892 0.772069 -0.292529 -0.120119 0.464987 0.421628 0.091790 0.200253 0.285409 -0.893248 0.310857 -0.155643 0.239076 0.151803 -1.161250 -0.429298 -0.021262 -0.760173 -0.133984 -1.159516 0.320253 0.625979 0.541219 -0.468984 0.589788 -0.289406 -0.992382
167635259953475 0.324936 -0.224621 0.295717 -0.171058 -0.176536 0.310684 0.486151 -0.060861 0.276767 0.686133 -0.252077 0.251792 -0.126514 0.102711 -0.034162 0.058127 -0.367472 -0.448691 0.395615 -0.066852 0.521677 -0.287874 -0.054151 -0.262306 0.453151 -0.369058 -0.939652 -0.295221 -0.114258 -0.322557 -0.157269 0.599774 0.314758 0.096546 0.544316 -0.263606 -0.402118 0.163853 0.569696 0.220110 0.093605 0.138537 0.101131 -0.177149 0.174018 0.234604 -0.235759 -0.252397 -0.316744 -0.076091 -0.156444 0.498206 0.332725 0.201045 0.028893 0.204164 -0.473329 -0.407271 0.108657 -0.442010 0.512379 0.217361 -0.080700 0.692069 0.333099 0.397024 -0.039563 0.137595 0.411152 -0.138729 -0.309640 0.378660 -0.603584 0.170496 -0.805044 0.497978 -0.325519 -0.194570 0.198896 -0.848202 -0.937986 -0.819932 -0.007711 0.340999 0.400745 -0.733874 -0.440531 -0.288138 -0.853729 0.314551 0.099529 0.631145 -0.645448 0.067907 -0.554277 0.631386 -0.593534 -0.098455 -0.001828 -0.201965 -0.413167 0.485705 0.757896 -0.284383 -0.099677 0.443469 0.412541 0.094785 0.206687 0.289284 -0.865344 0.300863 -0.146631 0.239529 0.160050 -1.128093 -0.419282 -0.020113 -0.731069 -0.121765 -1.131442 0.309891 0.611725 0.531596 -0.461826 0.577677 -0.288666 -0.965822
1437543113153711 0.094693 -0.278876 -0.413929 -0.156633 0.318579 0.310145 0.096793 0.237053 -0.073476 0.966215 -0.294486 -0.010903 0.066170 0.130447 -0.318609 0.391424 0.221401 0.129326 0.484743 0.311994 0.591640 -0.809594 -0.251832 -0.304974 0.045643 0.075989 -0.524010 -0.391237 -0.067432 -0.531298 -0.475289 0.025977 0.361839 0.213143 0.142277 0.455078 -0.073204 0.384954 -0.029238 -0.220577 0.155009 -0.371753 -0.536038 -0.471621 -0.027428 -0.075892 0.070192 -0.504490 0.259741 0.238748 0.213491 0.820203 0.288915 0.083810 -0.533187 0.207958 0.012599 -0.565840 0.070568 -0.217803 0.770738 -0.345189 -0.443192 0.390311 0.897874 1.169245 0.148924 0.000938 0.449889 -0.640760 -0.344803 0.630300 -0.622560 0.432745 -0.415500 0.612072 -0.322116 -0.267714 -0.042617 -0.612498 -0.728539 -0.874929 0.538898 0.181090 0.557923 -0.284224 -0.349440 0.470823 -0.634266 0.500788 -0.036716 0.687634 -0.513563 -0.076300 -0.540554 0.393881 -0.448333 0.311957 0.286963 -0.170413 -0.827347 0.115649 0.413084 -0.581689 -0.504835 0.668500 -0.119184 -0.116103 0.386839 -0.224729 -0.254929 0.253490 -0.023968 0.391707 -0.431090 -0.910677 -0.007087 0.304812 -0.725910 -0.409752 -0.700774 0.148865 -0.044704 -0.207538 0.050203 0.301701 0.108836 -0.195407
123853717671339 -0.067762 -0.439802 0.021272 -0.071516 -0.380811 0.619722 0.086054 -0.304134 0.005098 0.918596 -0.405821 0.097887 -0.033621 0.128712 0.021033 0.166781 0.062497 -0.364301 0.487775 0.458979 0.075655 -0.628145 -0.267178 -0.078852 0.074655 0.072560 -0.864226 -0.464733 -0.204977 -0.255856 -0.220404 0.006921 -0.244291 0.086776 -0.375042 -0.046756 0.094099 0.171473 -0.005595 -0.594388 -0.174195 -0.517263 -0.032558 -0.027035 0.096107 0.050385 0.069849 -0.383506 0.164253 0.111020 -0.225952 0.368678 0.324528 -0.158755 -0.379888 0.084897 0.107565 -0.139420 -0.395080 -0.600637 0.227079 0.197119 -0.122192 0.559724 0.255226 0.468907 0.380385 0.201925 0.631704 -0.213717 -0.370283 0.370764 -0.287235 0.181984 -0.507534 0.446418 -0.251134 -0.121923 0.124064 -0.735320 -0.611757 -0.778363 -0.061260 0.515446 0.469613 -0.402251 -0.161426 0.055922 -0.848009 0.202168 -0.017798 0.734254 -0.495256 -0.221969 -0.381535 0.680259 -0.317972 0.122394 -0.107428 -0.064433 -0.261074 -0.000098 0.604913 -0.364297 -0.130562 0.300829 0.189485 -0.064505 0.156525 0.076200 -0.387020 0.263008 -0.031811 0.059085 0.074987 -0.798093 -0.090785 0.062020 -0.467100 0.026368 -0.744902 0.141336 0.401885 0.220297 -0.274290 0.683445 -0.035690 -0.544869
1153548471401227 -0.048059 -0.253167 0.017838 -0.010938 -0.135394 0.205955 -0.293834 -0.127238 0.187134 0.551755 -0.010580 -0.233634 -0.161683 0.088035 -0.017541 -0.041661 -0.076568 -0.152705 0.245276 0.485448 -0.299765 -0.324097 -0.131971 0.106115 -0.092893 -0.041113 -0.048846 -0.037163 -0.184651 0.029566 -0.079581 -0.036082 -0.166132 -0.072434 -0.371250 -0.049931 -0.010902 0.000290 -0.156734 -0.337021 -0.065224 -0.261761 0.112682 0.070783 -0.038159 -0.016141 0.044606 -0.067419 0.123005 0.008324 -0.066424 0.058776 0.031483 -0.067964 -0.194654 -0.041315 0.245509 0.006818 -0.151011 -0.216662 0.062617 0.138090 -0.042201 0.287490 -0.105505 -0.079091 0.045790 0.122980 0.219652 -0.021230 0.167671 0.067918 0.026592 -0.068007 -0.018428 -0.004639 -0.074579 -0.063893 0.084018 -0.276629 -0.229302 -0.038298 0.066697 0.208392 -0.018820 0.088231 -0.205815 0.097897 -0.078290 -0.188708 0.139311 0.314164 0.032609 -0.064571 0.020194 0.114761 -0.135924 -0.047921 -0.065996 -0.033680 0.048560 -0.135710 -0.072705 0.005428 0.070841 -0.004614 0.059872 -0.084586 0.052874 -0.031679 0.000585 0.281398 0.224209 -0.073145 -0.016871 -0.428797 0.091397 0.137770 -0.278283 0.128852 -0.049197 -0.105244 -0.009836 0.036490 -0.051407 0.269865 0.016356 -0.135105
10210367217205765 -0.096928 -0.073923 -0.043985 -0.055672 0.145854 0.302654 -0.289927 -0.216357 0.084917 0.199703 -0.006724 -0.282906 0.016663 -0.029456 0.114004 0.001747 -0.083390 -0.014062 0.188820 0.373671 -0.262150 -0.290571 -0.350684 0.025446 0.135753 0.156702 -0.130932 0.001657 -0.098563 0.030220 -0.228840 -0.152706 0.009730 -0.047795 -0.261773 -0.069890 -0.078546 0.198312 0.055613 -0.264880 -0.157868 -0.247325 0.003251 -0.034344 -0.066458 -0.053932 0.146437 -0.048501 0.233521 0.203202 0.025318 -0.096236 0.147109 0.013671 -0.221547 0.045247 0.293104 -0.032385 -0.248462 -0.278336 0.076344 -0.011871 -0.012577 0.160030 -0.182444 -0.040537 0.124761 0.080176 0.004041 0.003298 0.028810 -0.087733 0.069550 0.190620 -0.158131 0.254921 -0.066389 0.004470 0.265434 -0.157968 -0.341858 -0.089972 -0.033830 0.623632 0.153561 -0.145625 -0.063414 0.009562 -0.176588 0.012179 0.046858 0.190280 -0.044981 -0.111349 0.085440 0.159467 -0.225099 0.047232 -0.064126 0.023583 -0.060019 -0.078334 -0.049378 -0.052469 -0.225611 0.182633 0.071169 -0.171056 0.101104 -0.015128 -0.109791 0.112571 0.378383 -0.021335 0.184943 -0.313729 0.099509 0.231979 -0.369063 0.124752 -0.038506 -0.098005 0.000561 -0.012849 -0.042539 0.196740 0.092806 -0.054523
67520443643 -0.002667 -0.201956 0.142328 0.014090 -0.164978 0.041023 -0.205524 -0.135477 0.310094 0.604675 0.052757 -0.243590 -0.156319 0.041571 -0.179481 -0.004551 -0.133569 -0.291838 0.199436 0.624477 -0.335106 -0.398295 -0.059597 0.114414 -0.067771 -0.014552 -0.066573 0.049644 -0.130100 0.060508 -0.065570 0.115352 -0.157684 0.003122 -0.442319 -0.082570 0.004187 0.022819 -0.138175 -0.341632 -0.018562 -0.213497 0.120414 0.094339 0.000182 0.005253 -0.039122 -0.008956 0.010435 -0.058761 -0.026985 0.015268 0.039261 -0.050477 -0.278910 -0.048648 0.285825 -0.075509 -0.260366 -0.188619 0.033147 0.229543 -0.023721 0.446954 -0.088679 -0.193928 0.130709 0.094335 0.385217 -0.123905 0.047020 0.135846 0.088781 -0.032686 -0.088073 -0.020270 -0.253488 -0.179770 0.032069 -0.382016 -0.201437 -0.063294 0.122099 0.143261 -0.037001 0.227234 -0.313215 0.159087 -0.119893 -0.230750 0.165004 0.348208 0.086307 -0.059616 0.064489 0.125809 -0.266966 -0.061594 -0.226859 -0.105511 -0.055901 0.000389 -0.054852 0.017427 0.028016 -0.008251 0.034260 -0.055490 -0.066057 -0.042749 0.120243 0.220113 0.227366 -0.142913 -0.114941 -0.558591 0.043752 0.221441 -0.200268 0.081390 -0.101981 0.022347 -0.023936 0.011913 -0.110797 0.256800 -0.056627 -0.117498
465683626812716 -0.051285 -0.005181 -0.040925 -0.031371 0.282774 0.350416 -0.269908 -0.177081 0.215535 0.220857 0.119450 -0.324304 0.044534 -0.082065 0.141275 0.099423 -0.215335 0.073986 0.199309 0.440609 -0.262775 -0.430379 -0.408984 -0.031407 0.352649 0.338979 -0.206664 0.127751 0.004125 -0.079544 -0.320764 -0.093578 0.156810 0.072981 -0.217522 -0.045003 -0.039249 0.285210 0.150473 -0.194535 -0.177941 -0.251788 -0.032616 -0.098875 0.030877 -0.041443 0.109941 0.025296 0.221671 0.262476 0.157513 -0.238219 0.175217 0.056317 -0.371936 0.168446 0.322010 -0.213688 -0.343728 -0.286624 0.100143 -0.148353 -0.092437 0.231371 -0.234213 -0.051935 0.108109 -0.067827 0.035047 -0.092838 -0.097326 -0.152331 0.167455 0.364149 -0.210805 0.428387 -0.178361 -0.143758 0.314507 -0.162385 -0.430425 -0.154475 0.042462 0.759459 0.283436 -0.016076 0.003677 -0.003157 -0.239997 0.138758 0.057085 0.183836 0.027423 -0.086155 0.081425 0.121881 -0.418497 0.090374 -0.100946 -0.113711 -0.279260 -0.000620 -0.040867 -0.066876 -0.523194 0.353340 -0.043737 -0.244309 -0.032143 -0.048778 -0.029161 0.056344 0.539160 -0.084329 0.085525 -0.435844 0.063828 0.347689 -0.405701 0.131002 -0.095135 -0.084771 -0.101409 -0.141087 -0.010532 0.126165 0.150666 0.010315
1153207948101946 -0.047980 -0.245076 0.085058 0.037659 -0.159129 0.170469 -0.265275 -0.182263 0.220931 0.455251 0.014968 -0.245485 -0.173302 0.066640 -0.115076 -0.009036 -0.097668 -0.214233 0.236764 0.524109 -0.311542 -0.302727 -0.185746 0.074859 -0.066060 -0.042353 -0.027742 0.005700 -0.132404 0.076024 -0.082271 0.016323 -0.146753 -0.040887 -0.323078 -0.062495 -0.014838 -0.018502 -0.121207 -0.295539 -0.052099 -0.207755 0.072728 0.066915 0.016317 -0.054450 0.053848 -0.049183 0.071445 -0.050695 -0.068970 0.035837 0.009814 -0.071413 -0.189965 -0.070724 0.236652 -0.046956 -0.187827 -0.137304 0.000404 0.213023 0.027630 0.337403 -0.120658 -0.140814 0.086302 0.143922 0.282846 -0.050047 0.081702 0.148137 0.037644 -0.031899 -0.054724 -0.020560 -0.151136 -0.083226 0.054889 -0.306510 -0.199987 -0.103035 0.104020 0.202318 -0.019560 0.157416 -0.281740 0.161347 -0.138612 -0.221517 0.167113 0.337872 -0.010756 -0.093132 0.035253 0.153051 -0.174505 -0.003741 -0.155765 0.018985 0.081550 -0.043843 -0.018310 -0.008009 0.063511 -0.023569 0.126005 -0.042266 0.026075 -0.049107 0.009048 0.214662 0.221807 -0.082653 -0.008736 -0.403484 0.038754 0.191414 -0.250104 0.118741 -0.034753 0.013416 -0.020007 0.007780 -0.060925 0.262872 0.028849 -0.145702
11526821724 0.139323 -0.082236 -0.156317 0.001604 -0.893489 0.867671 0.252123 -0.241521 -0.313679 0.514308 -0.782330 0.499843 -0.419534 0.294499 0.247948 0.173775 0.335871 -0.388626 0.643294 0.011338 0.231938 -0.459166 -0.006596 -0.214598 -0.200633 0.149207 -1.091903 -0.575783 0.018015 0.042233 0.100091 -0.125385 -0.219848 0.117488 0.096307 -0.246210 0.575292 0.147171 0.076259 -0.188795 -0.219892 -0.196856 -0.018449 0.052462 0.140802 0.125757 0.001525 -0.668274 -0.123303 0.172842 -0.617353 0.372463 0.420454 -0.331803 -0.096506 0.156374 -0.183033 0.095061 -0.326187 -0.475105 -0.096610 0.376368 0.114552 -0.240890 0.614014 0.464730 0.238449 0.209060 0.387390 -0.002784 -0.509207 0.430874 -0.349942 0.010091 -0.490025 0.015005 0.078832 -0.341873 -0.171061 -0.774283 0.041248 -0.831705 -0.377304 0.023205 0.753909 -0.421001 -0.065127 0.013206 -0.598024 0.096052 -0.383474 0.645483 -0.414767 -0.521792 -0.915738 0.899026 0.126529 -0.069014 -0.138051 -0.064310 -0.104224 0.067424 0.872931 -0.535348 0.081589 0.725956 0.173617 0.412854 -0.222439 0.029026 -0.329321 0.347166 -0.640826 0.084379 -0.251738 -0.317222 -0.169269 -0.269108 0.072945 -0.020767 -0.763175 0.167593 0.572483 0.199106 -0.324280 0.978054 0.010527 -0.861450
1786996371576331 -0.143895 -0.156036 0.162662 0.068777 0.001162 0.400740 -0.359798 -0.040451 0.137868 0.415814 -0.328630 0.082914 -0.009064 0.204540 0.274735 -0.052369 0.002921 -0.131590 0.405933 0.163035 -0.104852 -0.114505 -0.189861 0.202522 -0.090276 0.055021 -0.374237 -0.199248 -0.217407 0.046694 -0.100601 -0.252965 -0.159919 -0.139387 -0.323233 -0.029279 0.215886 -0.070029 0.060425 -0.074192 -0.274980 -0.277590 0.093363 0.196930 -0.136163 -0.122538 -0.056874 -0.051214 -0.010427 0.102820 -0.306947 0.032729 0.278618 -0.157142 0.146867 -0.142264 0.255024 0.129744 -0.052298 -0.508712 0.230407 0.253237 -0.052958 0.058060 -0.095191 0.058889 0.088052 0.188295 -0.073853 0.183429 -0.031943 -0.178768 -0.250447 0.010078 0.063474 0.222019 0.363921 0.135333 0.175792 -0.168626 -0.418652 -0.205031 -0.137846 0.258372 0.180151 -0.244063 -0.135815 0.163795 -0.071909 -0.132249 0.026263 0.343278 -0.272547 -0.053384 -0.058153 0.412348 0.156767 -0.168176 0.046444 0.029963 0.279612 -0.104954 0.048362 -0.102332 0.255219 0.041437 0.322659 -0.175032 0.195804 -0.058270 -0.110735 0.527141 0.220071 0.203015 0.136960 0.115510 -0.077527 -0.143876 -0.228340 0.312281 0.045152 -0.260384 0.002397 -0.029191 0.015690 0.398268 0.075371 -0.228904
1798546240421344 -0.122788 -0.256879 0.010633 0.046971 -0.042224 0.260215 -0.223000 -0.168676 0.001934 0.303996 -0.027989 -0.125638 -0.053427 0.014343 0.053910 0.018889 0.018367 -0.055466 0.072834 0.362662 -0.284136 -0.132692 -0.264432 -0.056987 -0.021013 -0.004832 -0.067845 -0.124692 -0.179649 -0.079338 -0.118857 -0.135139 -0.165481 0.013086 -0.296049 0.005606 -0.053536 0.020525 -0.128905 -0.220064 -0.068125 -0.254657 0.072845 0.081457 0.042631 -0.091411 0.143648 -0.006806 0.274526 0.030136 -0.067831 0.037106 0.041262 -0.042297 -0.205669 -0.067285 0.175899 -0.000915 -0.199323 -0.150433 0.023853 -0.002975 -0.053645 0.197129 -0.106062 -0.029235 0.173396 0.142362 0.132944 -0.012543 0.117634 0.092550 0.069352 0.048207 -0.076365 0.030297 -0.017944 0.066779 0.137466 -0.215407 -0.251030 -0.090001 0.072494 0.438409 0.132268 -0.016434 -0.005599 0.042875 -0.218453 -0.072821 0.079974 0.238985 -0.155960 -0.156791 0.069718 0.190275 -0.164223 -0.010467 -0.001167 0.078035 0.110390 -0.139318 0.021514 -0.018730 0.001794 -0.096657 0.128982 -0.118970 0.141376 -0.053691 -0.216549 0.124636 0.184382 -0.106067 0.185199 -0.237352 0.121962 0.102966 -0.291888 0.147772 -0.141047 -0.040893 0.044795 0.078943 -0.065118 0.214355 0.078183 -0.082830
174792865946918 -0.427622 -0.365359 -0.252935 -0.170801 -0.323948 0.675055 -0.296115 -0.245766 -0.322838 0.253406 -0.130536 -0.312602 0.105354 0.022810 -0.005376 0.031414 -0.047632 0.229332 0.237031 0.291321 -0.041463 -0.623614 -0.247173 0.223207 0.179876 0.188925 -0.075265 -0.364450 -0.212528 -0.050126 -0.174749 -0.351515 -0.426486 -0.117056 -0.513150 0.162083 0.033488 -0.002948 -0.248176 -0.948694 -0.314478 -0.374772 0.149700 -0.029345 -0.022367 -0.043924 0.208837 -0.066846 0.375281 -0.051379 -0.137664 0.130871 -0.036894 -0.229442 -0.191183 -0.033943 0.363564 0.182955 -0.184649 -0.244992 -0.149127 -0.118367 0.139087 0.087102 -0.080525 0.323403 0.195118 0.216667 0.434369 0.063307 0.229025 0.035936 0.106497 -0.114171 0.154057 0.493900 -0.040764 -0.012444 0.068521 0.053832 -0.268233 -0.035133 0.023984 0.331244 -0.068252 -0.222178 0.216235 0.101354 -0.099111 0.082524 0.091289 0.282113 -0.126095 -0.151952 -0.085350 0.141230 -0.060139 0.060680 -0.035919 0.197805 0.223501 -0.264421 0.134409 0.134654 -0.080415 0.004765 -0.003725 0.011497 0.131116 0.248832 -0.129593 0.096545 0.102324 -0.259144 0.000569 -0.107198 0.259347 0.070774 -0.102602 0.118502 0.289263 -0.279615 -0.111463 0.013800 0.134657 0.152544 0.014748 -0.001681
115361895233933 0.074913 -0.043623 -0.155905 -0.533507 -0.257536 -0.230385 0.136718 -0.561342 0.017545 0.584308 0.155719 0.174693 -0.065917 -0.110638 -0.054871 0.026725 0.345419 -0.577728 0.285327 0.188002 0.286409 -0.213777 0.068262 0.326301 -0.447168 0.081798 -0.728914 -0.125366 -0.031053 -0.044808 -0.131221 -0.092987 0.141466 0.163033 -0.199456 -0.512443 -0.515311 0.266366 0.324362 -0.149001 -0.114797 -0.176240 -0.714841 -0.203992 0.177252 0.143760 0.301862 -0.405333 -0.085217 0.027181 0.263859 0.497708 0.397532 -0.349372 -0.411314 0.287944 0.072637 0.209719 -0.300259 -0.671512 0.331912 0.380883 -0.327673 0.793194 0.623366 0.562251 0.924071 0.334361 0.431371 -0.521507 -0.722937 0.069041 -0.618460 0.139468 -0.580768 0.561238 -0.177699 0.182113 -0.139625 -0.740227 -0.174484 -0.796798 -0.707777 -0.004911 0.366547 -0.575186 -0.149491 0.193179 -1.034918 0.112886 -0.364437 0.333546 -0.344228 0.135967 -0.389725 0.103807 -0.055915 -0.084779 0.070504 0.046344 -0.578864 0.043082 0.423428 -0.237148 -0.295418 0.669755 0.168448 -0.213458 0.180438 0.060231 0.062553 0.200259 -0.040251 0.218562 0.465146 -0.597224 -0.415260 -0.275103 -0.429040 -0.334482 -1.265766 0.237248 0.525678 0.166241 -0.005027 0.996224 -0.237042 -0.496218
10153459285372714 0.038513 0.024735 -0.288386 0.070692 -0.095599 -0.164716 -0.065065 0.071182 -0.189575 0.464967 -0.060790 0.318229 0.016978 -0.057062 0.190126 -0.114486 0.343979 -0.024726 0.208655 0.162097 -0.138486 -0.079259 -0.104007 0.129206 -0.274056 0.005369 -0.227553 0.060474 -0.255126 -0.215929 0.035241 0.116050 -0.324256 0.188797 -0.086701 0.169156 0.271566 0.209933 -0.243571 -0.442954 -0.032330 -0.409488 0.215142 0.345835 0.183942 0.082146 0.226349 -0.130221 0.257029 0.300055 -0.170090 0.342448 0.190775 -0.067629 -0.292669 -0.211002 0.256581 0.007073 -0.236702 -0.518263 0.185042 -0.067050 -0.246182 0.130635 0.001695 0.262965 0.046289 -0.092215 0.079539 0.057096 0.044232 -0.123691 -0.106067 -0.012807 -0.269721 0.207473 0.384803 0.154020 -0.145201 -0.381960 -0.058528 -0.084533 -0.096640 0.377514 0.062277 -0.239834 0.158891 0.102237 -0.189542 0.119192 0.233056 0.386699 -0.350547 -0.058592 0.185240 0.444134 -0.008720 -0.122712 0.217216 0.263604 0.019926 -0.150284 0.224111 -0.094598 0.250429 -0.137308 -0.187597 -0.179636 0.101353 -0.112267 -0.068761 0.100965 0.008924 0.105968 0.216144 -0.086192 0.139299 -0.206870 -0.421393 0.076850 -0.500992 -0.310767 0.072131 0.174928 -0.046030 0.441683 -0.082078 -0.267638
10210515698917715 -0.175164 -0.284623 0.022544 0.060657 -0.070749 0.326234 -0.252125 -0.100058 0.073353 0.329583 -0.031119 -0.114126 -0.004355 0.035079 0.061977 0.146426 -0.003298 0.007241 0.055681 0.338389 -0.259279 -0.184572 -0.227944 0.002393 0.081754 0.020569 -0.100766 -0.119413 -0.162564 -0.106653 -0.153481 -0.111650 -0.161207 0.035601 -0.313472 0.094446 0.023575 -0.030223 -0.085767 -0.206628 -0.113407 -0.263459 0.055573 0.070090 0.084180 -0.058298 0.070380 0.044375 0.219308 0.037423 -0.116667 0.035103 0.040225 -0.036627 -0.193940 -0.043634 0.199493 -0.045364 -0.217127 -0.150042 0.020188 -0.053870 -0.094662 0.207653 -0.048339 0.013669 0.156946 0.128477 0.180945 0.019753 0.134515 0.115150 0.047664 0.034984 -0.066280 0.092430 -0.007590 0.027091 0.165646 -0.097452 -0.201072 -0.051325 0.095559 0.389907 0.098026 0.052044 0.074897 0.063341 -0.215802 -0.036208 0.034955 0.253245 -0.140750 -0.120120 -0.034019 0.194260 -0.134752 -0.034453 -0.089984 0.114202 0.102456 -0.071062 0.072310 0.008440 -0.011028 -0.031065 0.117976 -0.094632 0.128504 -0.062811 -0.111453 0.165346 0.191383 -0.144961 0.132930 -0.279914 0.117508 0.109279 -0.220115 0.180669 -0.101857 -0.079292 -0.027680 0.061241 0.004858 0.221612 0.094397 -0.153097
478375928843489 0.075842 -0.052200 -0.153753 -0.535939 -0.256361 -0.223128 0.149419 -0.567486 0.016653 0.587138 0.151566 0.182456 -0.054143 -0.104019 -0.056097 0.033576 0.344398 -0.575534 0.279582 0.182272 0.291519 -0.213658 0.064659 0.324573 -0.440213 0.074309 -0.739333 -0.132122 -0.035657 -0.054960 -0.132944 -0.090931 0.135309 0.160804 -0.200945 -0.506232 -0.514989 0.261484 0.319831 -0.163602 -0.113333 -0.175870 -0.712937 -0.203686 0.171891 0.141406 0.308819 -0.397884 -0.081275 0.023890 0.260590 0.498560 0.392155 -0.343381 -0.407832 0.288793 0.064593 0.206150 -0.295948 -0.661362 0.330475 0.368523 -0.330184 0.795187 0.617788 0.568539 0.922553 0.328612 0.438445 -0.515869 -0.715919 0.071897 -0.616133 0.138852 -0.583557 0.561058 -0.180273 0.188811 -0.134911 -0.739255 -0.178988 -0.795534 -0.706085 -0.004118 0.365373 -0.576801 -0.144920 0.186442 -1.044342 0.112235 -0.365530 0.333286 -0.347009 0.137188 -0.395011 0.103705 -0.057637 -0.074346 0.066931 0.043196 -0.582859 0.042665 0.422828 -0.240648 -0.298120 0.660855 0.166400 -0.215974 0.190672 0.057837 0.055097 0.195500 -0.036094 0.216661 0.465384 -0.605399 -0.407944 -0.269977 -0.426287 -0.333137 -1.265190 0.238209 0.527549 0.168460 -0.008991 0.991317 -0.235670 -0.494224
10209406418306393 -0.325789 -0.272958 -0.197738 -0.055599 -0.197626 0.498288 -0.299212 -0.181058 -0.230523 0.274257 -0.090519 -0.178755 0.074728 -0.005431 0.011978 0.025456 -0.066176 0.110865 0.222844 0.282764 -0.062076 -0.484529 -0.204003 0.216037 0.145325 0.167800 -0.084014 -0.215649 -0.172294 -0.039580 -0.098756 -0.199237 -0.445119 -0.017644 -0.508335 0.121751 0.164856 0.026072 -0.244641 -0.782551 -0.304594 -0.424012 0.200049 0.120773 0.020403 -0.008625 0.195805 -0.117273 0.335015 0.035969 -0.248989 0.088228 0.060876 -0.180252 -0.239185 -0.064205 0.369755 0.115131 -0.209735 -0.390621 -0.117343 -0.068195 0.151851 0.177326 -0.057983 0.218512 0.125909 0.160989 0.252873 0.077408 0.146899 0.002919 0.111913 -0.046458 0.004903 0.404703 0.039678 0.001938 0.091566 -0.042837 -0.144255 -0.012709 -0.020197 0.403981 -0.026577 -0.154069 0.210438 0.119804 -0.115431 0.130319 0.116154 0.270549 -0.092919 -0.192522 0.007543 0.212433 -0.072151 0.036021 -0.081636 0.170560 0.199909 -0.191845 0.100570 0.063717 -0.022424 -0.032565 -0.092491 -0.062092 0.043037 0.169723 -0.044501 0.142269 0.079982 -0.178150 0.016176 -0.016306 0.180009 0.061462 -0.084862 0.154517 0.202772 -0.289078 -0.158435 0.004558 0.103308 0.171905 -0.017972 -0.022334
1153174154771992 -0.053854 -0.181262 -0.023859 0.052783 -0.055487 0.202745 -0.219899 -0.127956 0.016970 0.213127 0.023543 -0.128533 -0.020912 0.005565 0.030045 0.042163 -0.010690 0.017436 0.101769 0.335497 -0.253204 -0.188013 -0.287811 -0.092724 0.065970 0.008035 -0.092257 -0.045638 -0.176801 -0.014410 -0.177774 -0.080780 -0.126652 0.046368 -0.232849 0.012342 -0.000035 0.075110 -0.095112 -0.223701 -0.067102 -0.183038 0.096993 0.045279 0.061376 -0.049266 0.193332 0.011922 0.256446 0.078616 -0.035568 0.020495 0.079929 -0.007915 -0.173569 -0.027038 0.208847 -0.031900 -0.212236 -0.111409 -0.016332 -0.014933 -0.011278 0.197828 -0.138617 -0.057691 0.119898 0.097418 0.150005 -0.038374 0.085768 0.066151 0.064044 0.073836 -0.075837 0.107126 -0.036909 0.021489 0.105566 -0.232042 -0.195836 -0.140875 0.132072 0.501716 0.128437 -0.020075 -0.034699 0.070518 -0.214044 -0.046273 0.076346 0.311002 -0.130596 -0.099101 0.031862 0.220714 -0.146752 0.014745 -0.019545 0.079234 0.047764 -0.073140 0.033200 -0.048128 -0.118817 -0.022354 0.147346 -0.111647 0.063263 -0.090198 -0.167312 0.074607 0.226976 -0.105729 0.092867 -0.231001 0.142133 0.164191 -0.316620 0.134233 -0.105377 -0.015896 -0.005137 0.065681 -0.042222 0.207247 0.098421 -0.086338
1153157168107024 -0.087858 -0.211757 -0.022377 0.078880 -0.101625 0.271188 -0.262204 -0.156055 0.003994 0.218224 -0.011743 -0.142714 -0.039798 0.008797 0.009831 0.052967 0.022630 -0.051204 0.110465 0.340826 -0.241328 -0.155634 -0.261772 -0.045806 0.039627 0.018215 -0.028427 -0.060182 -0.136642 0.022804 -0.097398 -0.076750 -0.196403 0.005959 -0.267899 0.023131 0.033810 0.033928 -0.137940 -0.237878 -0.062166 -0.220093 0.115514 0.121688 0.064419 -0.067106 0.168174 -0.082844 0.230354 0.047676 -0.109738 0.026036 0.046577 -0.068138 -0.164177 -0.066679 0.204223 -0.016262 -0.213054 -0.160007 -0.053188 0.016369 0.058261 0.200122 -0.134656 -0.060750 0.140766 0.138080 0.151337 -0.030400 0.077202 0.104958 0.063143 0.081009 -0.077067 0.067384 -0.047721 0.025143 0.064357 -0.256983 -0.135508 -0.168522 0.131111 0.490801 0.131477 0.037181 -0.068447 0.096494 -0.187221 -0.036790 0.128172 0.347269 -0.189631 -0.150473 0.048041 0.241531 -0.138889 0.016076 -0.071803 0.126038 0.155237 -0.088815 0.075344 -0.043081 -0.010368 -0.031078 0.149198 -0.088605 0.025519 -0.102004 -0.206502 0.099375 0.166946 -0.107427 0.103797 -0.187752 0.130930 0.166999 -0.297625 0.138065 -0.099007 -0.020965 -0.012391 0.036301 -0.010315 0.211668 0.091843 -0.114779
10209184129735151 -0.080940 -0.117105 -0.148774 -0.133655 -0.162336 0.148553 -0.095039 -0.155276 0.063906 0.459978 0.008082 -0.175451 -0.007232 0.047526 0.055079 0.158013 0.147603 -0.006974 0.014942 0.402526 -0.297600 -0.232268 -0.298461 0.136766 0.070124 -0.128550 0.013236 -0.212958 -0.167603 -0.202035 -0.342994 -0.156165 0.045541 -0.295061 -0.115578 0.096200 -0.277687 0.198229 -0.059246 -0.292964 0.223201 -0.170714 -0.142254 -0.230394 0.110262 -0.077625 0.086426 0.171182 0.193160 0.152079 0.258976 0.171992 -0.270344 0.012993 -0.257014 0.019094 0.242441 -0.033843 -0.265133 0.084788 0.031404 -0.087971 -0.367506 0.198456 -0.105011 0.018428 0.113923 0.224208 0.502096 0.002759 0.353506 0.244895 0.150488 -0.084717 -0.091688 0.153609 -0.217206 0.042621 0.038643 -0.149823 -0.404819 -0.044112 0.133951 0.264757 -0.165126 -0.070000 0.034851 0.141248 -0.326240 -0.236329 0.234957 0.349333 -0.283201 0.013343 0.059617 0.086804 -0.440645 0.151215 0.065350 0.344281 -0.085379 -0.217509 0.089682 0.068109 0.117270 -0.039024 0.133277 -0.084482 0.398556 -0.127259 -0.190043 -0.026608 0.430467 -0.063261 0.306499 -0.815135 0.233415 0.259288 -0.483874 0.046542 -0.122554 -0.048324 0.137281 0.074148 -0.226414 0.222040 -0.136816 -0.274524
10210366456186740 -0.115616 -0.248367 -0.035308 0.051581 -0.087231 0.242858 -0.290146 -0.135343 0.027217 0.299456 -0.015942 -0.148714 -0.018843 -0.013938 0.034008 0.029549 0.056059 -0.026114 0.113593 0.383852 -0.302843 -0.172546 -0.228409 -0.034308 -0.022271 0.030246 -0.031418 -0.040485 -0.186258 -0.003792 -0.088965 -0.066370 -0.228154 0.056946 -0.295984 0.075073 0.017295 0.033104 -0.145682 -0.287011 -0.073864 -0.257736 0.130477 0.134051 0.062993 -0.021722 0.134159 -0.077327 0.229785 0.073680 -0.094201 0.072437 0.069172 -0.036490 -0.183657 -0.068827 0.231973 -0.036011 -0.225608 -0.202447 0.031743 -0.018440 -0.000649 0.230834 -0.148919 -0.022485 0.151957 0.082264 0.114369 -0.035367 0.099718 0.016168 0.021329 0.066975 -0.066768 0.073158 -0.001881 0.052731 0.099443 -0.207073 -0.129489 -0.111573 0.123136 0.491794 0.096297 0.031385 -0.059317 0.031654 -0.144640 -0.016775 0.114302 0.357152 -0.170389 -0.087154 0.062998 0.215494 -0.072794 -0.059401 -0.065182 0.101427 0.126798 -0.083891 0.050360 -0.009168 -0.018109 -0.050498 0.137724 -0.097298 0.043531 -0.098861 -0.171683 0.114629 0.155363 -0.117079 0.103179 -0.198595 0.155796 0.127073 -0.315442 0.124420 -0.162524 -0.057455 0.013021 0.078378 0.008641 0.221026 0.111390 -0.110125
146505212039213 0.027922 -0.314378 -0.241496 -0.059217 -0.218823 0.278749 -0.238577 -0.064763 -0.092979 0.480162 -0.073288 -0.144799 -0.140428 0.126674 0.246138 -0.079185 0.182063 0.066191 0.189727 0.365430 -0.450060 -0.102934 -0.198701 -0.270796 -0.224461 -0.141686 -0.169825 -0.186193 -0.390634 -0.037728 -0.104097 -0.260409 -0.170140 -0.030811 -0.278914 0.027831 -0.127231 0.039175 -0.287716 -0.224199 0.032779 -0.183280 0.257075 0.016567 -0.014162 -0.003609 0.261707 -0.100828 0.370835 0.086548 0.071284 0.203779 -0.009190 0.013795 -0.051489 0.024759 0.063907 0.194782 -0.158410 -0.058061 0.090212 -0.171190 -0.182671 -0.042014 -0.075176 0.040149 0.055721 0.079947 0.041084 -0.027624 0.370128 0.028644 -0.075678 -0.104891 0.113601 -0.190002 0.124937 0.022451 -0.041325 -0.320978 -0.172095 -0.052340 0.150758 0.424755 0.212583 -0.117977 0.036353 -0.149881 -0.085140 -0.156701 -0.048966 0.383643 -0.146773 -0.074262 -0.216385 0.144218 0.151502 -0.160101 0.305332 -0.025566 0.089838 -0.329583 -0.038161 0.028583 -0.004589 0.047057 0.249517 -0.133152 0.063794 -0.072029 -0.416060 0.177120 0.026250 -0.147139 0.093750 -0.398524 0.375392 -0.090501 -0.490656 0.072278 -0.399529 0.047676 0.322935 0.340823 -0.088393 0.404655 0.238795 -0.232003
556638057861695 -0.125078 -0.581246 0.090846 0.222144 -0.211600 0.076317 0.021903 0.020454 -0.068325 0.380596 -0.026425 0.234270 -0.072890 0.158311 -0.046303 0.104333 -0.089325 -0.053575 -0.161144 0.209299 0.076682 -0.181639 -0.290684 0.002279 0.228191 -0.034584 -0.302297 -0.303388 -0.224144 -0.268155 -0.372026 -0.049141 -0.247281 0.141667 -0.305349 -0.122790 0.204061 0.025234 -0.111784 -0.182229 -0.212802 -0.043729 0.294204 0.248213 0.359592 -0.182327 0.344335 0.312318 0.106397 -0.226634 -0.188018 0.158155 -0.014100 0.023688 -0.295885 -0.103395 0.053873 0.013649 -0.223893 -0.251304 -0.127318 0.087897 -0.161195 0.245674 0.038845 -0.020170 0.097712 0.095502 0.467748 -0.245222 -0.218816 0.203077 0.133648 -0.239969 -0.043380 0.268438 0.073910 0.069717 -0.239949 -0.244311 -0.197215 -0.059911 0.219602 0.012157 0.216357 0.142640 0.286286 0.428893 -0.236788 0.014295 0.106101 0.163612 -0.165699 -0.259494 -0.021209 0.157869 -0.244711 -0.004338 0.131415 0.003471 0.101513 0.240854 0.102037 0.133596 -0.037833 -0.417517 0.041854 -0.276019 0.110845 0.041958 -0.245665 0.256868 0.119985 -0.177284 -0.174809 0.142370 0.055168 -0.117621 -0.387531 0.242498 -0.184910 0.090329 -0.099856 0.166009 0.138260 0.115427 -0.104986 -0.020072
19061333123 0.135675 -0.076944 -0.148322 0.008186 -0.895151 0.868467 0.243601 -0.247589 -0.309817 0.501162 -0.778847 0.492591 -0.413308 0.296794 0.254542 0.161553 0.330702 -0.379966 0.636827 0.008640 0.226806 -0.454075 -0.004947 -0.205212 -0.195262 0.161030 -1.083400 -0.575918 0.024742 0.050012 0.105495 -0.134318 -0.223798 0.104577 0.094412 -0.255994 0.575606 0.136334 0.081479 -0.201042 -0.223093 -0.189909 -0.013034 0.061448 0.134103 0.126787 0.006568 -0.652201 -0.128419 0.163649 -0.610753 0.352243 0.411340 -0.340116 -0.091454 0.156882 -0.179989 0.105268 -0.332474 -0.462542 -0.113132 0.384614 0.130237 -0.251651 0.597176 0.453098 0.235094 0.215214 0.390206 0.011720 -0.499226 0.418238 -0.333160 0.011334 -0.477766 0.017127 0.086480 -0.340814 -0.171856 -0.764335 0.045205 -0.822273 -0.379372 0.023880 0.747109 -0.417284 -0.058364 0.009451 -0.587466 0.090125 -0.379050 0.650255 -0.414222 -0.519366 -0.905642 0.893853 0.125981 -0.069151 -0.144513 -0.056726 -0.087619 0.066282 0.872975 -0.526600 0.083461 0.718718 0.180017 0.412167 -0.234561 0.027829 -0.328482 0.343451 -0.631864 0.070792 -0.246513 -0.305746 -0.164359 -0.268265 0.077519 -0.009577 -0.744768 0.160674 0.565939 0.199806 -0.314641 0.974647 0.011171 -0.859146
10153216704907714 -0.142741 -0.169576 -0.060073 0.044305 -0.112774 0.270918 -0.268046 -0.117644 0.015832 0.303760 -0.011269 -0.122608 -0.030698 0.007353 0.041128 0.024421 0.020659 0.015119 0.182197 0.360901 -0.235675 -0.264362 -0.235164 0.075072 0.013334 0.072764 -0.066092 -0.038021 -0.143408 -0.031879 -0.091690 -0.064782 -0.177236 0.012912 -0.235664 0.079777 0.072609 0.025397 -0.133747 -0.316242 -0.098872 -0.251536 0.118533 0.115139 0.071943 -0.015590 0.097687 -0.002030 0.215965 0.057530 -0.093679 0.055078 0.043797 -0.087456 -0.186095 -0.079505 0.274669 -0.021897 -0.213922 -0.200730 -0.020634 0.000819 -0.043733 0.146360 -0.115303 0.010607 0.141061 0.110749 0.229144 0.016518 0.129215 0.054412 0.069738 0.025920 -0.051491 0.126996 0.017885 -0.010012 0.047640 -0.212612 -0.199783 -0.074319 0.055943 0.415815 0.067216 0.010853 -0.004560 0.097352 -0.133693 -0.067390 0.136606 0.328182 -0.157715 -0.126790 0.053693 0.232692 -0.151046 -0.038632 -0.066952 0.138340 0.123728 -0.102696 0.059775 -0.011370 0.026227 -0.018035 0.066718 -0.075259 0.075066 -0.079679 -0.086476 0.130181 0.188467 -0.120119 0.103681 -0.228045 0.141858 0.107958 -0.275427 0.143239 -0.083890 -0.128069 -0.032801 0.012686 -0.008134 0.273474 0.051866 -0.139846
1151689334920474 -0.165256 -0.295700 0.049377 0.049952 -0.023465 0.302687 -0.290843 -0.141432 0.049240 0.375376 -0.075987 -0.124259 -0.036186 0.025062 0.063022 0.035170 -0.015663 -0.066118 0.107015 0.399753 -0.308744 -0.187522 -0.226720 -0.019900 -0.024377 0.028782 -0.112312 -0.132761 -0.232344 -0.057710 -0.107248 -0.144768 -0.202583 0.064158 -0.375843 0.020604 0.007719 -0.014673 -0.124482 -0.226785 -0.148477 -0.294175 0.133379 0.127547 -0.006774 -0.072997 0.077948 -0.010636 0.253994 0.040256 -0.162528 0.036820 0.121536 -0.018597 -0.187408 -0.067685 0.236527 0.002643 -0.214365 -0.237416 0.057661 0.018543 -0.030764 0.214123 -0.083541 -0.019607 0.171742 0.139164 0.089092 0.011094 0.113160 0.055550 0.049058 0.025798 -0.083078 0.055533 0.018404 0.026641 0.175229 -0.186760 -0.229814 -0.002901 0.039759 0.426089 0.129287 -0.018939 -0.005046 0.034346 -0.162060 -0.060837 0.032714 0.228630 -0.098961 -0.147601 0.043794 0.197165 -0.117737 -0.066332 -0.064614 0.022849 0.127493 -0.103685 -0.022851 0.000810 0.024334 -0.089384 0.103749 -0.145902 0.115857 -0.020733 -0.123208 0.227624 0.175330 -0.114314 0.142059 -0.232902 0.123293 0.077913 -0.233413 0.177855 -0.105644 -0.091434 0.013707 0.087288 -0.039776 0.241098 0.072974 -0.086534
1098593720174132 -0.092400 -0.159456 -0.055272 0.019777 -0.009396 0.248236 -0.259759 -0.141994 0.004525 0.260352 -0.015737 -0.128262 -0.005366 -0.002006 0.083085 -0.005499 0.018835 0.005902 0.155208 0.337796 -0.245249 -0.229359 -0.286167 0.003725 0.040261 0.085954 -0.113555 -0.044220 -0.176984 -0.016002 -0.141897 -0.111803 -0.133895 0.023736 -0.241676 0.000247 0.024051 0.099575 -0.080881 -0.262090 -0.096365 -0.229807 0.098760 0.093094 0.011784 -0.040278 0.151759 -0.046810 0.227280 0.124525 -0.051224 0.024406 0.089469 -0.029309 -0.185108 -0.029860 0.232620 -0.006645 -0.186022 -0.200873 0.027812 -0.014191 -0.018443 0.141829 -0.147114 -0.014446 0.124890 0.083134 0.101524 -0.024495 0.058784 -0.019036 0.051127 0.081009 -0.097378 0.159324 0.002264 0.035189 0.117450 -0.234416 -0.217337 -0.116489 0.048342 0.512749 0.125879 -0.065347 -0.024632 0.058344 -0.156836 -0.013083 0.094264 0.286863 -0.118967 -0.112012 0.080379 0.214975 -0.142215 0.002990 -0.012124 0.070516 0.040826 -0.104183 0.011058 -0.040357 -0.070928 0.005079 0.075710 -0.139666 0.060078 -0.068935 -0.142451 0.116276 0.229477 -0.062998 0.122807 -0.204731 0.139780 0.127968 -0.325914 0.132579 -0.096452 -0.097253 -0.004621 0.038625 -0.021981 0.224892 0.074077 -0.076404
1155656837857057 -0.076362 -0.265197 -0.044027 0.063765 -0.068760 0.265377 -0.279724 -0.105507 0.069841 0.389934 -0.062529 -0.085323 -0.058216 0.073625 0.127893 0.043569 0.045563 -0.094562 0.094327 0.352288 -0.260586 -0.131746 -0.258026 0.051721 0.046460 0.002291 -0.092865 -0.111592 -0.177683 -0.048566 -0.164762 -0.122349 -0.179721 -0.102227 -0.307295 -0.009893 0.034084 0.067776 -0.108176 -0.189913 -0.047716 -0.257231 0.137466 0.139705 0.086562 -0.087036 0.167745 -0.054365 0.186565 0.125333 -0.091071 0.034371 -0.007508 -0.017709 -0.193788 -0.048811 0.205123 0.019338 -0.209938 -0.284185 0.027575 -0.003878 -0.093761 0.202445 -0.145104 -0.072523 0.040180 0.140332 0.131351 -0.022129 0.117514 0.069462 0.068985 0.010569 -0.098313 0.069903 0.018627 0.068165 0.083841 -0.224763 -0.185247 -0.080870 0.109624 0.425918 0.111509 0.050350 0.019169 0.121892 -0.168114 -0.035680 0.167890 0.323843 -0.174820 -0.151964 0.059179 0.173448 -0.168598 0.004823 0.023363 0.120751 0.124880 -0.118550 0.018695 0.011937 0.094657 -0.062765 0.100810 -0.200145 0.110623 -0.112805 -0.223265 0.250341 0.248196 -0.042527 0.134093 -0.267690 0.127921 0.109980 -0.428730 0.191593 -0.149360 -0.095005 0.022496 0.057979 -0.010085 0.226814 0.033611 -0.192165
10210340347054028 -0.133855 -0.192384 0.015510 0.058218 -0.062616 0.244727 -0.222427 -0.128221 0.016326 0.278995 -0.048775 -0.098779 -0.034841 0.021817 0.042800 0.038718 0.008484 -0.052683 0.094293 0.350391 -0.257744 -0.186494 -0.245862 0.020928 0.015372 0.015967 -0.085340 -0.098806 -0.162525 -0.036724 -0.108998 -0.099437 -0.205325 0.010462 -0.330972 0.020397 0.057225 0.021974 -0.129301 -0.286904 -0.111898 -0.276814 0.112922 0.134918 0.034201 -0.054558 0.111664 -0.004355 0.244865 0.053676 -0.138494 0.027377 0.070957 -0.061353 -0.185881 -0.092088 0.233942 -0.001232 -0.213829 -0.186100 -0.021011 0.033946 -0.019495 0.181268 -0.090806 -0.029743 0.166134 0.145231 0.161863 0.033184 0.127270 0.091553 0.074412 0.035982 -0.086477 0.066798 0.008457 0.033305 0.123006 -0.211843 -0.196584 -0.065005 0.053549 0.458810 0.106614 -0.007613 -0.002897 0.090084 -0.200665 -0.077890 0.089800 0.290932 -0.155314 -0.171366 0.054408 0.270149 -0.162765 -0.028441 -0.088419 0.116037 0.143193 -0.094355 0.048470 -0.036997 0.045351 -0.081826 0.109626 -0.097812 0.105905 -0.070816 -0.136823 0.147518 0.182473 -0.118842 0.133747 -0.211809 0.128366 0.120743 -0.233722 0.187437 -0.069246 -0.081626 -0.022504 0.052835 -0.039885 0.246837 0.058826 -0.117327
1155122881243786 -0.095081 -0.178684 -0.033829 0.014792 -0.072907 0.200261 -0.236885 -0.102444 0.063745 0.330414 -0.000456 -0.103379 -0.023112 0.018717 0.059281 0.045195 0.014304 -0.025495 0.138849 0.335198 -0.239361 -0.209150 -0.223428 0.056634 0.013149 0.002550 -0.063776 -0.050803 -0.160147 -0.053393 -0.123528 -0.051676 -0.172874 0.008552 -0.273989 0.074990 0.029356 0.042119 -0.109895 -0.273079 -0.081745 -0.279965 0.078457 0.074622 0.059900 -0.022516 0.100716 -0.007235 0.203582 0.089287 -0.086146 0.074579 0.052137 -0.050931 -0.173161 -0.064438 0.249331 -0.030137 -0.204841 -0.212002 0.027941 0.004005 -0.072296 0.221587 -0.126931 0.008996 0.107170 0.090305 0.161295 0.018471 0.134192 0.018686 0.030940 0.015571 -0.070958 0.132885 0.023137 0.054817 0.112979 -0.181092 -0.208376 -0.087805 0.058185 0.411838 0.040097 -0.014816 -0.019763 0.072464 -0.190897 -0.054228 0.118859 0.314836 -0.146065 -0.058117 0.067876 0.210509 -0.128107 -0.022281 -0.034597 0.122007 0.086558 -0.104122 0.050715 -0.002570 0.025349 -0.069349 0.091330 -0.114641 0.123209 -0.069380 -0.104892 0.132989 0.215470 -0.070735 0.136298 -0.254622 0.120464 0.110086 -0.294837 0.162148 -0.081323 -0.135265 -0.017961 0.050352 -0.037813 0.227349 0.031426 -0.133156
544413945750773 -0.122591 -0.176108 -0.027136 0.080188 -0.023350 0.244965 -0.269214 -0.078755 0.024413 0.274607 -0.033601 -0.034257 0.042662 -0.008613 0.076585 0.076090 0.019924 -0.002667 0.122685 0.289905 -0.208675 -0.172230 -0.214069 0.024115 0.054520 0.102024 -0.115024 -0.037820 -0.163245 -0.050166 -0.088864 -0.054305 -0.206713 0.097127 -0.271480 0.096775 0.118566 0.022949 -0.094689 -0.234081 -0.139797 -0.275497 0.129252 0.157427 0.065060 -0.031539 0.099257 -0.046863 0.200892 0.116468 -0.167338 0.034291 0.117079 -0.043995 -0.172918 -0.060229 0.258828 -0.055833 -0.214953 -0.261724 0.031471 -0.041235 -0.000541 0.204612 -0.111525 0.010725 0.123602 0.072728 0.105974 0.000268 0.046356 0.007337 0.038731 0.094287 -0.125667 0.180398 0.043021 0.032056 0.119108 -0.194320 -0.150550 -0.105540 0.064321 0.507655 0.126990 -0.009902 0.039045 0.081870 -0.185007 0.054314 0.101718 0.324328 -0.172263 -0.108789 0.053431 0.270004 -0.105329 -0.023438 -0.083716 0.115618 0.106423 -0.060208 0.083117 -0.030701 -0.000662 -0.030975 0.063205 -0.139314 0.026195 -0.075046 -0.083801 0.148769 0.171990 -0.068976 0.122348 -0.144177 0.104660 0.086518 -0.246091 0.172781 -0.097643 -0.127568 -0.059374 0.022509 0.015332 0.225654 0.067990 -0.125740
10153191752647714 -0.099589 -0.274710 0.195118 0.046192 -0.076601 0.314928 -0.119690 -0.067964 0.125953 0.233194 -0.292830 0.107753 0.309822 0.008968 0.040075 0.237957 0.171662 -0.340270 -0.259716 0.126115 -0.035791 0.067751 0.104300 0.168418 0.320769 0.169441 -0.242571 -0.183432 -0.070081 0.029160 -0.117214 -0.060964 -0.253809 -0.237706 -0.516884 -0.056352 0.138464 0.050030 0.055976 -0.013214 0.065554 -0.102358 0.052071 0.374361 0.034709 -0.130294 0.005086 -0.155083 -0.070337 0.137886 -0.164212 -0.081527 -0.044125 -0.107556 -0.039553 -0.010007 0.104441 0.049375 -0.330195 -0.514935 0.099504 -0.021470 -0.006710 0.361602 -0.181405 -0.162565 0.186932 0.058830 0.062972 -0.163200 -0.216468 -0.016575 0.080357 0.220973 -0.229017 0.202164 -0.167208 0.138101 0.006731 -0.154746 0.030601 -0.287167 0.196847 0.338613 0.215734 0.157947 0.050758 0.129133 -0.124432 0.323552 0.158479 0.280148 -0.377257 0.002937 0.144031 0.114330 -0.163678 0.011317 -0.174428 0.050236 0.076750 0.005450 0.221486 0.046724 0.306510 0.047179 0.176528 -0.141518 -0.125781 -0.097923 -0.413439 0.237632 0.100454 0.056236 0.167701 -0.233147 -0.018502 0.120619 -0.276012 0.166880 -0.368916 0.007332 0.123633 0.067206 0.076054 0.069001 -0.047415 -0.336031
1157088741047200 -0.099214 -0.178915 -0.047813 0.035148 -0.097789 0.294600 -0.280189 -0.184782 -0.040664 0.196577 -0.021505 -0.165347 0.006592 -0.026662 0.032429 -0.015442 0.061627 -0.000895 0.156481 0.309202 -0.205675 -0.190312 -0.250017 -0.021350 0.019370 0.055852 -0.013551 -0.056737 -0.143778 0.035027 -0.087135 -0.102393 -0.217477 -0.033175 -0.252865 0.045780 0.012889 0.055724 -0.126927 -0.313565 -0.047774 -0.228925 0.072934 0.097594 0.022654 -0.039220 0.169454 -0.131118 0.245554 0.099723 -0.049410 0.030244 0.066282 -0.100407 -0.146807 -0.050938 0.225274 -0.015133 -0.163590 -0.209683 0.002596 -0.000686 0.065904 0.204281 -0.196900 0.001615 0.151102 0.107128 0.122955 -0.036086 0.050697 -0.006673 0.020507 0.140953 -0.050325 0.152934 -0.042176 0.082687 0.122786 -0.224917 -0.174275 -0.255357 0.126992 0.523482 0.092505 -0.026570 -0.108836 0.058157 -0.175083 0.012088 0.156913 0.373973 -0.213627 -0.074560 0.113831 0.228770 -0.107086 0.034404 -0.019600 0.115970 0.109090 -0.161543 0.078565 -0.076089 -0.050576 0.003055 0.148625 -0.068605 0.041306 -0.116176 -0.220816 0.063335 0.184218 -0.046814 0.116100 -0.137191 0.104513 0.169943 -0.296525 0.105950 -0.069074 -0.098979 -0.013700 -0.007954 -0.002919 0.165258 0.097434 -0.052754
338233632988842 0.021329 -0.129662 -0.001128 0.107611 -0.204054 0.139432 -0.192989 -0.178643 0.232931 0.545557 0.010114 -0.240618 -0.285422 0.010163 -0.223836 -0.007514 -0.126485 -0.380898 0.465082 0.667665 -0.282930 -0.395310 -0.228367 0.005536 -0.186384 0.067490 -0.033213 0.060901 0.072726 0.099991 0.083460 0.138420 -0.142991 0.087112 -0.225489 0.056192 0.030733 0.026694 -0.205869 -0.302456 -0.044064 -0.288807 0.161055 0.029783 0.138029 -0.042916 -0.074290 -0.251341 -0.031275 -0.155649 -0.082309 0.128450 -0.013473 -0.078864 -0.245853 -0.087329 0.227983 -0.183561 -0.298379 -0.133919 -0.073224 0.260600 0.150440 0.318929 -0.021411 -0.055420 0.078854 0.126787 0.361477 -0.142361 -0.020250 0.259860 0.018416 -0.014432 -0.088443 -0.090101 -0.268527 -0.327054 -0.147221 -0.455882 -0.135508 -0.155682 0.086712 0.092917 0.062245 0.253267 -0.388274 0.152357 -0.147804 -0.205498 0.221442 0.445462 -0.071925 -0.246831 -0.035942 0.199136 -0.218100 0.026686 -0.249918 -0.014783 0.100378 0.074041 0.093122 -0.004593 0.062041 0.055106 0.033284 -0.017815 -0.147525 -0.009268 0.023338 0.121124 0.013407 -0.110152 -0.139573 -0.353223 0.015908 0.142649 -0.218795 -0.031895 -0.164262 0.211850 0.052403 -0.095347 -0.111706 0.255741 -0.011779 -0.131832
10210353946674010 -0.129990 -0.185695 -0.027000 0.050714 -0.110239 0.218918 -0.210857 -0.082275 0.004310 0.322754 -0.071961 -0.065699 -0.039660 0.040284 0.062574 0.008592 0.029438 -0.020974 0.150950 0.337320 -0.210702 -0.227906 -0.218670 0.055911 0.007771 0.063678 -0.125505 -0.106326 -0.161396 -0.051885 -0.132717 -0.103571 -0.180224 -0.000064 -0.267119 0.020495 0.057337 0.041248 -0.105029 -0.296775 -0.120565 -0.202789 0.142683 0.126112 0.082664 -0.058454 0.124588 0.053018 0.184049 0.023442 -0.070300 0.056117 0.055485 -0.065568 -0.176990 -0.095404 0.236794 0.020489 -0.221492 -0.232658 0.028859 0.032744 -0.071281 0.153013 -0.083943 -0.006853 0.129214 0.107912 0.207769 -0.007822 0.064864 0.040436 0.042260 -0.004805 -0.033976 0.137032 0.059244 0.020292 0.011211 -0.198633 -0.228418 -0.066013 0.053511 0.315214 0.088987 -0.029658 0.032381 0.129971 -0.125694 -0.064119 0.116167 0.278853 -0.178687 -0.124434 0.026038 0.232909 -0.121021 -0.065264 0.006381 0.100430 0.114430 -0.058203 0.072033 0.007280 0.025060 -0.046561 0.106132 -0.097510 0.097536 -0.051317 -0.134831 0.165501 0.184842 -0.088951 0.075560 -0.145171 0.100613 0.052812 -0.296573 0.135807 -0.113131 -0.074372 -0.001820 0.051284 -0.001407 0.249679 0.029535 -0.134949
1799579056984729 -0.138787 -0.188677 -0.038139 0.031397 -0.035854 0.253663 -0.224383 -0.111067 0.045756 0.266603 -0.038651 -0.128941 -0.019861 0.012212 0.058179 0.048133 -0.011820 -0.013757 0.149502 0.356487 -0.246695 -0.228707 -0.269417 0.031698 0.046783 0.089036 -0.101915 -0.073823 -0.120252 -0.045942 -0.129872 -0.089926 -0.124747 0.009296 -0.233885 0.060232 0.005626 0.042003 -0.067889 -0.267022 -0.125040 -0.230019 0.106304 0.072428 0.062600 -0.064638 0.101345 0.021854 0.195560 0.038797 -0.076102 0.038779 0.016509 -0.040575 -0.174826 -0.060998 0.253728 -0.030241 -0.249255 -0.203029 0.013707 -0.017038 -0.050183 0.161016 -0.121147 0.002583 0.128705 0.095850 0.165659 0.012923 0.099367 0.042872 0.060315 0.031742 -0.070186 0.139205 0.009979 -0.008252 0.065384 -0.154830 -0.245678 -0.039022 0.026699 0.422457 0.108645 -0.019002 0.025708 0.060887 -0.147989 -0.032231 0.093097 0.261749 -0.149113 -0.129124 0.012549 0.201589 -0.142265 -0.028581 -0.079501 0.117503 0.117738 -0.040261 0.057186 0.033594 0.002052 -0.023840 0.100336 -0.115350 0.093374 -0.025428 -0.132489 0.129933 0.200818 -0.105782 0.151479 -0.237916 0.129957 0.096499 -0.326695 0.147862 -0.109518 -0.050232 0.018160 0.057825 -0.015065 0.244283 0.078029 -0.160358
151600248227631 -0.059688 -0.339542 0.096330 0.280165 0.025993 0.428156 -0.092722 -0.053671 0.040500 0.208278 0.071201 0.160490 -0.168166 0.053853 0.191622 0.314871 -0.184362 -0.012374 -0.004103 0.102360 -0.223108 0.072165 -0.346098 -0.336601 0.148000 -0.112121 -0.179977 -0.093550 -0.022608 -0.378656 0.028316 -0.001786 -0.280247 0.383178 -0.287809 0.194581 0.279649 -0.267480 -0.204115 0.014881 -0.242692 -0.601044 0.011004 0.116200 0.296822 -0.087493 0.109737 -0.104128 0.443425 0.014565 -0.440558 -0.045221 0.153889 -0.078589 -0.322164 -0.040742 -0.088059 -0.219775 -0.157657 -0.066233 -0.117803 -0.171094 0.016991 0.254277 0.125398 0.129266 0.018367 0.089557 -0.023710 0.188330 0.129137 0.378732 0.029942 0.190982 -0.264955 -0.165870 0.083257 0.003980 0.483325 -0.142111 -0.083208 -0.203859 0.092245 0.623580 0.378761 0.227387 0.292022 -0.055250 -0.707580 0.122172 -0.083144 0.201303 -0.135083 -0.439655 -0.186112 0.444318 -0.182684 0.134325 -0.141521 0.080363 0.191880 -0.166225 0.262772 -0.203506 -0.057596 -0.141629 -0.042225 -0.149986 0.095177 -0.040516 -0.137167 0.190654 -0.024154 -0.196291 0.215020 -0.186138 -0.061293 0.007105 0.073249 0.389641 -0.166344 -0.106727 -0.139933 0.013352 -0.052671 0.253596 0.313778 -0.169115
1102500169830478 -0.091097 -0.251666 -0.001014 0.074351 -0.059111 0.296943 -0.248914 -0.178485 0.013908 0.231667 -0.033427 -0.131164 -0.073040 0.029227 0.064425 0.034781 -0.003161 -0.066405 0.097861 0.341484 -0.247431 -0.164104 -0.315772 -0.040798 0.053960 0.027438 -0.057828 -0.098483 -0.136348 -0.026589 -0.130269 -0.126783 -0.188369 -0.017945 -0.296224 -0.017954 0.024412 0.025568 -0.108710 -0.247957 -0.098830 -0.258693 0.074997 0.098629 0.073005 -0.105939 0.188959 -0.070835 0.236975 0.060495 -0.092366 -0.014862 0.034509 -0.056731 -0.197594 -0.057965 0.173512 -0.013707 -0.179786 -0.175519 -0.029641 0.029638 0.026411 0.206876 -0.149566 -0.059655 0.118078 0.141379 0.128791 -0.030478 0.056303 0.092356 0.070806 0.091403 -0.090472 0.068400 -0.039622 0.062520 0.156181 -0.223195 -0.195390 -0.172785 0.112703 0.485283 0.148775 0.038417 -0.042660 0.093700 -0.226964 -0.027085 0.120613 0.289661 -0.154835 -0.187845 0.062274 0.217103 -0.166209 0.048580 -0.030241 0.091064 0.138079 -0.113484 0.047890 -0.052881 -0.036426 -0.061210 0.133821 -0.123262 0.090583 -0.084844 -0.213501 0.151044 0.213090 -0.085210 0.117607 -0.176805 0.085721 0.153317 -0.305683 0.176711 -0.070092 -0.053946 -0.022895 0.018579 -0.004577 0.191116 0.098219 -0.083836
176063032413299 0.024890 -0.090104 0.013896 0.107855 -0.147697 0.131827 -0.164929 -0.136511 0.273813 0.535169 -0.012835 -0.215938 -0.205998 0.000773 -0.189124 0.043707 -0.114834 -0.421922 0.347292 0.607177 -0.205320 -0.349315 -0.173521 0.098359 -0.050796 0.131451 -0.003184 0.057843 0.159943 0.082482 0.057062 0.151861 -0.147137 -0.029690 -0.286177 0.038399 0.075295 0.075526 -0.159796 -0.269797 -0.014884 -0.290956 0.156587 0.091360 0.171021 -0.062612 -0.104682 -0.252625 -0.114385 -0.096752 -0.058312 0.056281 -0.081665 -0.093186 -0.284177 -0.077771 0.225386 -0.197529 -0.331584 -0.262262 -0.055417 0.222452 0.100134 0.362553 -0.067104 -0.096462 0.058371 0.086651 0.359279 -0.176327 -0.092306 0.202148 0.078672 0.056306 -0.119767 0.001100 -0.294008 -0.294566 -0.161872 -0.420828 -0.126308 -0.183009 0.132870 0.104894 0.072115 0.336050 -0.326940 0.203537 -0.116131 -0.098600 0.305609 0.443041 -0.132737 -0.238106 0.052619 0.152516 -0.314503 0.050101 -0.257263 -0.009610 0.080938 0.095982 0.118056 0.030688 0.109679 0.084836 -0.016820 -0.066050 -0.173835 -0.046391 -0.034898 0.153577 0.072478 -0.065535 -0.140062 -0.339251 -0.021663 0.188353 -0.261815 -0.011816 -0.170191 0.170991 0.007675 -0.160653 -0.063784 0.158280 -0.067144 -0.151958
10153723122652714 -0.065104 -0.332872 0.078943 0.080244 -0.002497 0.267811 -0.222539 -0.183614 -0.000181 0.259723 -0.062131 -0.066552 -0.066012 0.041854 0.103409 0.017675 -0.017116 -0.096345 0.035013 0.276165 -0.274138 -0.015277 -0.286373 -0.188978 -0.006605 -0.088819 -0.148323 -0.149080 -0.228973 -0.039211 -0.138908 -0.151190 -0.214754 0.057934 -0.381569 -0.052249 -0.010153 0.009825 -0.105466 -0.147419 -0.129175 -0.295103 0.110562 0.102577 0.019253 -0.088522 0.206539 -0.091348 0.301752 0.074882 -0.157723 0.008511 0.156288 0.010325 -0.140224 -0.046925 0.100899 0.025513 -0.172531 -0.210105 0.030140 0.023106 0.027007 0.252790 -0.110449 -0.069407 0.119748 0.133647 -0.079518 0.017277 0.062046 0.043103 -0.006731 0.087388 -0.101949 -0.012455 0.034890 0.143454 0.268790 -0.199597 -0.173432 -0.147257 0.070631 0.530475 0.196348 -0.063066 -0.023719 -0.020133 -0.290492 -0.031174 -0.013699 0.231358 -0.142487 -0.164216 0.022976 0.242479 -0.048449 -0.004378 0.015513 0.005393 0.124799 -0.125080 0.001360 -0.085191 -0.064882 -0.120367 0.197690 -0.176243 0.117332 -0.058956 -0.256890 0.161234 0.146106 -0.048129 0.179517 -0.105396 0.074520 0.078361 -0.248245 0.205669 -0.131622 0.000234 0.045189 0.137976 -0.067249 0.177092 0.141335 -0.046775
10210339500552866 -0.061580 -0.113207 -0.118608 -0.018576 0.143119 0.392916 -0.311504 -0.174380 0.172023 0.266622 0.099176 -0.323832 -0.042707 -0.015573 0.152091 0.090472 -0.142204 0.089313 0.245779 0.433540 -0.316392 -0.378699 -0.454483 -0.048887 0.220734 0.197358 -0.117168 0.056007 -0.064979 -0.092572 -0.250760 -0.133318 0.090395 0.032792 -0.149770 0.019226 -0.068749 0.164866 0.045232 -0.211695 -0.140035 -0.275183 -0.028573 -0.136549 0.052925 -0.056656 0.145955 -0.012371 0.264943 0.199084 0.112616 -0.113262 0.057943 0.027919 -0.289010 0.126810 0.260600 -0.162272 -0.240845 -0.147990 0.058436 -0.139359 -0.081802 0.141248 -0.221259 -0.000564 0.043284 0.019513 0.103156 -0.038356 0.058177 -0.036145 0.102368 0.222046 -0.133626 0.285010 -0.114646 -0.091918 0.291176 -0.154341 -0.394592 -0.152642 0.076345 0.689283 0.206860 -0.020536 -0.001634 -0.006975 -0.253161 0.048826 0.079124 0.250366 -0.020853 -0.085777 0.007281 0.117475 -0.304803 0.114805 -0.028351 0.006851 -0.122876 -0.097738 -0.021550 -0.037523 -0.358863 0.239350 0.030028 -0.195173 0.053822 -0.052232 -0.082696 0.088565 0.436153 -0.079413 0.121929 -0.439979 0.116824 0.270962 -0.425226 0.136682 -0.050101 -0.105260 -0.053547 -0.077653 -0.007091 0.189153 0.188459 -0.066997
285876258126140 -0.082486 -0.415606 0.113965 -0.329737 -0.442804 0.646063 0.783176 -0.400238 -0.085629 0.769975 -0.562239 0.267353 0.295023 0.197299 -0.174038 0.040312 -0.048445 -0.285414 0.281932 -0.038057 0.514505 -0.808100 0.003717 0.154907 0.260132 0.196274 -1.125267 -0.600104 -0.122895 -0.563898 -0.131826 0.060398 -0.073448 -0.135359 -0.191040 -0.013019 0.215247 0.020228 0.000482 -1.077615 -0.053784 -0.544247 -0.305606 -0.362687 -0.136724 0.227876 -0.279321 -0.296960 -0.113737 0.106214 0.137195 0.264151 0.032666 -0.134469 -0.160858 0.325196 -0.252008 -0.163614 -0.178094 -0.126241 0.055796 0.257495 -0.080154 0.261419 0.348663 0.721622 0.171300 -0.051231 0.859379 -0.085645 -0.627877 0.313773 -0.188900 0.065032 -0.376773 0.662656 -0.533402 -0.362533 0.257595 -0.153058 -0.569057 -0.755498 -0.305337 -0.110035 0.083187 -0.569530 0.031301 -0.199633 -0.757016 0.258373 -0.116884 0.247063 -0.166648 0.007952 -0.337909 0.281659 -0.331314 0.635276 -0.157347 -0.352038 -0.584805 -0.135797 0.637422 -0.431299 -0.081542 0.196139 -0.218036 0.132628 0.183032 0.415913 0.006931 -0.196669 -0.225324 0.159378 -0.140488 -0.883251 -0.223791 -0.075629 0.220187 -0.162640 -0.361895 0.063342 0.461960 0.132924 -0.336804 0.212424 -0.107656 -0.158263
145055062555 -0.074918 -0.420810 0.116517 -0.319112 -0.442415 0.651423 0.768488 -0.397795 -0.068525 0.774857 -0.568017 0.261744 0.289343 0.191021 -0.170794 0.033572 -0.063264 -0.285324 0.277205 -0.024557 0.501709 -0.800519 -0.005935 0.147771 0.276053 0.185417 -1.118125 -0.595037 -0.130257 -0.562275 -0.129596 0.065835 -0.080834 -0.133377 -0.199467 -0.015330 0.211966 0.024150 0.003842 -1.067764 -0.053773 -0.542732 -0.275201 -0.348942 -0.131312 0.225671 -0.271988 -0.288902 -0.105663 0.112498 0.125952 0.257721 0.032477 -0.123836 -0.164965 0.316353 -0.240648 -0.170296 -0.182419 -0.140316 0.063287 0.262106 -0.086008 0.276426 0.333273 0.702873 0.159292 -0.049024 0.853310 -0.078014 -0.601040 0.311476 -0.193183 0.072426 -0.379839 0.657155 -0.528954 -0.356851 0.265421 -0.173076 -0.587530 -0.751669 -0.287925 -0.073663 0.097160 -0.562314 0.019910 -0.197160 -0.753363 0.252711 -0.098587 0.269736 -0.178753 -0.006643 -0.328834 0.298521 -0.347382 0.621315 -0.153110 -0.346944 -0.571770 -0.130915 0.634359 -0.425623 -0.076303 0.193015 -0.203309 0.126272 0.186760 0.407361 -0.021961 -0.175430 -0.205080 0.150268 -0.130973 -0.888464 -0.210474 -0.058780 0.181857 -0.146079 -0.373648 0.058419 0.458246 0.135741 -0.336272 0.228354 -0.110633 -0.168753
10376464573 -0.079660 -0.429009 0.135200 -0.323645 -0.450009 0.655975 0.773450 -0.408595 -0.065323 0.783536 -0.564364 0.256263 0.296878 0.192944 -0.172352 0.035609 -0.069055 -0.298268 0.281313 -0.023935 0.492597 -0.804768 -0.005870 0.152830 0.280900 0.179576 -1.120720 -0.598620 -0.136264 -0.562028 -0.128115 0.077296 -0.082916 -0.133406 -0.198277 -0.018528 0.200772 0.025152 0.008033 -1.072913 -0.053725 -0.538543 -0.277312 -0.357768 -0.128293 0.229778 -0.280283 -0.287392 -0.109828 0.106355 0.128036 0.256917 0.032538 -0.123849 -0.158389 0.321179 -0.250271 -0.167432 -0.185153 -0.137343 0.050785 0.266894 -0.073592 0.284708 0.322112 0.695432 0.164714 -0.044474 0.863632 -0.073852 -0.607407 0.317552 -0.190896 0.065196 -0.384514 0.665020 -0.541706 -0.358071 0.271123 -0.166980 -0.594239 -0.759807 -0.289714 -0.073455 0.085290 -0.567203 0.014692 -0.213932 -0.763682 0.245371 -0.096924 0.269167 -0.186339 0.002898 -0.326460 0.296114 -0.353409 0.623590 -0.161118 -0.344442 -0.564883 -0.124527 0.641699 -0.417769 -0.080901 0.188546 -0.196174 0.127996 0.177804 0.421167 -0.019700 -0.185952 -0.209958 0.144902 -0.128220 -0.908916 -0.219369 -0.063039 0.195581 -0.149739 -0.381111 0.067749 0.467079 0.147014 -0.350951 0.227660 -0.112943 -0.172353
290539813359 -0.092854 -0.432487 0.109226 -0.320054 -0.449179 0.670666 0.755638 -0.408888 -0.083080 0.777414 -0.570703 0.256973 0.295033 0.190327 -0.160749 0.036533 -0.049013 -0.280429 0.279026 -0.012254 0.481997 -0.806586 -0.011014 0.148978 0.264365 0.200518 -1.115099 -0.598523 -0.141761 -0.558470 -0.131003 0.044754 -0.101953 -0.130593 -0.218294 -0.011798 0.225043 0.023408 -0.014872 -1.089654 -0.062291 -0.561497 -0.283009 -0.348225 -0.138652 0.224457 -0.265639 -0.290736 -0.092027 0.116698 0.123296 0.254074 0.031457 -0.131143 -0.167505 0.317400 -0.234276 -0.157138 -0.186045 -0.133688 0.049466 0.258377 -0.081130 0.258390 0.327937 0.705204 0.169982 -0.054430 0.850227 -0.071687 -0.606775 0.306464 -0.181098 0.068376 -0.370467 0.656774 -0.525181 -0.354384 0.269545 -0.152861 -0.567975 -0.741497 -0.295682 -0.079473 0.088889 -0.559180 0.035672 -0.194143 -0.748269 0.248860 -0.112422 0.257126 -0.167484 -0.012855 -0.327166 0.290865 -0.331625 0.632709 -0.157892 -0.347121 -0.565983 -0.149267 0.621797 -0.428956 -0.075897 0.183809 -0.215256 0.122886 0.178884 0.408621 0.001406 -0.186987 -0.212810 0.147052 -0.136431 -0.866743 -0.200885 -0.066096 0.215523 -0.137793 -0.347067 0.057494 0.454051 0.130875 -0.329406 0.217953 -0.102594 -0.147612
5027904559 -0.085912 -0.422558 0.122223 -0.312755 -0.456820 0.670671 0.784829 -0.396735 -0.082524 0.762837 -0.586345 0.268605 0.298315 0.194884 -0.173119 0.038753 -0.055306 -0.281215 0.279586 -0.037238 0.500318 -0.805683 0.004741 0.151954 0.272748 0.200522 -1.118371 -0.602759 -0.128651 -0.555589 -0.114414 0.060592 -0.097705 -0.135128 -0.200451 -0.004538 0.246217 0.015691 -0.007825 -1.089527 -0.059083 -0.547111 -0.275363 -0.355040 -0.145280 0.230801 -0.287737 -0.290427 -0.116452 0.110732 0.117355 0.243250 0.022027 -0.133747 -0.148190 0.320413 -0.253536 -0.168308 -0.178843 -0.109874 0.034849 0.259132 -0.066106 0.231761 0.327097 0.696767 0.148496 -0.064880 0.855237 -0.061541 -0.609561 0.316277 -0.176298 0.058099 -0.358992 0.646366 -0.532178 -0.368441 0.264885 -0.138420 -0.562436 -0.739629 -0.291976 -0.107893 0.081187 -0.554093 0.029715 -0.209943 -0.726720 0.247666 -0.107685 0.245564 -0.154602 -0.006992 -0.334348 0.286721 -0.330188 0.641266 -0.169537 -0.355415 -0.565623 -0.140168 0.636486 -0.423988 -0.070659 0.174630 -0.222262 0.148184 0.166125 0.414422 0.010466 -0.200174 -0.226242 0.149877 -0.157463 -0.865543 -0.206366 -0.065220 0.246259 -0.144691 -0.325247 0.057145 0.457531 0.134017 -0.342397 0.202017 -0.108131 -0.148811
445894028792406 0.156828 0.055347 -0.093857 0.128014 -0.400562 0.171159 -0.095004 -0.239815 -0.372108 -0.148268 -0.043227 0.054175 0.013875 -0.028262 -0.071921 -0.226000 0.225832 -0.043494 0.259474 0.057624 0.128131 -0.106208 -0.223297 -0.103405 0.060500 0.025961 -0.086240 -0.002561 -0.100268 0.245407 0.000732 -0.001876 -0.392489 -0.167069 -0.149813 -0.184091 0.264264 0.151389 -0.245078 -0.484962 0.107454 -0.059145 0.156647 0.356924 0.102557 -0.036063 0.543588 -0.395609 0.296621 0.136506 -0.022410 0.017944 0.148858 -0.364413 -0.015246 -0.114999 0.101318 0.123842 -0.072008 -0.327186 -0.195026 0.166520 0.367526 0.187942 -0.294490 -0.060891 0.110495 0.138975 0.187142 -0.157288 -0.257476 -0.004483 -0.041272 0.322307 -0.051084 0.216563 -0.040346 0.206507 -0.205247 -0.653565 0.018638 -0.895551 0.283967 0.597207 0.224706 -0.106248 -0.287732 0.282974 -0.282178 0.151392 0.412595 0.684734 -0.551716 -0.108206 0.229511 0.514813 -0.090700 0.206734 0.210130 0.195294 0.176423 -0.271583 0.351596 -0.412832 -0.042313 0.068552 0.312589 0.040648 -0.202298 -0.309053 -0.591930 -0.089426 0.057039 0.106159 -0.011213 0.241272 -0.012761 0.200550 -0.426081 0.056563 -0.251924 -0.023042 -0.019094 -0.047602 0.032163 0.251187 0.092248 -0.108138
250506681634675 -0.130967 -0.137777 0.135972 0.038610 0.021203 0.468323 -0.443359 -0.029285 0.225684 0.517011 -0.359545 0.032711 -0.024877 0.240878 0.345638 -0.059271 -0.003113 -0.130129 0.555252 0.227467 -0.159072 -0.181945 -0.218286 0.233953 -0.143418 0.068820 -0.440437 -0.179064 -0.239448 0.064818 -0.097156 -0.275136 -0.102122 -0.169012 -0.293168 0.012401 0.189534 -0.073815 0.110276 -0.059191 -0.310256 -0.298921 0.082377 0.136307 -0.193033 -0.094022 -0.119203 -0.072294 -0.053336 0.141777 -0.298200 0.059023 0.312142 -0.155092 0.199808 -0.113927 0.294889 0.127743 -0.049804 -0.553442 0.318459 0.264319 -0.103961 0.047982 -0.118247 0.092256 0.045746 0.171769 -0.102329 0.218528 0.002891 -0.243290 -0.354102 0.006208 0.090455 0.254131 0.419189 0.107568 0.217912 -0.169788 -0.511090 -0.223066 -0.189317 0.290830 0.192024 -0.303174 -0.205152 0.117156 -0.053785 -0.170632 0.018867 0.421031 -0.277975 0.012693 -0.128344 0.438130 0.226023 -0.215894 0.046686 0.008978 0.270618 -0.123184 0.047863 -0.106708 0.271916 0.137056 0.385386 -0.189306 0.213653 -0.053560 -0.088355 0.601375 0.264908 0.255023 0.167593 0.022361 -0.085034 -0.160804 -0.309727 0.324752 0.026668 -0.292377 0.049485 -0.022909 0.013369 0.499843 0.112848 -0.315917
18468761129 -0.349661 -0.391907 0.312585 0.024538 -0.099479 0.340443 -0.199329 -0.078899 0.036090 0.135577 -0.113600 -0.070256 0.363580 -0.118278 -0.228158 0.182411 -0.084450 0.107191 0.070250 0.271675 -0.138151 -0.277817 0.105958 -0.254719 0.067688 0.261703 -0.453707 -0.108751 -0.294762 0.064253 -0.081930 -0.005118 -0.222407 0.519882 -0.445786 0.183947 -0.000576 -0.156251 0.058580 -0.233894 -0.358077 0.034149 0.182749 0.155061 -0.082441 0.065291 -0.090252 0.166153 0.143753 -0.249241 -0.203011 0.111964 0.455361 -0.085028 0.088629 -0.050032 0.294836 -0.067291 -0.421895 -0.255455 0.194833 -0.026994 0.139096 0.432743 0.047401 0.145891 0.606737 -0.073091 0.080956 -0.119892 -0.244754 -0.178429 -0.225750 0.193351 0.030648 0.379584 -0.005228 -0.081156 0.044409 -0.088904 -0.178672 -0.179920 0.068072 0.413447 0.321406 -0.183838 -0.034730 -0.152262 -0.085932 0.147782 -0.313160 0.305180 -0.228259 0.182506 -0.265616 0.341486 0.283425 -0.400467 -0.359810 -0.189565 0.044988 0.317372 0.238524 0.032682 -0.326128 0.147566 0.433942 0.082504 -0.220180 0.132893 -0.093948 0.002940 -0.147774 -0.319133 -0.015635 0.055360 0.067101 -0.052845 0.068634 0.022404 -0.396638 0.236158 0.107567 0.283408 0.116940 0.334869 0.297210 -0.122433
403233213027100 -0.077723 -0.077986 -0.163514 -0.197842 -0.138385 0.187430 -0.090491 -0.170368 0.119947 0.534586 -0.022075 -0.216903 0.006881 0.070913 0.099459 0.180609 0.165417 -0.018404 0.022418 0.429026 -0.313645 -0.266268 -0.312393 0.196397 0.104056 -0.110191 -0.015998 -0.251369 -0.156105 -0.230780 -0.420819 -0.211963 0.142540 -0.406044 -0.093204 0.083578 -0.341789 0.264407 0.005629 -0.270314 0.265678 -0.166260 -0.216142 -0.323818 0.084557 -0.088001 0.033608 0.206980 0.157436 0.219615 0.354830 0.162873 -0.305626 0.031191 -0.278924 0.068524 0.267411 -0.033742 -0.293205 0.082553 0.089784 -0.106693 -0.473532 0.180932 -0.113312 0.019989 0.108364 0.238858 0.548663 0.009915 0.380168 0.239841 0.165154 -0.083223 -0.110851 0.207209 -0.260974 0.030492 0.076713 -0.127317 -0.503614 -0.032390 0.109161 0.244487 -0.190419 -0.117288 0.042080 0.143712 -0.349661 -0.263270 0.240412 0.336800 -0.294374 0.050037 0.063562 0.047295 -0.522848 0.187046 0.098396 0.353856 -0.175245 -0.252900 0.078198 0.071880 0.119492 0.048194 0.131319 -0.100641 0.474507 -0.132324 -0.183708 -0.012417 0.541753 -0.013944 0.348032 -0.979070 0.243281 0.305643 -0.541419 0.032981 -0.118841 -0.078445 0.179750 0.050626 -0.277696 0.228327 -0.180996 -0.318380
145097112198751 -0.029787 -0.519966 0.189730 -0.043519 0.133110 0.143948 0.011658 -0.303776 -0.192891 0.522426 -0.209299 0.046649 0.031514 -0.048386 -0.009712 -0.065721 0.115935 -0.363618 -0.312663 0.175045 -0.097416 0.190122 -0.017968 -0.293192 -0.127570 -0.232574 -0.203477 -0.425444 -0.412241 -0.175410 -0.165540 -0.243492 -0.253896 0.041165 -0.548720 -0.248508 -0.214743 0.195090 -0.188142 -0.056807 0.092076 -0.342696 0.041358 0.120186 -0.207341 -0.128761 0.169034 -0.344857 0.331478 0.175558 -0.197719 0.198333 0.304999 0.150044 -0.323160 0.058328 -0.054167 0.078019 -0.139210 -0.373361 0.212112 0.045631 -0.026930 0.441134 0.094259 0.098126 0.294767 0.180820 -0.241237 -0.174427 -0.108572 0.093116 -0.011247 0.118023 -0.370514 -0.039939 -0.202723 0.218481 0.373798 -0.361423 -0.155742 -0.081889 0.062092 0.374832 0.239761 -0.235749 -0.110263 -0.084775 -0.416073 0.096098 -0.153845 0.027194 -0.060554 -0.212333 0.243834 0.032353 -0.196846 0.092293 0.102885 -0.271474 -0.177690 -0.211236 -0.172713 -0.166568 0.031105 -0.265546 -0.056816 -0.313195 0.203655 0.087364 -0.354574 0.189061 -0.013490 0.073613 0.183729 -0.275503 0.091954 0.042140 -0.109000 0.009900 -0.329754 0.036604 0.244706 0.261209 -0.275265 -0.026740 -0.125055 0.249800
112585963017 0.067581 -0.060802 0.158468 0.071715 -0.161297 -0.021613 -0.063158 -0.112893 0.259497 0.487788 0.036991 -0.125683 -0.160686 0.019803 -0.225157 0.032863 -0.166980 -0.369718 0.196520 0.528135 -0.204726 -0.327605 -0.025435 0.042810 -0.027029 0.024463 -0.089015 0.049885 0.036326 0.010494 0.024062 0.188233 -0.143311 0.070555 -0.363405 -0.086908 0.062413 0.015549 -0.133829 -0.228173 -0.003848 -0.224015 0.103247 0.104360 0.091186 -0.009068 -0.060500 -0.027529 0.011999 -0.118921 -0.035168 -0.044390 0.077991 -0.100278 -0.283254 -0.083621 0.175592 -0.123071 -0.282619 -0.179522 -0.034264 0.263952 0.067224 0.431435 -0.003691 -0.187348 0.128286 0.079509 0.369145 -0.155139 -0.106396 0.207755 0.121998 0.046868 -0.126202 -0.044251 -0.282680 -0.228352 -0.042867 -0.415053 -0.140317 -0.171045 0.115323 0.065340 0.065009 0.238552 -0.279798 0.181243 -0.210422 -0.144536 0.191445 0.281204 0.015972 -0.117515 0.081356 0.158848 -0.335847 -0.014349 -0.220729 -0.129766 -0.060408 0.052267 0.063230 -0.053654 0.019958 -0.011799 -0.001765 -0.014262 -0.119223 -0.039484 0.055206 0.117599 0.118979 -0.117648 -0.130872 -0.416089 -0.072652 0.207006 -0.100728 0.044036 -0.191742 0.101170 -0.024968 -0.053026 -0.131969 0.177834 -0.114287 -0.084756
144743392291381 -0.350832 -0.355547 0.244771 0.022672 -0.172216 0.344223 -0.215975 -0.119631 -0.036310 0.115547 -0.075592 -0.120959 0.284028 -0.116874 -0.237015 0.090999 -0.080710 0.153291 0.168209 0.329599 -0.153413 -0.364608 0.026134 -0.231753 0.020043 0.260478 -0.427833 -0.087027 -0.304919 0.098687 -0.084492 -0.016938 -0.221275 0.499127 -0.395471 0.140741 0.002290 -0.128671 0.006487 -0.346188 -0.374761 0.047207 0.224612 0.162750 -0.063111 0.080110 -0.009138 0.177980 0.207551 -0.271935 -0.169766 0.126899 0.440713 -0.133360 0.055848 -0.075240 0.323247 -0.039173 -0.406258 -0.235909 0.130238 0.004987 0.155811 0.351664 0.018284 0.146348 0.603240 -0.047074 0.153886 -0.107002 -0.210888 -0.170994 -0.200525 0.153476 0.075484 0.370852 0.033864 -0.092529 -0.020514 -0.167139 -0.217871 -0.202003 0.048393 0.428888 0.317476 -0.211974 -0.051073 -0.106011 -0.063774 0.080663 -0.260253 0.340051 -0.232750 0.122365 -0.245826 0.383265 0.250454 -0.404740 -0.301796 -0.152306 0.082943 0.274988 0.233090 0.010705 -0.355615 0.149701 0.425044 0.108574 -0.203372 0.109903 -0.114857 -0.002971 -0.116276 -0.348043 -0.037320 0.087846 0.092724 -0.044731 -0.012900 0.027567 -0.386028 0.204269 0.093855 0.268790 0.123161 0.408748 0.306648 -0.114727
68793499001 -0.026727 -0.440913 0.160311 -0.069864 0.119564 0.120306 -0.029653 -0.383951 -0.181752 0.487789 -0.156659 -0.078924 -0.027583 -0.079762 -0.055684 -0.099944 0.101102 -0.388153 -0.269936 0.288153 -0.200523 0.134858 -0.078703 -0.278058 -0.173848 -0.252860 -0.084022 -0.359373 -0.367777 -0.130215 -0.127285 -0.221989 -0.238227 0.006376 -0.536382 -0.250314 -0.276606 0.215041 -0.224889 -0.155493 0.118133 -0.369641 0.000623 0.060850 -0.223977 -0.120238 0.167012 -0.354574 0.384673 0.176853 -0.136482 0.155839 0.264582 0.126710 -0.371361 0.034699 -0.007898 0.059835 -0.147314 -0.274334 0.155137 0.082764 0.029162 0.432953 0.048328 0.029964 0.310422 0.211770 -0.187067 -0.143530 -0.032366 0.146798 0.057485 0.131713 -0.380267 -0.096253 -0.286290 0.184619 0.412429 -0.393636 -0.164320 -0.065821 0.041731 0.435507 0.167589 -0.219293 -0.197239 -0.097107 -0.436091 0.008384 -0.103076 0.033235 -0.012623 -0.241841 0.316434 0.037275 -0.265433 0.118058 0.042480 -0.217456 -0.168472 -0.255446 -0.202568 -0.180245 0.008504 -0.250021 -0.072825 -0.255530 0.219710 0.079622 -0.293014 0.105184 0.034547 0.033016 0.216180 -0.367129 0.114041 0.140806 -0.085230 -0.012374 -0.246255 0.035754 0.222053 0.220386 -0.330122 -0.032559 -0.125488 0.288404
