70 128
100000078103169 -0.021266 -0.063007 0.290271 0.135124 -0.140653 0.021972 -0.022694 -0.046322 -0.102831 0.258695 0.198096 -0.272741 -0.176229 0.162025 0.168165 0.314785 -0.208674 -0.138196 0.128415 -0.232125 -0.047984 -0.020633 -0.095488 -0.067666 0.026520 0.185838 0.050423 -0.030618 -0.016721 0.005450 -0.059814 -0.053740 -0.034381 -0.208198 -0.016183 0.225490 -0.075590 0.217720 0.138263 0.138024 0.030557 0.122624 -0.250873 0.124650 0.090849 -0.057562 -0.077262 -0.018175 0.114113 0.283906 0.082320 0.221383 -0.121743 -0.292126 0.012077 -0.036122 0.238940 0.006925 -0.102106 -0.073306 0.165579 -0.069191 -0.046986 -0.006630 -0.054919 0.008402 -0.013113 -0.057870 0.018856 -0.026701 0.063486 0.030606 0.014277 -0.024701 0.014009 -0.090990 -0.087194 0.040687 0.048504 0.160501 0.039213 -0.195892 0.079490 -0.046263 -0.082763 -0.040219 0.173286 0.130658 -0.056454 0.147650 -0.078181 -0.002939 -0.149109 -0.091578 -0.108720 -0.015523 -0.019413 -0.092374 -0.002330 0.056258 0.120765 -0.042655 0.018720 -0.007471 0.034853 -0.020734 0.099782 0.080703 0.034936 -0.089287 -0.120426 -0.063212 -0.029435 -0.046164 0.050502 0.074975 0.221643 -0.003513 0.022229 0.078041 -0.044938 -0.111852 0.120377 0.036182 0.155751 0.030621 -0.214333 0.001932
1171680176177908 -0.071174 0.018353 0.222265 0.047052 -0.034212 0.028982 0.079794 -0.117185 -0.083252 0.132698 -0.017003 -0.234370 -0.110919 0.072810 0.052793 0.104897 -0.054685 -0.107337 0.077344 -0.118865 -0.027387 -0.056539 -0.002685 -0.054003 -0.039014 0.050461 0.083672 -0.077325 -0.000060 0.026958 0.022824 -0.029533 -0.044684 -0.111915 0.018480 0.186277 -0.013992 0.065000 0.054815 0.141706 -0.035312 0.087098 -0.151977 0.086946 0.010148 0.054639 -0.072243 0.010989 0.123158 0.191537 0.025084 0.119951 -0.080120 -0.304789 -0.026110 0.107013 0.058529 0.049487 0.045324 -0.051821 0.128729 -0.095780 -0.068621 0.040535 -0.132401 0.100162 -0.019740 -0.086853 -0.049132 -0.080213 0.048456 0.029589 -0.048169 0.188806 -0.058218 0.013707 -0.105954 0.048490 -0.018789 0.273285 -0.024571 -0.127230 0.072248 -0.002353 -0.187861 -0.092033 0.322780 0.203416 -0.072382 0.153179 -0.098592 -0.020347 -0.209337 -0.092358 -0.078978 0.118468 -0.008186 -0.033622 -0.098270 0.092476 0.061900 -0.132892 0.060557 0.016046 -0.106212 -0.075115 0.092438 0.041965 0.085734 -0.109700 -0.157593 0.069912 -0.086953 -0.118963 0.066413 0.179690 0.251052 0.046910 0.020845 0.106819 0.018356 -0.123484 0.180431 0.104547 0.268232 0.015831 -0.322031 0.065707
1069190426495780 -0.063303 0.009226 0.229659 0.060391 -0.051988 0.014594 0.067765 -0.129857 -0.098129 0.134059 -0.016684 -0.253727 -0.090070 0.072071 0.041941 0.094978 -0.043383 -0.091357 0.085549 -0.105527 -0.013382 -0.069137 0.007443 -0.059358 -0.038128 0.034463 0.074731 -0.099109 -0.006151 0.021409 0.040522 -0.040667 -0.039673 -0.130552 0.025230 0.208449 -0.010340 0.072736 0.061481 0.135317 -0.047508 0.084170 -0.151699 0.111404 0.034743 0.059799 -0.087024 0.010550 0.126350 0.212198 0.041266 0.152061 -0.101926 -0.339930 -0.034905 0.101015 0.063250 0.036163 0.032680 -0.049999 0.148215 -0.126510 -0.055706 0.039340 -0.130390 0.104269 -0.018744 -0.095313 -0.055200 -0.079093 0.058775 0.031868 -0.051837 0.181272 -0.068001 0.024864 -0.109932 0.045743 -0.006948 0.270777 -0.019966 -0.124021 0.080187 0.007900 -0.197734 -0.098265 0.325169 0.202602 -0.067562 0.143602 -0.087964 -0.021412 -0.235183 -0.098190 -0.080899 0.132335 -0.022189 -0.027982 -0.096122 0.077843 0.081995 -0.132281 0.059777 0.023215 -0.099942 -0.069435 0.089108 0.043024 0.088510 -0.124550 -0.163286 0.065450 -0.090340 -0.121322 0.054731 0.197271 0.274224 0.027085 0.025964 0.105360 0.022087 -0.103293 0.177381 0.107318 0.291596 0.020790 -0.347976 0.062668
996745183740305 -0.075012 0.013928 0.258914 0.070169 -0.072754 0.009049 0.080903 -0.159689 -0.109509 0.139197 -0.024051 -0.292879 -0.091198 0.066856 0.045356 0.100116 -0.052910 -0.090473 0.091479 -0.112658 -0.000193 -0.092939 0.001258 -0.067803 -0.033120 0.026325 0.060777 -0.108567 -0.004029 0.015475 0.058411 -0.041324 -0.035380 -0.146587 0.023830 0.230616 0.005379 0.079897 0.057892 0.136233 -0.062730 0.088414 -0.171830 0.125852 0.030493 0.071058 -0.103395 0.011130 0.145686 0.236453 0.041950 0.159904 -0.109744 -0.370935 -0.066529 0.106009 0.057612 0.031959 0.027950 -0.058692 0.175394 -0.141544 -0.046514 0.040874 -0.135124 0.109289 -0.010459 -0.106173 -0.060079 -0.090543 0.067221 0.042102 -0.047734 0.185577 -0.089524 0.029663 -0.124009 0.038708 0.001982 0.276652 -0.032764 -0.105675 0.101298 0.023910 -0.199171 -0.103777 0.326440 0.184196 -0.048340 0.139214 -0.061543 -0.012416 -0.255739 -0.106076 -0.091612 0.150483 -0.051454 -0.020652 -0.094358 0.072800 0.094844 -0.122422 0.064882 0.040136 -0.096702 -0.043869 0.094370 0.037081 0.103219 -0.111320 -0.169340 0.063268 -0.092953 -0.115248 0.018895 0.202765 0.275588 -0.006530 0.025608 0.106460 0.016558 -0.072351 0.182910 0.109740 0.317245 0.025388 -0.363435 0.050313
1228700007158891 -0.021889 -0.069429 0.279089 0.139226 -0.148283 0.013979 -0.027739 -0.031372 -0.113819 0.266239 0.206760 -0.258447 -0.162778 0.156567 0.170721 0.353471 -0.211133 -0.120467 0.129292 -0.217262 -0.040746 -0.032902 -0.122287 -0.042918 0.049913 0.210059 0.031264 -0.024143 0.008543 -0.005493 -0.054769 -0.051039 -0.017060 -0.192829 0.001026 0.252868 -0.084000 0.246480 0.119469 0.117108 0.007952 0.137094 -0.280496 0.111507 0.098462 -0.073906 -0.064093 -0.034411 0.109721 0.278947 0.109868 0.212179 -0.105714 -0.301508 0.008969 -0.054769 0.233198 0.002543 -0.116966 -0.086312 0.182420 -0.038721 -0.029499 -0.012906 -0.024870 -0.018809 0.011102 -0.087565 0.041024 -0.039840 0.059455 0.051345 0.008794 -0.072989 -0.008886 -0.082925 -0.075176 0.055754 0.075693 0.151823 0.051717 -0.229918 0.081449 -0.074390 -0.058790 -0.040682 0.155189 0.132443 -0.048386 0.144624 -0.091081 -0.000810 -0.135175 -0.107569 -0.095820 -0.028786 -0.016403 -0.094583 0.023913 0.033267 0.142485 -0.039706 -0.005755 -0.018582 0.042705 -0.018428 0.104936 0.074237 0.036661 -0.083729 -0.114127 -0.086674 0.003813 -0.014152 0.061788 0.051884 0.219282 -0.003220 0.021214 0.075084 -0.054817 -0.096685 0.138149 0.021927 0.168305 0.018732 -0.222152 0.010520
1066017246744202 -0.072913 0.020159 0.231338 0.076060 -0.077159 -0.005812 0.069160 -0.100185 -0.098170 0.149194 0.020829 -0.237931 -0.069158 0.053611 0.055653 0.135997 -0.060658 -0.059839 0.074569 -0.103513 -0.006013 -0.093232 -0.031714 -0.034291 0.006642 0.067264 0.026784 -0.080204 0.023619 -0.016569 0.044964 -0.016405 -0.006939 -0.113510 0.025666 0.230790 -0.002008 0.120485 0.031897 0.108453 -0.066680 0.097774 -0.211052 0.084222 0.024079 0.047251 -0.068063 -0.004322 0.133088 0.220818 0.078617 0.131100 -0.079900 -0.348089 -0.048543 0.058803 0.073414 0.026114 0.002181 -0.068503 0.183770 -0.078360 -0.036606 0.016230 -0.107030 0.056707 0.016024 -0.121346 -0.020222 -0.106855 0.055838 0.071223 -0.048118 0.106687 -0.096806 0.014028 -0.102811 0.057672 0.028477 0.270731 -0.015189 -0.155732 0.096186 -0.032296 -0.167433 -0.084933 0.308260 0.182948 -0.040749 0.151867 -0.084513 0.001911 -0.222511 -0.117863 -0.091626 0.132046 -0.042509 -0.041742 -0.062702 0.057487 0.106985 -0.120784 0.050044 0.013002 -0.085510 -0.037265 0.120473 0.043969 0.114868 -0.102879 -0.156106 0.027372 -0.058196 -0.078527 0.043528 0.133621 0.262101 0.022227 0.025953 0.104803 -0.014451 -0.081993 0.207916 0.090296 0.282687 0.011135 -0.334605 0.066732
1171811912831401 -0.069554 0.020579 0.219097 0.056311 -0.051928 0.012411 0.078926 -0.108401 -0.087945 0.129141 -0.010111 -0.228384 -0.083899 0.058419 0.049600 0.108350 -0.048330 -0.077703 0.076105 -0.110989 -0.011770 -0.080758 -0.005487 -0.049781 -0.023219 0.045758 0.057450 -0.082478 0.009806 0.003975 0.039810 -0.025424 -0.029458 -0.101336 0.026233 0.196944 -0.003967 0.076573 0.040941 0.117472 -0.054322 0.079566 -0.163030 0.089753 0.009721 0.061362 -0.072018 0.010035 0.121467 0.202896 0.041977 0.124255 -0.078842 -0.319267 -0.039405 0.089196 0.055915 0.034455 0.024589 -0.055898 0.154378 -0.094918 -0.050213 0.030742 -0.125018 0.079731 -0.004421 -0.098453 -0.035712 -0.097755 0.054915 0.046714 -0.051706 0.158435 -0.080487 0.016014 -0.098471 0.047001 0.002766 0.263880 -0.027288 -0.126962 0.077626 -0.017612 -0.172694 -0.088939 0.310458 0.188149 -0.047535 0.148723 -0.085334 -0.011451 -0.221276 -0.105030 -0.081989 0.132699 -0.027072 -0.027880 -0.078751 0.079472 0.076339 -0.126161 0.059552 0.016166 -0.099747 -0.055405 0.105856 0.041272 0.102231 -0.106601 -0.156591 0.052633 -0.076511 -0.102173 0.046964 0.164627 0.252513 0.024881 0.024301 0.100892 0.012094 -0.102527 0.186968 0.099577 0.281197 0.016760 -0.337343 0.062500
969246546421273 -0.065143 -0.002815 0.255076 0.061735 -0.072067 0.020559 0.069522 -0.156234 -0.103917 0.143375 -0.008544 -0.285327 -0.111815 0.086077 0.061915 0.092144 -0.064838 -0.108151 0.094549 -0.137647 -0.006813 -0.077060 0.008083 -0.082939 -0.047551 0.024919 0.078617 -0.099982 -0.018668 0.030660 0.033697 -0.048832 -0.048576 -0.154723 0.007022 0.204350 -0.010783 0.078228 0.082040 0.154469 -0.044125 0.092763 -0.155852 0.125137 0.040596 0.056246 -0.108687 0.018496 0.135436 0.235184 0.030107 0.163837 -0.119122 -0.334949 -0.047285 0.097024 0.077677 0.023945 0.025101 -0.048356 0.153431 -0.148638 -0.060800 0.046558 -0.138879 0.116604 -0.026590 -0.068881 -0.064251 -0.067643 0.061506 0.013237 -0.036115 0.195304 -0.054862 0.005489 -0.122426 0.032968 -0.011803 0.262610 -0.024092 -0.092515 0.091607 0.032627 -0.198200 -0.091782 0.307157 0.180594 -0.054596 0.137959 -0.062928 -0.023136 -0.249908 -0.089588 -0.090882 0.122170 -0.046302 -0.022927 -0.098128 0.090151 0.079941 -0.112136 0.071910 0.039276 -0.089209 -0.045041 0.085151 0.041537 0.084120 -0.104258 -0.163606 0.061758 -0.110119 -0.118827 0.023296 0.204276 0.257287 -0.002680 0.017045 0.095792 0.023663 -0.085343 0.158106 0.109970 0.286572 0.038330 -0.343416 0.045568
979468642065730 -0.057871 -0.014964 0.219644 0.056599 -0.051276 0.031647 0.058691 -0.115606 -0.089219 0.146731 -0.000803 -0.248471 -0.112391 0.091452 0.073416 0.105208 -0.068689 -0.109717 0.085193 -0.131838 -0.019718 -0.056337 -0.003531 -0.065645 -0.048015 0.047820 0.088834 -0.078568 -0.009491 0.036353 0.013184 -0.043467 -0.052125 -0.129649 0.006267 0.185946 -0.028781 0.078843 0.073830 0.142112 -0.030858 0.089442 -0.143365 0.099224 0.037507 0.032226 -0.085863 0.013834 0.122195 0.205865 0.026233 0.148617 -0.101911 -0.288219 -0.012360 0.086309 0.080521 0.029065 0.028085 -0.053745 0.130773 -0.117277 -0.072487 0.045952 -0.125360 0.096761 -0.027696 -0.070368 -0.053157 -0.057149 0.054249 0.011279 -0.038177 0.188328 -0.036221 -0.001113 -0.104366 0.042581 -0.010727 0.251207 -0.008011 -0.123818 0.076847 0.007564 -0.182496 -0.093838 0.298226 0.194218 -0.073832 0.147392 -0.095702 -0.025945 -0.216719 -0.097008 -0.080287 0.096949 -0.016099 -0.032477 -0.089879 0.092047 0.077728 -0.117572 0.052967 0.021405 -0.082674 -0.070013 0.077709 0.044485 0.061993 -0.116545 -0.153082 0.058360 -0.093999 -0.112888 0.061516 0.185688 0.255969 0.022852 0.016401 0.099355 0.022576 -0.112367 0.164493 0.098907 0.259947 0.029701 -0.324222 0.051142
1068652056549617 -0.056588 -0.006191 0.257611 0.090234 -0.094982 0.011979 0.040725 -0.098924 -0.107855 0.184957 0.060581 -0.261490 -0.118775 0.099347 0.092801 0.182943 -0.110437 -0.094215 0.095311 -0.153426 -0.023807 -0.075129 -0.038319 -0.059173 -0.006075 0.092428 0.049914 -0.070968 0.008528 0.004862 0.016900 -0.036390 -0.021421 -0.140080 0.002545 0.219679 -0.029296 0.125081 0.077603 0.125099 -0.036737 0.091808 -0.193613 0.103366 0.046149 0.018659 -0.073554 -0.004394 0.117434 0.224259 0.059974 0.155918 -0.098226 -0.306164 -0.029888 0.040181 0.110097 0.017711 -0.011867 -0.063379 0.158726 -0.090329 -0.042885 0.020240 -0.098434 0.054581 -0.002629 -0.087241 -0.013866 -0.074979 0.057372 0.048321 -0.030438 0.090828 -0.055358 -0.012235 -0.106193 0.042702 0.031129 0.233204 -0.003095 -0.145948 0.086658 -0.017441 -0.136705 -0.073328 0.256662 0.165057 -0.041113 0.142422 -0.081176 -0.006901 -0.201246 -0.102854 -0.091638 0.084643 -0.038950 -0.048677 -0.048273 0.059121 0.099603 -0.089066 0.046225 0.015735 -0.058978 -0.032792 0.102123 0.057245 0.077905 -0.100506 -0.147852 0.004957 -0.059981 -0.066788 0.038681 0.139078 0.242817 0.003560 0.021722 0.096937 -0.010822 -0.095636 0.172891 0.080560 0.251355 0.026941 -0.304530 0.045322
1066009133411680 -0.071463 0.014247 0.237765 0.065579 -0.072491 0.005213 0.079353 -0.141751 -0.101637 0.135513 -0.022453 -0.268720 -0.087460 0.067889 0.047266 0.101975 -0.047581 -0.080259 0.088354 -0.107378 -0.010160 -0.090897 -0.001553 -0.059792 -0.033216 0.029103 0.054997 -0.101188 0.000961 0.013206 0.053856 -0.041615 -0.027586 -0.133413 0.022998 0.214190 0.002671 0.084074 0.056659 0.130886 -0.065076 0.086357 -0.166494 0.111202 0.031629 0.070158 -0.089623 0.003786 0.140128 0.228521 0.048621 0.140497 -0.103018 -0.353021 -0.058155 0.095200 0.049003 0.024205 0.026526 -0.052946 0.169547 -0.131582 -0.040546 0.034926 -0.121988 0.097374 -0.000174 -0.102470 -0.048710 -0.091444 0.060461 0.040970 -0.040974 0.169987 -0.085785 0.028628 -0.105127 0.034409 -0.002170 0.259217 -0.033973 -0.088234 0.091891 0.013615 -0.179799 -0.092164 0.293707 0.164657 -0.037632 0.120669 -0.047078 -0.015890 -0.236160 -0.095812 -0.080962 0.136083 -0.053412 -0.014089 -0.087015 0.061046 0.082010 -0.107324 0.061677 0.037496 -0.095542 -0.036364 0.089030 0.025403 0.104530 -0.102797 -0.153829 0.062914 -0.081948 -0.099837 0.022929 0.182415 0.248856 -0.002500 0.025840 0.094708 0.016251 -0.065990 0.168999 0.100749 0.299881 0.028369 -0.342689 0.054087
964254590322698 -0.063747 0.010331 0.245333 0.080663 -0.080808 0.009950 0.055742 -0.110478 -0.098162 0.158337 0.038283 -0.254502 -0.102318 0.075495 0.070453 0.147553 -0.085275 -0.088979 0.089161 -0.138526 -0.017025 -0.078705 -0.027683 -0.052597 -0.005649 0.070920 0.053652 -0.080397 0.005843 0.000636 0.026614 -0.030642 -0.026979 -0.137512 0.013584 0.209387 -0.011398 0.114961 0.064963 0.123840 -0.038022 0.090964 -0.191025 0.101485 0.025555 0.035547 -0.075808 0.002738 0.121760 0.224448 0.055282 0.139792 -0.091592 -0.318812 -0.034858 0.063381 0.093807 0.026558 -0.003220 -0.065324 0.167275 -0.095135 -0.046551 0.017092 -0.110854 0.068091 0.000677 -0.096238 -0.024433 -0.083751 0.062418 0.051992 -0.035078 0.115833 -0.071035 -0.004276 -0.110088 0.046416 0.016459 0.253186 -0.014693 -0.139526 0.086013 -0.011781 -0.159508 -0.078346 0.285088 0.173777 -0.045228 0.146758 -0.078216 0.000328 -0.209348 -0.097625 -0.095382 0.105965 -0.041488 -0.042527 -0.060926 0.067472 0.092645 -0.103635 0.052415 0.014544 -0.068431 -0.035584 0.103284 0.048645 0.095576 -0.103721 -0.154915 0.028624 -0.067562 -0.085755 0.034504 0.147055 0.252586 0.007156 0.025964 0.096155 -0.004309 -0.087024 0.174393 0.085585 0.262095 0.025045 -0.309328 0.048464
1066002426745684 -0.061287 0.000935 0.252128 0.068579 -0.073929 0.021675 0.066098 -0.124685 -0.101319 0.163065 0.017763 -0.274957 -0.109256 0.084962 0.077124 0.150943 -0.081705 -0.103134 0.102303 -0.133510 -0.017343 -0.072445 -0.021456 -0.050210 -0.024095 0.075676 0.062093 -0.086369 -0.003832 0.025489 0.028885 -0.049405 -0.037036 -0.135252 0.022629 0.213669 -0.018649 0.114041 0.065659 0.134174 -0.049659 0.103693 -0.190384 0.109281 0.040931 0.040803 -0.073815 -0.001653 0.128607 0.228679 0.052617 0.152090 -0.103906 -0.331180 -0.032678 0.076675 0.081555 0.034339 0.005224 -0.054569 0.162885 -0.113665 -0.047315 0.032936 -0.117767 0.083306 -0.005874 -0.097105 -0.043833 -0.081700 0.061919 0.042132 -0.038094 0.141043 -0.066815 0.001240 -0.103526 0.051960 0.005804 0.260475 -0.010848 -0.142453 0.087828 -0.007034 -0.168792 -0.088444 0.288541 0.178293 -0.062284 0.144867 -0.080420 -0.017267 -0.226984 -0.106899 -0.080291 0.105615 -0.029191 -0.036262 -0.072940 0.071867 0.093068 -0.120394 0.049108 0.019328 -0.071843 -0.053917 0.098603 0.037211 0.092389 -0.103247 -0.157614 0.046246 -0.073368 -0.099618 0.048930 0.167355 0.265674 0.014859 0.021928 0.103716 0.009762 -0.095643 0.172590 0.084900 0.282095 0.021577 -0.330982 0.050755
975611912520299 -0.073073 0.021987 0.201902 0.043413 -0.048318 0.007593 0.076501 -0.118492 -0.082905 0.119419 -0.028599 -0.225721 -0.075167 0.051777 0.038273 0.098896 -0.041596 -0.078304 0.078914 -0.089377 -0.017782 -0.083791 -0.003354 -0.040107 -0.026068 0.037569 0.057595 -0.084208 0.013420 0.015131 0.043043 -0.023417 -0.030931 -0.096454 0.026951 0.199108 0.001963 0.069485 0.030808 0.117550 -0.062058 0.080877 -0.147853 0.080568 0.012919 0.064259 -0.068274 0.002384 0.112832 0.175263 0.036396 0.110933 -0.075825 -0.301942 -0.037579 0.089434 0.036769 0.029512 0.037169 -0.050431 0.141045 -0.102131 -0.044022 0.039545 -0.118417 0.083528 -0.002819 -0.103632 -0.039557 -0.088692 0.053152 0.048506 -0.055610 0.164825 -0.084619 0.029259 -0.099906 0.049353 -0.001829 0.257994 -0.021890 -0.111575 0.077029 -0.007187 -0.179884 -0.097261 0.299612 0.182800 -0.050376 0.135176 -0.084406 -0.018229 -0.214864 -0.103512 -0.070551 0.127810 -0.027069 -0.020234 -0.086533 0.069025 0.073764 -0.130332 0.058281 0.016866 -0.097035 -0.058337 0.096065 0.032696 0.096872 -0.108165 -0.147600 0.062150 -0.071900 -0.096948 0.045832 0.168220 0.247564 0.029724 0.026310 0.099958 0.017828 -0.094809 0.186293 0.092126 0.282707 0.019074 -0.328161 0.063281
964269446987879 -0.047092 -0.021650 0.255023 0.087282 -0.092743 0.016663 0.030098 -0.104198 -0.104492 0.183201 0.063457 -0.261893 -0.116218 0.106975 0.094514 0.175105 -0.108640 -0.105380 0.099035 -0.152101 -0.022938 -0.054965 -0.033745 -0.057397 -0.014849 0.089149 0.062996 -0.073518 -0.010728 0.017439 0.005277 -0.045234 -0.036003 -0.167873 0.010535 0.228996 -0.041530 0.141542 0.092589 0.139263 -0.026491 0.105047 -0.203111 0.116095 0.062132 0.007093 -0.092696 -0.001633 0.133692 0.256919 0.061060 0.180473 -0.116665 -0.332173 -0.019857 0.047810 0.140182 0.025076 -0.024965 -0.068007 0.166871 -0.104838 -0.057052 0.022637 -0.099054 0.063111 -0.010657 -0.082920 -0.024082 -0.056340 0.056984 0.028256 -0.022537 0.096865 -0.039170 -0.016548 -0.107568 0.048433 0.016600 0.226290 0.004715 -0.146052 0.087448 -0.013023 -0.153294 -0.079777 0.257004 0.167919 -0.058176 0.146743 -0.081021 -0.012412 -0.202928 -0.094801 -0.092011 0.074272 -0.028779 -0.048165 -0.053202 0.066546 0.104528 -0.083963 0.037774 0.014036 -0.038362 -0.042845 0.090912 0.054514 0.064406 -0.105040 -0.142008 0.013464 -0.066410 -0.084989 0.042609 0.144123 0.244507 0.000995 0.023854 0.098327 -0.007364 -0.092505 0.154088 0.079593 0.246656 0.025714 -0.302667 0.038671
964254203656070 -0.045198 -0.010479 0.238315 0.068092 -0.070245 0.029999 0.052633 -0.110604 -0.103601 0.169250 0.023946 -0.261241 -0.116252 0.099876 0.078457 0.151192 -0.082539 -0.108165 0.100405 -0.129815 -0.026505 -0.048122 -0.025172 -0.051756 -0.027670 0.078092 0.069308 -0.070328 -0.011518 0.029647 0.008771 -0.049294 -0.047973 -0.149916 0.019241 0.216986 -0.034414 0.112777 0.076399 0.130686 -0.031293 0.101600 -0.174704 0.104226 0.053778 0.022764 -0.074495 -0.003689 0.120182 0.213962 0.043445 0.154260 -0.101100 -0.310380 -0.021048 0.072510 0.094262 0.037352 0.004271 -0.049318 0.138702 -0.103263 -0.047942 0.035898 -0.103859 0.077700 -0.012031 -0.089259 -0.040892 -0.056453 0.054328 0.027604 -0.041240 0.130976 -0.042467 0.003264 -0.100813 0.054684 0.004763 0.231365 -0.000141 -0.145572 0.079979 -0.009041 -0.162166 -0.087636 0.278817 0.183340 -0.069908 0.144947 -0.091500 -0.020797 -0.201092 -0.099100 -0.069022 0.086475 -0.012119 -0.043501 -0.066790 0.067106 0.089615 -0.114212 0.040101 0.017540 -0.062225 -0.059751 0.082211 0.041059 0.070775 -0.106866 -0.140212 0.036198 -0.068122 -0.095449 0.054688 0.159450 0.247667 0.020090 0.025885 0.096348 0.003997 -0.095742 0.154000 0.074372 0.245736 0.014189 -0.304099 0.048227
1174317439247515 -0.068781 0.011356 0.247086 0.075395 -0.079124 0.006506 0.065422 -0.110309 -0.098029 0.155083 0.016404 -0.254368 -0.091014 0.069891 0.065021 0.148491 -0.071345 -0.082721 0.089661 -0.118126 -0.012594 -0.086277 -0.022204 -0.046762 -0.010302 0.070430 0.038650 -0.078806 0.016590 0.007658 0.041553 -0.031743 -0.013637 -0.114388 0.022140 0.218265 -0.006969 0.116660 0.042303 0.118107 -0.057366 0.096353 -0.194581 0.096355 0.033052 0.038974 -0.067819 -0.006633 0.117544 0.213852 0.063719 0.134788 -0.086664 -0.323888 -0.045278 0.057790 0.077770 0.029471 0.007753 -0.056313 0.164182 -0.091793 -0.033297 0.025401 -0.110812 0.068909 -0.000852 -0.110530 -0.021872 -0.096929 0.055850 0.056934 -0.040423 0.115652 -0.082715 0.007000 -0.100160 0.050906 0.017727 0.255100 -0.012765 -0.140738 0.086561 -0.018058 -0.153931 -0.087731 0.281087 0.173732 -0.041406 0.138636 -0.077588 -0.005257 -0.208923 -0.111024 -0.080100 0.112635 -0.039901 -0.037066 -0.063748 0.054955 0.097865 -0.106930 0.042275 0.017287 -0.073603 -0.040086 0.104659 0.037462 0.097599 -0.103298 -0.146004 0.035555 -0.054830 -0.073267 0.034231 0.142476 0.246939 0.012673 0.027460 0.093225 -0.005147 -0.072395 0.179454 0.083515 0.275483 0.013296 -0.315315 0.052024
964255970322560 -0.058404 -0.016758 0.269459 0.091555 -0.095831 0.015434 0.046520 -0.128682 -0.106817 0.170690 0.043550 -0.284436 -0.102024 0.089094 0.074418 0.141538 -0.084166 -0.091767 0.099911 -0.131264 -0.002670 -0.071631 -0.015156 -0.065284 -0.024766 0.054133 0.054744 -0.092310 -0.014943 0.011298 0.029064 -0.044100 -0.030806 -0.167715 0.012175 0.214454 -0.016409 0.117625 0.086485 0.129731 -0.038712 0.098255 -0.186803 0.127188 0.056896 0.035530 -0.102889 -0.001148 0.134845 0.259165 0.060843 0.183200 -0.126787 -0.352515 -0.049677 0.065593 0.112042 0.014651 -0.009287 -0.055350 0.183324 -0.136767 -0.040469 0.023367 -0.119887 0.088806 -0.010062 -0.092685 -0.045407 -0.071642 0.069027 0.037573 -0.025926 0.135337 -0.060608 0.000527 -0.121328 0.045493 0.014593 0.248998 -0.015291 -0.131861 0.105106 0.004071 -0.172808 -0.093404 0.293871 0.167335 -0.051727 0.145419 -0.069015 -0.018871 -0.242521 -0.107785 -0.099792 0.110478 -0.046475 -0.037361 -0.069106 0.072369 0.110954 -0.099806 0.053820 0.028972 -0.058886 -0.035348 0.100769 0.046705 0.087714 -0.116163 -0.163246 0.030302 -0.080181 -0.098953 0.033556 0.184041 0.280933 -0.008607 0.024649 0.102677 0.000862 -0.082631 0.175755 0.097190 0.292168 0.032380 -0.347899 0.040499
964269060321251 -0.070664 0.004558 0.264581 0.078822 -0.092918 0.003458 0.061303 -0.132042 -0.106966 0.153185 0.020397 -0.279332 -0.094091 0.078325 0.061669 0.122892 -0.066223 -0.088245 0.089016 -0.130933 -0.004107 -0.086850 -0.008929 -0.069611 -0.021629 0.048106 0.055013 -0.097054 -0.000535 0.001740 0.038610 -0.035029 -0.030794 -0.159026 0.011454 0.223079 -0.008152 0.109564 0.070275 0.134080 -0.049897 0.091490 -0.191431 0.122134 0.038344 0.054542 -0.099980 0.003445 0.141908 0.258061 0.063411 0.167198 -0.113137 -0.370085 -0.060079 0.074720 0.091351 0.021089 0.004972 -0.060068 0.183816 -0.126307 -0.044262 0.030501 -0.122293 0.081095 -0.001671 -0.098139 -0.042701 -0.081987 0.064048 0.040231 -0.035813 0.134931 -0.071004 0.008562 -0.115549 0.040886 0.014128 0.252969 -0.022861 -0.117379 0.092978 0.007080 -0.169215 -0.094411 0.293519 0.169469 -0.038356 0.137920 -0.055998 -0.006106 -0.237250 -0.104014 -0.098526 0.128019 -0.057725 -0.032710 -0.073399 0.064596 0.095968 -0.095053 0.059875 0.034146 -0.071304 -0.029987 0.100694 0.044170 0.102351 -0.111241 -0.168171 0.035700 -0.080971 -0.100326 0.024142 0.176593 0.265860 -0.007401 0.031334 0.100887 0.001316 -0.079146 0.179266 0.102403 0.287305 0.026538 -0.337945 0.044007
979845315361396 -0.069605 0.011725 0.257387 0.084957 -0.088766 -0.000180 0.053987 -0.112446 -0.097806 0.155178 0.037202 -0.265153 -0.083694 0.063073 0.063758 0.125578 -0.072267 -0.078084 0.086400 -0.127684 -0.003432 -0.092127 -0.016859 -0.055299 -0.005174 0.043888 0.033201 -0.090752 0.011574 -0.005424 0.042856 -0.027145 -0.014328 -0.138056 0.013663 0.219807 -0.004743 0.113126 0.054067 0.119692 -0.053343 0.087553 -0.198523 0.106677 0.028646 0.050793 -0.088799 -0.000839 0.138694 0.246371 0.071723 0.151802 -0.098442 -0.353885 -0.053626 0.060696 0.090283 0.015143 -0.004491 -0.067706 0.185926 -0.112005 -0.042748 0.021380 -0.119914 0.075261 0.001822 -0.109246 -0.025484 -0.097272 0.066779 0.060449 -0.037567 0.122076 -0.081877 0.006014 -0.117199 0.044983 0.023334 0.271286 -0.020427 -0.137926 0.097460 -0.015125 -0.171097 -0.090585 0.309005 0.176688 -0.032859 0.150990 -0.075272 -0.000366 -0.237160 -0.109896 -0.105665 0.131238 -0.053211 -0.039139 -0.069021 0.069660 0.100313 -0.108847 0.059916 0.026283 -0.079576 -0.028751 0.117998 0.046810 0.107638 -0.115101 -0.170891 0.033232 -0.078182 -0.096222 0.027549 0.158710 0.273944 -0.001877 0.026828 0.105585 -0.006049 -0.090407 0.201439 0.100489 0.297085 0.019019 -0.347614 0.053442
964257870322370 -0.059956 -0.012821 0.225655 0.049883 -0.034275 0.043131 0.064701 -0.118401 -0.096800 0.145993 -0.003077 -0.248120 -0.125606 0.096669 0.071273 0.106394 -0.072007 -0.126009 0.083932 -0.135264 -0.032723 -0.050091 -0.004659 -0.065612 -0.057824 0.050748 0.102033 -0.076527 -0.012019 0.046967 0.003532 -0.044942 -0.067605 -0.130531 0.010660 0.189585 -0.036582 0.074874 0.083647 0.157100 -0.022934 0.094137 -0.127738 0.101582 0.033181 0.040398 -0.088516 0.015384 0.118686 0.205431 0.010681 0.152529 -0.094380 -0.292392 -0.000381 0.102057 0.081235 0.036820 0.045466 -0.053243 0.107224 -0.118876 -0.084956 0.058559 -0.127619 0.110835 -0.037067 -0.062127 -0.066280 -0.054235 0.047830 0.006530 -0.045886 0.208728 -0.026926 0.000090 -0.108520 0.036650 -0.022500 0.256492 -0.012710 -0.117443 0.063668 0.005161 -0.197356 -0.089674 0.310336 0.208271 -0.075937 0.147699 -0.101932 -0.030253 -0.206552 -0.091592 -0.071082 0.095956 -0.001195 -0.028765 -0.104324 0.097131 0.059817 -0.121647 0.056583 0.025904 -0.092922 -0.091383 0.066694 0.040071 0.053265 -0.111639 -0.151478 0.073909 -0.095733 -0.114655 0.069720 0.194378 0.244337 0.031595 0.018546 0.103209 0.033166 -0.121355 0.153059 0.103233 0.245853 0.027913 -0.313657 0.055798
1116912628390226 -0.049289 -0.014189 0.213073 0.042003 -0.032102 0.037263 0.065357 -0.116354 -0.096179 0.141238 -0.012098 -0.243993 -0.118266 0.092538 0.070018 0.097292 -0.064786 -0.112976 0.084548 -0.124510 -0.025131 -0.037586 0.000840 -0.063541 -0.057891 0.045194 0.098030 -0.076075 -0.016683 0.051926 0.006700 -0.046591 -0.066758 -0.137879 0.010985 0.193290 -0.034514 0.074536 0.080766 0.154068 -0.021550 0.091263 -0.137074 0.103234 0.036020 0.036583 -0.087546 0.015421 0.121077 0.205529 0.020975 0.152518 -0.099752 -0.301835 -0.004327 0.106026 0.076320 0.041503 0.042202 -0.048042 0.116166 -0.118946 -0.084045 0.054120 -0.134750 0.109929 -0.041758 -0.068808 -0.063260 -0.057257 0.047250 0.001233 -0.050706 0.215148 -0.026110 0.003659 -0.109861 0.045878 -0.014463 0.266006 -0.010259 -0.127151 0.070129 0.007041 -0.195914 -0.094203 0.316544 0.217805 -0.083894 0.154439 -0.103070 -0.034593 -0.216836 -0.088029 -0.075711 0.094840 0.001391 -0.029503 -0.104673 0.093903 0.064781 -0.127068 0.052138 0.020366 -0.096272 -0.091886 0.068474 0.036527 0.058414 -0.118602 -0.154524 0.072634 -0.098498 -0.122153 0.065839 0.200028 0.256468 0.036917 0.020112 0.104213 0.030991 -0.117660 0.149742 0.098777 0.262465 0.024494 -0.329602 0.058542
1034606283287528 -0.064467 0.014353 0.229472 0.066769 -0.061833 0.008837 0.064465 -0.109354 -0.090104 0.136820 0.023029 -0.236539 -0.098265 0.068830 0.060561 0.118602 -0.065619 -0.086380 0.076417 -0.125602 -0.016835 -0.077776 -0.016598 -0.061384 -0.017196 0.047679 0.059249 -0.074603 0.004764 0.000790 0.031075 -0.027099 -0.026345 -0.127593 0.012380 0.198055 -0.014276 0.094571 0.063196 0.124447 -0.040471 0.085046 -0.167805 0.095649 0.020639 0.046591 -0.078897 0.015145 0.129071 0.219949 0.050550 0.135314 -0.089695 -0.317246 -0.031951 0.076259 0.078527 0.024449 0.013469 -0.063338 0.154783 -0.099345 -0.054202 0.027617 -0.114611 0.072226 -0.010234 -0.085397 -0.034195 -0.085833 0.053483 0.040559 -0.037484 0.141068 -0.063717 -0.002461 -0.103932 0.036865 0.007766 0.259650 -0.019799 -0.122893 0.079615 -0.012131 -0.170527 -0.079310 0.293931 0.180430 -0.045140 0.150438 -0.081899 -0.005303 -0.211855 -0.093422 -0.093091 0.116470 -0.038361 -0.038068 -0.075660 0.077039 0.080630 -0.105861 0.060554 0.023078 -0.082352 -0.048195 0.096348 0.052474 0.085295 -0.098966 -0.158077 0.037238 -0.073554 -0.095816 0.037625 0.153946 0.242618 0.011490 0.022086 0.097311 -0.001948 -0.098778 0.176465 0.100690 0.259847 0.021223 -0.311688 0.055367
1009209989160491 -0.045852 -0.029647 0.186858 0.041271 -0.014232 0.052599 0.046078 -0.085155 -0.078836 0.143795 0.015207 -0.206465 -0.142617 0.101685 0.090145 0.111189 -0.083299 -0.134799 0.075356 -0.153121 -0.037601 -0.021277 -0.005566 -0.067882 -0.057387 0.070230 0.118365 -0.055609 -0.022114 0.060509 -0.026949 -0.039491 -0.076245 -0.126355 0.001506 0.150217 -0.053768 0.070619 0.087120 0.151994 0.004640 0.092425 -0.110044 0.089148 0.023795 0.017871 -0.074048 0.027501 0.102041 0.180923 -0.002780 0.141811 -0.083213 -0.238294 0.028995 0.094367 0.095471 0.041175 0.038152 -0.055060 0.084955 -0.093385 -0.097323 0.053516 -0.125379 0.101376 -0.049599 -0.031219 -0.058195 -0.038247 0.045697 -0.012374 -0.037243 0.206013 0.007445 -0.022207 -0.095558 0.043043 -0.025607 0.244156 -0.000511 -0.135992 0.054645 -0.006069 -0.186265 -0.083395 0.302564 0.222488 -0.099205 0.165012 -0.129870 -0.036184 -0.180527 -0.086256 -0.070943 0.060269 0.020685 -0.044078 -0.100819 0.113673 0.048659 -0.127845 0.043735 0.010230 -0.088535 -0.110983 0.062408 0.052793 0.029854 -0.114959 -0.143353 0.067993 -0.093784 -0.123563 0.090676 0.172838 0.232182 0.054779 0.008900 0.098280 0.027453 -0.147987 0.140904 0.091551 0.209403 0.027496 -0.277286 0.056176
1102235676455692 -0.060834 -0.000609 0.230893 0.043569 -0.046112 0.034416 0.076264 -0.167231 -0.102235 0.120622 -0.047089 -0.277716 -0.103253 0.074711 0.046862 0.043928 -0.041909 -0.111364 0.088488 -0.117411 -0.010297 -0.066003 0.023421 -0.086666 -0.075192 0.004541 0.098705 -0.107436 -0.026387 0.044447 0.037131 -0.049726 -0.065349 -0.149706 0.007925 0.183978 -0.009432 0.048393 0.082084 0.159436 -0.041140 0.084602 -0.121773 0.124923 0.034217 0.072248 -0.110491 0.022994 0.135189 0.225293 0.010445 0.160865 -0.122953 -0.333329 -0.044674 0.130007 0.054594 0.029486 0.051640 -0.039984 0.133975 -0.164230 -0.072489 0.055132 -0.156694 0.139830 -0.034926 -0.062929 -0.091270 -0.057306 0.058415 -0.001311 -0.039238 0.246186 -0.048618 0.015349 -0.124467 0.027226 -0.029993 0.276101 -0.031712 -0.077387 0.084942 0.049828 -0.220246 -0.108074 0.326665 0.188185 -0.076961 0.139188 -0.070290 -0.037710 -0.259223 -0.086254 -0.081778 0.134334 -0.037588 -0.017431 -0.122411 0.095269 0.067032 -0.127600 0.075656 0.046709 -0.111536 -0.061080 0.075074 0.032247 0.077707 -0.115418 -0.169530 0.093898 -0.125935 -0.144504 0.039234 0.236715 0.271011 0.007854 0.023077 0.104031 0.038946 -0.094766 0.154757 0.124141 0.291999 0.039582 -0.348414 0.050158
1114781371936685 -0.052838 -0.019231 0.272278 0.087960 -0.101802 0.023354 0.040234 -0.131695 -0.112155 0.185615 0.053269 -0.295634 -0.127877 0.108711 0.094936 0.157645 -0.106408 -0.114081 0.106663 -0.157145 -0.014433 -0.061992 -0.027471 -0.080436 -0.024417 0.072179 0.068832 -0.080977 -0.018090 0.021891 0.011209 -0.050437 -0.045285 -0.179484 -0.000222 0.225009 -0.030176 0.127044 0.102866 0.148353 -0.027518 0.102301 -0.194275 0.128725 0.067855 0.021904 -0.102826 0.006704 0.134783 0.256409 0.048758 0.189145 -0.130778 -0.337282 -0.034110 0.057314 0.126456 0.012631 -0.010876 -0.051404 0.167555 -0.129684 -0.052339 0.033233 -0.107702 0.079952 -0.020552 -0.072294 -0.045073 -0.046755 0.064742 0.017278 -0.019030 0.126810 -0.041986 -0.010822 -0.116876 0.035809 0.008605 0.234751 0.000398 -0.121333 0.090020 0.014341 -0.167105 -0.081179 0.269482 0.162429 -0.052051 0.139069 -0.064465 -0.023483 -0.230883 -0.093969 -0.093903 0.084764 -0.042551 -0.043906 -0.067501 0.074050 0.102816 -0.091239 0.052651 0.025487 -0.048301 -0.036393 0.084903 0.054667 0.071172 -0.106532 -0.152873 0.018927 -0.083800 -0.093716 0.033477 0.173690 0.256229 -0.005604 0.023269 0.096661 0.004138 -0.090559 0.155836 0.091422 0.253645 0.031694 -0.317855 0.036705
1073660116048811 -0.071821 0.022201 0.207092 0.048254 -0.048782 0.010693 0.077316 -0.103210 -0.088513 0.131221 -0.010715 -0.228301 -0.091286 0.064954 0.050195 0.114082 -0.054457 -0.087936 0.073916 -0.109021 -0.021012 -0.077235 -0.009003 -0.048255 -0.029343 0.045178 0.060924 -0.076607 0.010700 0.012172 0.033482 -0.024680 -0.032871 -0.110132 0.025723 0.199460 -0.013573 0.079629 0.045257 0.126650 -0.050466 0.081874 -0.157580 0.085676 0.017196 0.054347 -0.063249 0.011762 0.116917 0.187266 0.042640 0.115035 -0.076314 -0.305050 -0.026378 0.091008 0.054187 0.036495 0.037350 -0.054921 0.138235 -0.091186 -0.053639 0.038596 -0.115632 0.079785 -0.010546 -0.088961 -0.036458 -0.085540 0.051054 0.044961 -0.050866 0.160217 -0.073634 0.016813 -0.095520 0.043727 -0.001588 0.254451 -0.022939 -0.118815 0.071959 -0.013238 -0.170843 -0.090741 0.295893 0.193069 -0.049621 0.136374 -0.084533 -0.012364 -0.194106 -0.093071 -0.069332 0.115613 -0.021027 -0.022080 -0.085053 0.065901 0.069646 -0.113473 0.053978 0.019270 -0.096613 -0.056552 0.086944 0.034632 0.082671 -0.102527 -0.143906 0.055230 -0.071953 -0.088638 0.045953 0.150429 0.229211 0.029482 0.027369 0.096584 0.010620 -0.088629 0.170472 0.087536 0.251923 0.015092 -0.297165 0.057985
1036372369759097 -0.121001 0.079481 0.208947 0.052637 -0.043386 -0.039131 0.122171 -0.092011 -0.084017 0.121185 -0.030298 -0.198519 -0.045368 0.013451 0.022414 0.111096 -0.025508 -0.034010 0.040670 -0.081526 -0.013919 -0.147893 -0.009265 -0.020131 0.010653 0.031970 0.019547 -0.084907 0.071635 -0.041145 0.099681 0.015004 0.004337 -0.035228 0.042938 0.230056 0.024824 0.073508 -0.029030 0.098387 -0.100457 0.071826 -0.191255 0.038945 -0.045721 0.098218 -0.046791 0.014939 0.132631 0.176420 0.078003 0.058326 -0.015112 -0.336483 -0.052299 0.094063 0.005569 0.044737 0.055731 -0.088076 0.176271 -0.037441 -0.043579 0.015302 -0.118850 0.057788 0.017698 -0.137684 0.003107 -0.174573 0.046849 0.123804 -0.082690 0.139890 -0.149500 0.046255 -0.096960 0.052530 0.030118 0.321725 -0.052229 -0.128022 0.077174 -0.065683 -0.174465 -0.087788 0.353237 0.225123 0.006031 0.164646 -0.098055 0.031854 -0.200699 -0.123733 -0.088897 0.197087 -0.048683 -0.011172 -0.081119 0.062504 0.071324 -0.140001 0.073900 0.014329 -0.152003 -0.047490 0.143396 0.030491 0.144388 -0.104421 -0.167311 0.068300 -0.046470 -0.058565 0.029448 0.112240 0.248464 0.045278 0.026587 0.109432 -0.013635 -0.087780 0.258756 0.122680 0.314849 0.003067 -0.337872 0.101685
979717825374145 -0.088472 0.032503 0.237399 0.053070 -0.053508 0.008871 0.087581 -0.124397 -0.088745 0.132483 -0.017334 -0.243484 -0.088986 0.058335 0.050818 0.104219 -0.045764 -0.086224 0.076574 -0.120370 -0.017978 -0.096659 -0.002028 -0.058615 -0.028084 0.031273 0.062567 -0.094006 0.018104 0.008859 0.051135 -0.025039 -0.029391 -0.103448 0.019813 0.209187 0.000242 0.071982 0.040216 0.133884 -0.062385 0.078368 -0.166077 0.092641 0.005005 0.075598 -0.081391 0.013519 0.134293 0.204835 0.040400 0.121496 -0.079467 -0.330410 -0.048261 0.100178 0.047668 0.032914 0.044690 -0.063043 0.158627 -0.106019 -0.054751 0.035338 -0.134340 0.095957 -0.010695 -0.102633 -0.043108 -0.110687 0.054834 0.053679 -0.050896 0.179509 -0.090281 0.019272 -0.115012 0.039762 0.001444 0.292840 -0.032608 -0.117330 0.082118 -0.007126 -0.190571 -0.095154 0.330720 0.204506 -0.041095 0.154122 -0.090076 -0.002112 -0.236547 -0.108294 -0.090366 0.149487 -0.039903 -0.026603 -0.091767 0.083754 0.076684 -0.127152 0.069711 0.023085 -0.118793 -0.050328 0.105505 0.041017 0.107821 -0.110298 -0.168426 0.068566 -0.084656 -0.107165 0.041378 0.180584 0.265273 0.020735 0.023635 0.111125 0.015616 -0.104133 0.210140 0.118884 0.308970 0.019530 -0.356256 0.068607
979542718724989 -0.050304 -0.016578 0.175163 0.012648 0.009420 0.066800 0.076525 -0.122390 -0.080943 0.111442 -0.052559 -0.220354 -0.117807 0.085356 0.054715 0.044056 -0.038659 -0.124277 0.070785 -0.106062 -0.036193 -0.023922 0.021498 -0.059494 -0.083650 0.029346 0.125475 -0.071919 -0.029357 0.075787 -0.008309 -0.041442 -0.080830 -0.101633 0.017034 0.143182 -0.039477 0.029807 0.070168 0.159557 -0.012889 0.085304 -0.079229 0.084856 0.015489 0.047617 -0.075121 0.024846 0.105915 0.156500 -0.025344 0.128241 -0.089133 -0.242892 0.019601 0.138566 0.043800 0.050039 0.073850 -0.035928 0.067353 -0.115078 -0.100044 0.072725 -0.148003 0.132655 -0.053341 -0.048922 -0.084052 -0.040365 0.040505 -0.026124 -0.060204 0.275987 -0.006811 0.009444 -0.094692 0.048299 -0.047724 0.267382 -0.010146 -0.111780 0.053221 0.020220 -0.221370 -0.098877 0.333647 0.233130 -0.117614 0.154339 -0.134730 -0.052430 -0.214703 -0.086076 -0.055395 0.096406 0.028528 -0.025623 -0.128066 0.119656 0.038749 -0.151658 0.054775 0.021008 -0.123842 -0.124383 0.052800 0.031880 0.041085 -0.123643 -0.153392 0.112847 -0.117078 -0.153317 0.097369 0.220910 0.249596 0.066821 0.013097 0.111085 0.056392 -0.154946 0.155941 0.107076 0.246619 0.026945 -0.327335 0.068172
1680205375627035 -0.049776 -0.014738 0.207703 0.039580 -0.023670 0.051255 0.064478 -0.116517 -0.090271 0.144463 -0.008182 -0.237788 -0.128176 0.101483 0.074239 0.104112 -0.074454 -0.122006 0.084748 -0.135156 -0.035122 -0.032703 -0.004522 -0.071488 -0.059435 0.059218 0.109095 -0.072657 -0.022826 0.057172 -0.006884 -0.044154 -0.075665 -0.126450 0.010430 0.170755 -0.043718 0.065462 0.085442 0.148130 -0.013569 0.085631 -0.121081 0.093145 0.027729 0.023464 -0.077832 0.023080 0.106486 0.180379 0.004908 0.140542 -0.089290 -0.258097 0.007466 0.103998 0.079497 0.042517 0.044582 -0.046021 0.092329 -0.105773 -0.084539 0.058428 -0.127881 0.108510 -0.045801 -0.052669 -0.061079 -0.038696 0.047751 -0.007937 -0.042038 0.206649 -0.010025 0.002012 -0.094332 0.037152 -0.021060 0.234688 -0.006677 -0.112897 0.058829 0.013766 -0.182588 -0.088263 0.290381 0.204549 -0.085875 0.146465 -0.104345 -0.031571 -0.193371 -0.083506 -0.062165 0.078046 0.010249 -0.033551 -0.100995 0.099698 0.053798 -0.119120 0.045888 0.019296 -0.089535 -0.094993 0.056982 0.043484 0.039203 -0.106257 -0.143557 0.073047 -0.091978 -0.120925 0.072257 0.183500 0.231379 0.038213 0.010582 0.095878 0.028510 -0.128264 0.137428 0.088853 0.222596 0.029055 -0.288446 0.050725
1271938969485361 -0.062556 0.017953 0.218265 0.050899 -0.059317 0.017063 0.063372 -0.121763 -0.081909 0.124032 -0.013598 -0.242724 -0.089271 0.066177 0.054140 0.093107 -0.050211 -0.091659 0.076186 -0.111813 -0.010244 -0.080519 0.000449 -0.061203 -0.031886 0.037260 0.064903 -0.086239 0.000612 0.020847 0.037944 -0.031216 -0.032317 -0.119190 0.011360 0.185872 -0.004488 0.078326 0.051024 0.128185 -0.044511 0.078322 -0.157512 0.100158 0.017240 0.053460 -0.078289 0.005219 0.126673 0.211373 0.033263 0.134715 -0.090083 -0.312672 -0.046348 0.083619 0.062746 0.027344 0.024880 -0.046883 0.152399 -0.112160 -0.055518 0.037050 -0.130655 0.095172 -0.018009 -0.088714 -0.042799 -0.082428 0.052721 0.034418 -0.037729 0.164375 -0.067293 0.008312 -0.108589 0.036301 -0.006577 0.260574 -0.024928 -0.111166 0.085974 0.004926 -0.178349 -0.091837 0.304100 0.172788 -0.052453 0.144286 -0.077387 -0.012377 -0.222008 -0.096580 -0.087025 0.125494 -0.039540 -0.026789 -0.084051 0.077756 0.080357 -0.116174 0.065250 0.022648 -0.094213 -0.044445 0.097594 0.040255 0.095034 -0.109624 -0.157470 0.056887 -0.088111 -0.111524 0.040362 0.180568 0.259013 0.017563 0.027110 0.107081 0.016127 -0.097904 0.184290 0.106820 0.278579 0.022764 -0.323141 0.052160
1817068285193680 -0.032606 -0.040168 0.163727 0.012299 0.025099 0.075899 0.049214 -0.092076 -0.070024 0.128225 -0.007041 -0.191974 -0.157677 0.109222 0.083981 0.055046 -0.064735 -0.157340 0.065792 -0.149892 -0.050238 0.004433 0.013555 -0.079012 -0.090383 0.043673 0.153048 -0.051825 -0.038900 0.097109 -0.042786 -0.045773 -0.108913 -0.123337 -0.008096 0.119494 -0.072454 0.034095 0.105823 0.174739 0.025312 0.080066 -0.061566 0.083990 0.019554 0.014083 -0.080495 0.044122 0.095998 0.163481 -0.037402 0.136350 -0.086371 -0.199552 0.059901 0.120662 0.088454 0.047151 0.069185 -0.042690 0.039222 -0.108095 -0.128627 0.082540 -0.144896 0.132017 -0.083596 -0.000663 -0.088271 -0.008890 0.033842 -0.051773 -0.048983 0.281827 0.044816 -0.020139 -0.099696 0.034024 -0.050938 0.253919 0.005416 -0.114645 0.035912 0.014399 -0.217089 -0.091066 0.319960 0.251499 -0.122566 0.172712 -0.153216 -0.056707 -0.192591 -0.074902 -0.061545 0.057071 0.050520 -0.041319 -0.136627 0.145543 0.025951 -0.142620 0.048288 0.018796 -0.110196 -0.149718 0.037919 0.051380 0.001003 -0.129032 -0.150133 0.103761 -0.125617 -0.158047 0.115652 0.217642 0.242059 0.071488 0.000612 0.108511 0.055662 -0.179543 0.128023 0.109296 0.204284 0.031259 -0.288162 0.064362
979548035391124 -0.055604 0.000127 0.249015 0.073987 -0.080184 0.016202 0.052973 -0.113673 -0.100034 0.162313 0.027737 -0.267493 -0.103228 0.083480 0.072414 0.139515 -0.079734 -0.095990 0.088617 -0.131870 -0.018727 -0.065933 -0.023033 -0.053590 -0.020029 0.071532 0.055782 -0.080532 0.000977 0.013535 0.025001 -0.037854 -0.035796 -0.136390 0.016516 0.206263 -0.016055 0.107542 0.068484 0.131222 -0.034315 0.094111 -0.183336 0.108507 0.033988 0.035704 -0.082066 -0.000440 0.124209 0.230587 0.043578 0.150622 -0.102809 -0.321523 -0.033094 0.071792 0.091938 0.028849 -0.000689 -0.053922 0.162860 -0.102317 -0.053231 0.028175 -0.118311 0.080325 -0.007066 -0.096522 -0.037564 -0.076937 0.062750 0.037029 -0.038351 0.142350 -0.057455 -0.000680 -0.103650 0.050910 0.008903 0.263382 -0.007281 -0.145088 0.091419 -0.005957 -0.177887 -0.091318 0.301446 0.183533 -0.066172 0.150730 -0.088316 -0.018509 -0.224109 -0.109058 -0.089033 0.108448 -0.029069 -0.044408 -0.071402 0.071340 0.095052 -0.116241 0.048997 0.016362 -0.073474 -0.051594 0.099853 0.047593 0.091620 -0.114451 -0.160492 0.043808 -0.076854 -0.104708 0.050626 0.164648 0.266984 0.017484 0.026314 0.102096 0.003146 -0.102261 0.182237 0.094103 0.274482 0.022038 -0.328871 0.051288
100002144979497 -0.038461 -0.029427 0.243446 0.080689 -0.076131 0.028431 0.031818 -0.087470 -0.094083 0.186254 0.080611 -0.253132 -0.142438 0.118030 0.102026 0.188370 -0.116892 -0.126116 0.104187 -0.171844 -0.035248 -0.026493 -0.042670 -0.061879 -0.016749 0.103961 0.069706 -0.053622 -0.017293 0.028025 -0.017861 -0.045828 -0.043145 -0.166893 -0.000540 0.190883 -0.051355 0.135890 0.103720 0.137439 -0.003943 0.101995 -0.187142 0.108315 0.059248 -0.002658 -0.071290 -0.000210 0.115749 0.227324 0.047321 0.173797 -0.107172 -0.288960 -0.006250 0.039804 0.142131 0.022179 -0.027343 -0.052695 0.132621 -0.094619 -0.057764 0.028507 -0.098440 0.057999 -0.023493 -0.066494 -0.023119 -0.045649 0.055880 0.016366 -0.019115 0.102958 -0.012368 -0.038684 -0.094465 0.044974 0.009305 0.216224 0.014582 -0.153990 0.071740 -0.015409 -0.144016 -0.065485 0.247591 0.168794 -0.068810 0.147265 -0.092670 -0.023641 -0.182346 -0.085970 -0.086142 0.044800 -0.006080 -0.059723 -0.052372 0.079626 0.085946 -0.093356 0.036051 0.006703 -0.035456 -0.051692 0.085908 0.058983 0.052514 -0.095272 -0.136717 0.005465 -0.064339 -0.089765 0.061484 0.134132 0.230578 0.018630 0.019759 0.088197 -0.005372 -0.115230 0.143216 0.067372 0.208792 0.020633 -0.274500 0.031278
1036909843057172 -0.072161 0.007183 0.256852 0.079663 -0.084056 0.001574 0.069665 -0.136704 -0.111896 0.164775 0.015012 -0.282759 -0.099749 0.073894 0.069595 0.131529 -0.067476 -0.088978 0.095570 -0.133362 -0.007935 -0.086819 -0.017261 -0.064143 -0.018049 0.054453 0.058634 -0.100382 0.004386 0.004413 0.042280 -0.039963 -0.032653 -0.153658 0.017808 0.238667 -0.008351 0.114512 0.071637 0.138462 -0.059725 0.100774 -0.199641 0.117776 0.037769 0.052529 -0.095524 0.003650 0.145060 0.252383 0.064288 0.166899 -0.111621 -0.371437 -0.051229 0.077010 0.085193 0.019761 0.009467 -0.065357 0.185688 -0.126480 -0.046677 0.026148 -0.122524 0.085943 -0.005619 -0.098800 -0.044679 -0.094187 0.065029 0.049630 -0.044181 0.146818 -0.081713 0.013524 -0.119817 0.039830 0.013303 0.268065 -0.018931 -0.120013 0.102031 -0.000384 -0.184164 -0.094810 0.306264 0.185107 -0.036092 0.139604 -0.061346 -0.010195 -0.243347 -0.108808 -0.097354 0.129147 -0.048543 -0.034180 -0.076725 0.068025 0.097175 -0.112393 0.064146 0.034259 -0.077686 -0.036570 0.104371 0.045083 0.097458 -0.102601 -0.164578 0.037755 -0.078001 -0.093879 0.021174 0.170053 0.258854 -0.002074 0.030355 0.100917 0.001062 -0.075336 0.177207 0.101069 0.288659 0.022785 -0.338612 0.053127
100002100540824 -0.064585 0.025597 0.224972 0.081482 -0.076351 -0.004343 0.049167 -0.051235 -0.065225 0.163228 0.095703 -0.191103 -0.116285 0.067618 0.093089 0.202243 -0.113452 -0.090780 0.077189 -0.174998 -0.036898 -0.066132 -0.055287 -0.040870 0.029582 0.107695 0.026221 -0.034997 0.025979 -0.026463 0.004965 0.000272 -0.003957 -0.117815 -0.006106 0.189387 -0.020656 0.139633 0.056616 0.111259 -0.015476 0.084702 -0.227119 0.068468 -0.004663 0.022433 -0.045104 0.008337 0.113008 0.225044 0.080108 0.119172 -0.064181 -0.293586 -0.025513 0.019722 0.129334 0.029235 -0.039707 -0.080560 0.174051 -0.033353 -0.054703 -0.005033 -0.100863 0.016502 0.002521 -0.093610 0.023321 -0.104500 0.049157 0.079473 -0.025621 0.050334 -0.063647 -0.044803 -0.103477 0.048512 0.033497 0.262433 -0.010251 -0.187342 0.086309 -0.074575 -0.129052 -0.052214 0.285252 0.183936 -0.032630 0.187939 -0.104047 0.023687 -0.176805 -0.099808 -0.119277 0.085824 -0.026228 -0.067256 -0.032679 0.089120 0.097274 -0.104287 0.062012 -0.008821 -0.063770 -0.032564 0.144813 0.075059 0.096952 -0.093919 -0.160865 -0.010535 -0.044857 -0.070103 0.055094 0.074617 0.239504 0.038191 0.026724 0.102574 -0.035792 -0.126643 0.205375 0.076626 0.236788 0.000495 -0.285835 0.059771
1132856073462548 -0.051995 -0.022508 0.255445 0.090443 -0.090153 0.020175 0.038989 -0.098328 -0.101869 0.181485 0.069727 -0.259757 -0.128510 0.105925 0.097199 0.179614 -0.108176 -0.105415 0.094052 -0.158194 -0.028783 -0.048628 -0.035346 -0.060557 -0.012135 0.094186 0.065077 -0.066714 -0.007535 0.014750 0.002764 -0.045913 -0.037024 -0.153691 0.008752 0.207264 -0.039867 0.133064 0.090396 0.135692 -0.018768 0.100387 -0.187434 0.106033 0.051810 0.012253 -0.075430 -0.004298 0.119466 0.236227 0.054872 0.164604 -0.096261 -0.304532 -0.013149 0.045567 0.126173 0.025999 -0.019196 -0.064395 0.150900 -0.096485 -0.052263 0.022329 -0.099372 0.061269 -0.011742 -0.079388 -0.020242 -0.059418 0.060333 0.035919 -0.022656 0.104159 -0.039386 -0.023316 -0.104881 0.043755 0.013560 0.228045 0.001862 -0.150253 0.084962 -0.018229 -0.147999 -0.072489 0.264238 0.176012 -0.052600 0.146680 -0.086064 -0.010485 -0.193848 -0.098711 -0.092378 0.074236 -0.022543 -0.049270 -0.055095 0.077285 0.097127 -0.093710 0.042001 0.015821 -0.048590 -0.047875 0.095469 0.057387 0.069013 -0.098964 -0.143616 0.016221 -0.063582 -0.081514 0.044927 0.136595 0.244960 0.012952 0.025401 0.093521 -0.008828 -0.104362 0.157786 0.078251 0.241514 0.023634 -0.291816 0.041318
687495794749239 -0.012413 0.003147 -0.040504 -0.113288 0.393822 0.279565 0.328555 0.419985 -0.142672 0.494441 -0.047048 0.005429 -0.268353 0.236288 0.197576 0.930459 -0.210597 -0.236364 0.119362 -0.005185 -0.444926 0.216188 -0.417629 0.536667 0.082316 0.979888 0.310079 0.237191 0.254721 0.215006 -0.277013 -0.001617 -0.190605 0.323132 0.477844 0.537342 -0.406552 0.430081 -0.227502 0.148432 -0.018032 0.459178 -0.428282 -0.342608 -0.062467 -0.217620 0.494297 -0.161527 -0.055438 -0.265725 0.096747 -0.140868 0.438245 -0.164446 0.641238 0.282949 0.045071 0.522811 0.179827 -0.219833 -0.168657 0.659875 -0.275176 0.124571 -0.048500 -0.101771 -0.020739 -0.547035 0.152457 -0.344696 -0.046639 0.285469 -0.480365 0.206593 -0.083652 0.108380 0.176657 0.597932 0.099428 0.641548 0.257998 -1.266568 -0.133338 -0.854465 -0.295183 -0.176584 0.901449 1.083464 -0.625136 0.630024 -1.086794 -0.078231 0.137053 -0.479912 0.284828 -0.094327 0.869643 -0.244590 -0.141943 0.160399 0.110297 -0.823103 -0.275452 -0.406349 -0.336895 -1.021586 0.180316 0.021860 0.007821 -0.369574 -0.201460 0.178411 0.301345 -0.085192 0.985594 -0.031918 0.622359 0.973729 0.066297 0.318831 -0.013943 -0.805812 0.658016 -0.101770 0.446108 -0.285197 -0.602212 0.567671
688787821286703 -0.018576 -0.000081 -0.023376 -0.114337 0.397281 0.283066 0.342160 0.427607 -0.161337 0.513633 -0.049774 -0.010428 -0.282607 0.255782 0.197666 0.968301 -0.220570 -0.244082 0.127337 -0.004504 -0.457247 0.218477 -0.425746 0.552488 0.090007 1.012537 0.327398 0.232838 0.264471 0.226777 -0.280459 -0.006881 -0.188901 0.320239 0.493249 0.570789 -0.411603 0.451010 -0.228171 0.151659 -0.018774 0.474324 -0.455137 -0.345263 -0.064683 -0.215837 0.506082 -0.169295 -0.054306 -0.252855 0.105728 -0.139641 0.448153 -0.196007 0.655213 0.300029 0.045439 0.542807 0.188260 -0.238903 -0.162482 0.670674 -0.292072 0.133026 -0.055378 -0.100268 -0.012982 -0.574879 0.150365 -0.365120 -0.047841 0.305110 -0.492898 0.213958 -0.098042 0.120193 0.171525 0.623055 0.101349 0.672525 0.262141 -1.309553 -0.129235 -0.879662 -0.305827 -0.187076 0.944697 1.116513 -0.639660 0.653311 -1.117345 -0.083385 0.126123 -0.497440 0.284850 -0.084753 0.884053 -0.259827 -0.145863 0.166965 0.119090 -0.848804 -0.282923 -0.416180 -0.340550 -1.045245 0.185688 0.020948 0.010440 -0.393378 -0.220577 0.188376 0.307962 -0.087211 1.010634 -0.029387 0.661920 0.998164 0.070291 0.337944 -0.022056 -0.825586 0.681633 -0.101479 0.471149 -0.290334 -0.633950 0.590813
1146370545484002 -0.051804 -0.014302 0.254689 0.080838 -0.084589 0.016556 0.043838 -0.115887 -0.100933 0.169685 0.044627 -0.269511 -0.110817 0.091966 0.076112 0.147780 -0.086914 -0.097324 0.095157 -0.137825 -0.014859 -0.058942 -0.024946 -0.065563 -0.022345 0.060408 0.058897 -0.074726 -0.006262 0.013272 0.013917 -0.044849 -0.038069 -0.146407 0.004768 0.204639 -0.023331 0.109863 0.081121 0.128690 -0.034699 0.089078 -0.174325 0.108075 0.048567 0.026794 -0.085797 0.004249 0.121907 0.223948 0.050853 0.153243 -0.103837 -0.311736 -0.032331 0.060272 0.103886 0.020247 -0.005399 -0.051379 0.159283 -0.116009 -0.050106 0.031043 -0.111912 0.079126 -0.016700 -0.077722 -0.039107 -0.064735 0.060038 0.031774 -0.025810 0.136764 -0.050106 -0.007191 -0.110693 0.040295 0.012088 0.240382 -0.006572 -0.132360 0.086818 -0.004311 -0.159878 -0.085392 0.277247 0.173476 -0.053478 0.143839 -0.077769 -0.015029 -0.216698 -0.091502 -0.089966 0.091987 -0.028438 -0.038827 -0.067265 0.074541 0.094279 -0.097543 0.054518 0.019088 -0.062608 -0.040667 0.084567 0.048943 0.072762 -0.103788 -0.152155 0.028888 -0.079742 -0.096620 0.041551 0.161658 0.253504 0.001529 0.020874 0.093140 0.005717 -0.097750 0.157319 0.084178 0.256507 0.021949 -0.314211 0.042094
1174324999246759 -0.050488 -0.009065 0.242672 0.071555 -0.082986 0.015354 0.049771 -0.117796 -0.100194 0.153997 0.026303 -0.266501 -0.110263 0.086435 0.073948 0.145297 -0.083669 -0.100995 0.095952 -0.132956 -0.016918 -0.062851 -0.022330 -0.058628 -0.023427 0.069165 0.055206 -0.078024 -0.010331 0.017360 0.020795 -0.040800 -0.031983 -0.146231 0.010649 0.206413 -0.015487 0.108151 0.071853 0.128033 -0.031938 0.096461 -0.175561 0.111825 0.044123 0.034017 -0.080876 0.000410 0.121667 0.223656 0.048101 0.158895 -0.107766 -0.314085 -0.037055 0.060769 0.091210 0.022829 -0.004893 -0.048455 0.155677 -0.117360 -0.043257 0.023378 -0.105796 0.078647 -0.006604 -0.089086 -0.031554 -0.062325 0.058898 0.032052 -0.027434 0.124778 -0.052308 -0.010030 -0.097627 0.042733 0.011297 0.231316 -0.012388 -0.123939 0.088312 0.005100 -0.159073 -0.078733 0.266979 0.152809 -0.051987 0.136421 -0.066618 -0.012830 -0.212381 -0.095120 -0.086167 0.089412 -0.042929 -0.041727 -0.061440 0.063051 0.091893 -0.098861 0.051331 0.023378 -0.061717 -0.031751 0.089601 0.040610 0.084298 -0.101461 -0.143553 0.028253 -0.078080 -0.090976 0.038179 0.160742 0.250883 0.003456 0.021044 0.096985 0.000078 -0.088974 0.163062 0.086508 0.253422 0.030996 -0.307144 0.041064
979523765393551 -0.083408 0.038767 0.250877 0.067806 -0.080203 -0.000197 0.086045 -0.138138 -0.093557 0.132033 -0.021717 -0.273080 -0.066993 0.049498 0.042640 0.098140 -0.038942 -0.066905 0.082580 -0.100663 0.004285 -0.106946 -0.003793 -0.048690 -0.019467 0.025401 0.033700 -0.106670 0.016889 -0.003933 0.067591 -0.020152 -0.011441 -0.117119 0.021973 0.223943 0.021318 0.089457 0.033809 0.120801 -0.075640 0.087693 -0.197147 0.110640 0.015760 0.082214 -0.082014 0.004901 0.137481 0.228797 0.060519 0.130624 -0.095060 -0.371730 -0.073825 0.088947 0.051752 0.031306 0.018294 -0.061242 0.193255 -0.112012 -0.039257 0.021078 -0.126855 0.088296 0.003707 -0.124701 -0.035712 -0.115690 0.061067 0.063013 -0.047173 0.154312 -0.108739 0.026780 -0.113008 0.046985 0.011585 0.288919 -0.035575 -0.122799 0.101387 -0.007043 -0.185677 -0.101539 0.329469 0.181223 -0.040805 0.150696 -0.067984 -0.001219 -0.252479 -0.112384 -0.096403 0.162863 -0.058989 -0.022643 -0.078256 0.064388 0.095665 -0.119015 0.068915 0.027326 -0.104914 -0.025622 0.119548 0.036064 0.127796 -0.103397 -0.169404 0.050714 -0.079283 -0.101939 0.024214 0.176087 0.275199 0.009556 0.032611 0.106520 0.008492 -0.076120 0.208897 0.114084 0.321801 0.019713 -0.360220 0.060170
1114221811992641 -0.059001 -0.002935 0.235939 0.048556 -0.051106 0.040244 0.077066 -0.162103 -0.107969 0.140738 -0.036484 -0.291531 -0.106199 0.082737 0.054823 0.074769 -0.047135 -0.113532 0.089195 -0.116627 -0.015839 -0.060995 0.011610 -0.077454 -0.066791 0.016459 0.093965 -0.105703 -0.024125 0.055269 0.026727 -0.056548 -0.062151 -0.149547 0.015779 0.201994 -0.016132 0.061361 0.082916 0.154337 -0.045148 0.084398 -0.124121 0.121511 0.045141 0.057289 -0.103902 0.018376 0.124487 0.207068 0.015337 0.156211 -0.112971 -0.320911 -0.029914 0.121115 0.053111 0.037333 0.051705 -0.042858 0.126445 -0.149011 -0.070533 0.056356 -0.141448 0.131361 -0.034326 -0.074680 -0.085993 -0.057397 0.056170 -0.001301 -0.048888 0.233522 -0.044994 0.025641 -0.118458 0.037094 -0.022560 0.262625 -0.020607 -0.097858 0.081274 0.031548 -0.209772 -0.103911 0.322810 0.194893 -0.073974 0.136972 -0.079923 -0.035656 -0.244286 -0.092941 -0.073680 0.122594 -0.020120 -0.014283 -0.115484 0.088184 0.067592 -0.127150 0.060708 0.041656 -0.096857 -0.073222 0.068530 0.030132 0.071561 -0.120060 -0.163720 0.087152 -0.107669 -0.128027 0.044730 0.223671 0.262684 0.013979 0.023426 0.099044 0.039532 -0.094485 0.150025 0.112160 0.279406 0.028001 -0.344675 0.047363
969263299752931 -0.064600 -0.004919 0.253329 0.081225 -0.081259 0.012819 0.059266 -0.113092 -0.097798 0.162576 0.035408 -0.264493 -0.105690 0.089708 0.074654 0.157775 -0.086411 -0.094264 0.094540 -0.137290 -0.020564 -0.073700 -0.029050 -0.052057 -0.012184 0.074700 0.043713 -0.076626 0.003423 0.012882 0.025739 -0.036376 -0.026441 -0.138292 0.014305 0.219681 -0.012792 0.120541 0.068233 0.130476 -0.041358 0.101303 -0.204800 0.114094 0.040366 0.031745 -0.076878 -0.003201 0.134630 0.240891 0.059229 0.158817 -0.100449 -0.337988 -0.041363 0.057473 0.102282 0.026418 -0.002924 -0.063263 0.169666 -0.099766 -0.047632 0.019218 -0.112332 0.074154 -0.006436 -0.102508 -0.023454 -0.082825 0.064854 0.047199 -0.032881 0.119314 -0.064911 -0.009836 -0.103316 0.052068 0.012572 0.257296 -0.011338 -0.149506 0.088061 -0.011902 -0.161691 -0.079166 0.294574 0.178464 -0.058258 0.150771 -0.084141 -0.009661 -0.224953 -0.106125 -0.092947 0.102513 -0.036811 -0.045643 -0.064422 0.067734 0.104819 -0.106723 0.049844 0.019413 -0.068845 -0.044987 0.111095 0.050922 0.095645 -0.103711 -0.157167 0.023369 -0.069473 -0.094620 0.040590 0.155141 0.263151 0.011813 0.022469 0.106361 -0.005097 -0.093897 0.184016 0.090663 0.282677 0.025897 -0.335619 0.050234
100003077712161 -0.008227 -0.087911 0.321424 0.177746 -0.183778 0.020820 -0.061431 0.025052 -0.107896 0.339806 0.337227 -0.260841 -0.231276 0.197761 0.240238 0.478714 -0.307295 -0.157332 0.142415 -0.315750 -0.075756 -0.002752 -0.175693 -0.050870 0.085693 0.300221 0.023466 0.027091 0.009692 -0.026342 -0.107734 -0.034449 -0.019024 -0.229552 -0.028320 0.246740 -0.120271 0.314548 0.156406 0.134475 0.065237 0.152537 -0.345125 0.111047 0.097342 -0.128992 -0.047867 -0.033601 0.109192 0.324212 0.131804 0.236701 -0.107198 -0.279104 0.045122 -0.120017 0.338438 -0.001825 -0.186078 -0.102426 0.201326 0.011148 -0.045382 -0.034825 -0.023880 -0.066917 0.004837 -0.072840 0.084835 -0.033798 0.064827 0.061929 0.036138 -0.145458 0.032372 -0.157306 -0.085696 0.066210 0.095297 0.156762 0.082276 -0.318402 0.084233 -0.133243 -0.030895 -0.012025 0.163910 0.156540 -0.059226 0.203834 -0.142644 0.014806 -0.109132 -0.117009 -0.138505 -0.090290 0.007488 -0.139374 0.059232 0.063080 0.164996 -0.035497 -0.001757 -0.050354 0.079899 -0.026871 0.145529 0.119092 0.021735 -0.090804 -0.124769 -0.154282 0.024979 0.000459 0.093544 -0.008782 0.231580 0.015195 0.022217 0.087327 -0.095056 -0.155397 0.151065 -0.002632 0.118645 0.016244 -0.187579 0.012790
983052661707328 -0.061570 0.011293 0.188280 0.028304 -0.023507 0.028766 0.080390 -0.114386 -0.089113 0.113479 -0.046974 -0.224977 -0.082386 0.061866 0.035875 0.072312 -0.026254 -0.082426 0.068604 -0.083083 -0.022870 -0.060844 0.009789 -0.039247 -0.044626 0.036671 0.072589 -0.078098 0.001072 0.040862 0.035326 -0.030627 -0.045353 -0.096287 0.030673 0.183641 -0.017278 0.062643 0.041135 0.126371 -0.047659 0.083941 -0.126388 0.080367 0.013005 0.052982 -0.068357 0.009425 0.111328 0.168394 0.024929 0.112891 -0.077094 -0.284940 -0.014095 0.110624 0.036126 0.051888 0.056780 -0.048320 0.109167 -0.096574 -0.067989 0.054431 -0.136470 0.103710 -0.021176 -0.097125 -0.058065 -0.076046 0.047023 0.030313 -0.062591 0.211876 -0.063222 0.032190 -0.101060 0.060993 -0.016185 0.274905 -0.019573 -0.129464 0.069536 -0.003414 -0.199478 -0.102270 0.336947 0.217827 -0.078817 0.154284 -0.111539 -0.021509 -0.216123 -0.108198 -0.061657 0.122532 0.001811 -0.025481 -0.099863 0.084866 0.067790 -0.147841 0.049320 0.015598 -0.115517 -0.093145 0.085742 0.035255 0.080096 -0.120530 -0.155388 0.083779 -0.090093 -0.117187 0.077385 0.184815 0.266378 0.057690 0.026144 0.113096 0.022599 -0.114405 0.183807 0.100365 0.280509 0.012518 -0.338970 0.072449
1107837545962920 -0.083076 0.019236 0.233877 0.040076 -0.048059 0.021515 0.093413 -0.150687 -0.094175 0.118956 -0.053161 -0.259263 -0.077740 0.056852 0.032560 0.070522 -0.027504 -0.087913 0.077106 -0.091895 -0.007047 -0.093962 0.017655 -0.053655 -0.052942 0.011633 0.066029 -0.101574 0.005533 0.025699 0.056426 -0.031840 -0.033166 -0.100610 0.027496 0.204639 0.007131 0.057432 0.037510 0.136750 -0.071403 0.086162 -0.150199 0.093729 0.009802 0.079270 -0.084741 0.009845 0.132391 0.198626 0.031822 0.119978 -0.095358 -0.330263 -0.051544 0.120365 0.026938 0.031537 0.056397 -0.042136 0.151242 -0.130727 -0.058549 0.050160 -0.148684 0.116094 -0.017487 -0.099870 -0.060632 -0.093770 0.059491 0.036820 -0.054645 0.220480 -0.087726 0.033454 -0.112339 0.049128 -0.014109 0.292648 -0.039661 -0.101044 0.086507 0.019943 -0.207503 -0.108206 0.332298 0.192865 -0.060571 0.139292 -0.083933 -0.024747 -0.256561 -0.108302 -0.075110 0.154218 -0.040244 -0.014477 -0.105608 0.082234 0.074231 -0.144933 0.072213 0.033028 -0.123609 -0.055958 0.096876 0.028851 0.104463 -0.116775 -0.171262 0.090872 -0.104366 -0.121167 0.048697 0.210944 0.281508 0.024829 0.018675 0.115501 0.029876 -0.097539 0.205055 0.118372 0.324976 0.020896 -0.385636 0.070929
1438682509493972 0.006162 -0.118893 0.318588 0.184194 -0.194466 0.020939 -0.091052 0.008918 -0.114622 0.335585 0.342943 -0.272880 -0.236728 0.216762 0.251409 0.461807 -0.312519 -0.169711 0.154633 -0.318138 -0.061229 0.001334 -0.161717 -0.076018 0.074473 0.282402 0.033665 0.017615 -0.009491 -0.006970 -0.112595 -0.058020 -0.031642 -0.266404 -0.045326 0.250084 -0.131149 0.316050 0.194103 0.142782 0.067206 0.157723 -0.328292 0.133571 0.131245 -0.141081 -0.071310 -0.028923 0.118324 0.345400 0.121774 0.268728 -0.142683 -0.274333 0.048504 -0.125872 0.361622 -0.014027 -0.189030 -0.099779 0.191060 -0.030793 -0.047458 -0.027764 -0.010380 -0.057734 -0.010211 -0.035958 0.073678 0.003365 0.070857 0.036843 0.057980 -0.151577 0.057725 -0.162578 -0.087470 0.048012 0.092588 0.127099 0.083317 -0.277925 0.087856 -0.084387 -0.024220 -0.010079 0.117699 0.121904 -0.055374 0.179271 -0.112812 0.003504 -0.114713 -0.106687 -0.134793 -0.114205 -0.016300 -0.138565 0.057129 0.062291 0.173112 -0.006415 -0.012628 -0.037980 0.101755 -0.006958 0.122217 0.126490 0.001562 -0.088123 -0.115424 -0.153624 0.002813 0.000967 0.075260 0.013148 0.225498 -0.019756 0.016371 0.084916 -0.084811 -0.137708 0.128037 -0.000131 0.107624 0.038052 -0.187661 -0.012470
1438704969491726 0.003798 -0.120214 0.345072 0.204807 -0.222218 0.014837 -0.097739 0.005086 -0.112399 0.351696 0.359768 -0.285077 -0.239979 0.222378 0.261951 0.474672 -0.328629 -0.163187 0.161103 -0.336209 -0.055694 -0.005271 -0.174358 -0.077209 0.088326 0.287037 0.016721 0.016988 -0.013951 -0.018959 -0.114144 -0.051163 -0.016156 -0.270926 -0.052828 0.253982 -0.123646 0.330497 0.196359 0.140322 0.063258 0.153900 -0.349367 0.148834 0.133751 -0.138216 -0.077841 -0.032927 0.121876 0.360139 0.131690 0.278589 -0.148371 -0.291297 0.027374 -0.139512 0.372536 -0.031944 -0.211175 -0.094803 0.218318 -0.032853 -0.034633 -0.040032 -0.003569 -0.063699 -0.001461 -0.039092 0.075205 0.000449 0.070951 0.037697 0.069148 -0.176152 0.052515 -0.166592 -0.090937 0.043322 0.100856 0.118931 0.081037 -0.268791 0.095158 -0.079883 -0.008192 -0.006019 0.093535 0.096703 -0.037931 0.167634 -0.087900 0.013844 -0.115178 -0.097880 -0.150160 -0.110789 -0.034751 -0.142501 0.071739 0.051367 0.182104 0.010169 -0.006116 -0.034376 0.120377 0.016314 0.126408 0.120235 0.013824 -0.075834 -0.107684 -0.174091 0.011794 0.010095 0.049813 -0.002130 0.216875 -0.039067 0.017915 0.075404 -0.095439 -0.120380 0.119693 0.000881 0.103165 0.035597 -0.169734 -0.029942
100001590311164 -0.044718 -0.017424 0.267234 0.118281 -0.106274 0.017532 0.009029 -0.011053 -0.077615 0.234773 0.185684 -0.213670 -0.164635 0.124099 0.151799 0.320622 -0.188669 -0.119819 0.105011 -0.221538 -0.053254 -0.029559 -0.105085 -0.028712 0.049872 0.189731 0.023780 -0.011014 0.023325 -0.022660 -0.044322 -0.013012 -0.001896 -0.146255 -0.008912 0.195942 -0.052915 0.200730 0.079157 0.110268 0.020530 0.111839 -0.267914 0.080025 0.026572 -0.039605 -0.023328 -0.016883 0.099646 0.242771 0.093930 0.142598 -0.070285 -0.270296 0.001117 -0.030771 0.196393 0.026607 -0.091129 -0.086029 0.177448 -0.001133 -0.041803 -0.021597 -0.072067 -0.017082 0.008135 -0.096201 0.058581 -0.082472 0.055698 0.070332 0.001326 -0.030326 -0.032318 -0.089896 -0.082631 0.067155 0.050611 0.221294 0.025255 -0.246584 0.082808 -0.102751 -0.090277 -0.034720 0.236251 0.169232 -0.054054 0.192317 -0.128085 0.022735 -0.141626 -0.109069 -0.123391 0.022608 -0.001902 -0.099326 0.004988 0.077880 0.122148 -0.083410 0.030866 -0.029611 -0.011670 -0.034255 0.140715 0.087627 0.072689 -0.087335 -0.139787 -0.062303 -0.008630 -0.044944 0.076628 0.031118 0.232621 0.039548 0.022401 0.094572 -0.054254 -0.144175 0.182744 0.037107 0.190656 0.000740 -0.238684 0.048023
1438677009494522 -0.002351 -0.117151 0.338517 0.185128 -0.199653 0.030662 -0.071082 0.011757 -0.124240 0.359126 0.340010 -0.288598 -0.243026 0.228031 0.261687 0.490156 -0.318576 -0.176158 0.159824 -0.329169 -0.075376 -0.004291 -0.172957 -0.065875 0.074631 0.303151 0.043303 0.015052 -0.003136 -0.007995 -0.111365 -0.054281 -0.028450 -0.260596 -0.030333 0.271136 -0.132855 0.331276 0.183808 0.153763 0.062151 0.169445 -0.349277 0.134761 0.130457 -0.135565 -0.072481 -0.037285 0.117598 0.351433 0.128067 0.275358 -0.130976 -0.302632 0.048634 -0.112599 0.355457 -0.014114 -0.188480 -0.104079 0.206578 -0.018138 -0.050840 -0.021207 -0.020342 -0.055837 -0.002379 -0.059855 0.075198 -0.020593 0.075175 0.044192 0.041591 -0.134830 0.049143 -0.154599 -0.089981 0.059679 0.099617 0.158008 0.089144 -0.298500 0.091885 -0.106373 -0.036392 -0.017649 0.144827 0.150191 -0.062724 0.193600 -0.132252 0.001797 -0.127072 -0.119381 -0.133308 -0.102816 -0.001923 -0.138613 0.046589 0.058431 0.174829 -0.022758 -0.016018 -0.041217 0.092184 -0.020361 0.127712 0.117152 0.010682 -0.098780 -0.127637 -0.150153 0.014313 -0.005256 0.090525 0.023114 0.248874 -0.004371 0.024287 0.089802 -0.079983 -0.149733 0.142630 0.004611 0.133129 0.026101 -0.214937 -0.001148
1438670382828518 0.022996 -0.155131 0.335099 0.200561 -0.198737 0.051044 -0.108545 0.068143 -0.118634 0.405926 0.419546 -0.262457 -0.292307 0.264687 0.311065 0.572372 -0.378513 -0.199890 0.170039 -0.368462 -0.100524 0.048206 -0.216600 -0.061165 0.090261 0.379496 0.062691 0.053661 -0.014817 0.009076 -0.176368 -0.062405 -0.052438 -0.272509 -0.045090 0.263004 -0.182853 0.378913 0.220082 0.154366 0.105057 0.192244 -0.367916 0.118792 0.149108 -0.197518 -0.053198 -0.045094 0.103369 0.359598 0.127484 0.299744 -0.132462 -0.256392 0.112011 -0.151761 0.428059 -0.001679 -0.225357 -0.116902 0.182238 0.018189 -0.075037 -0.024911 0.002879 -0.085972 -0.018874 -0.039842 0.092855 0.021673 0.071539 0.027451 0.057843 -0.190120 0.105175 -0.205616 -0.076456 0.077848 0.106029 0.121993 0.130712 -0.365047 0.070664 -0.141770 -0.004770 0.001551 0.115447 0.164399 -0.095804 0.216088 -0.182057 -0.001863 -0.076355 -0.120158 -0.126970 -0.185142 0.039125 -0.180054 0.074564 0.075609 0.188502 -0.020401 -0.039625 -0.072947 0.125374 -0.063552 0.125807 0.142695 -0.033896 -0.100746 -0.107513 -0.183201 0.034938 0.009470 0.141758 -0.018674 0.246156 0.029673 0.020210 0.087212 -0.103187 -0.201672 0.130711 -0.029192 0.084248 0.029551 -0.178246 -0.002130
1438574912838065 0.007419 -0.121669 0.307858 0.180028 -0.176728 0.029502 -0.090003 0.054439 -0.103077 0.358679 0.361865 -0.240103 -0.250475 0.227403 0.269377 0.503370 -0.333108 -0.176739 0.143706 -0.334074 -0.084945 0.021103 -0.187650 -0.055292 0.086614 0.327229 0.044647 0.039610 -0.001172 -0.006370 -0.142135 -0.042419 -0.035204 -0.238014 -0.035632 0.246366 -0.152833 0.334585 0.182702 0.141154 0.078771 0.168310 -0.339531 0.109062 0.116100 -0.161374 -0.051706 -0.034280 0.105291 0.325292 0.125560 0.258674 -0.110424 -0.251552 0.087039 -0.134837 0.373775 -0.006194 -0.195283 -0.111445 0.174835 0.018676 -0.063806 -0.028657 -0.003828 -0.074098 -0.013536 -0.046208 0.089410 -0.004643 0.062547 0.047998 0.039077 -0.161859 0.063866 -0.175086 -0.079256 0.067975 0.100085 0.137419 0.104142 -0.326754 0.073217 -0.130850 -0.022271 -0.008686 0.126960 0.159022 -0.071957 0.205464 -0.157508 0.001017 -0.086072 -0.115451 -0.126948 -0.138060 0.025085 -0.157876 0.060264 0.064923 0.169260 -0.022234 -0.024304 -0.057923 0.098725 -0.044315 0.131548 0.132236 -0.011402 -0.097008 -0.111437 -0.161316 0.022840 0.005381 0.117466 -0.013901 0.231303 0.021075 0.015422 0.088482 -0.087736 -0.175456 0.138873 -0.008944 0.097532 0.021030 -0.179356 0.002613
1438673812828175 0.014264 -0.134697 0.324279 0.190009 -0.185364 0.045124 -0.093310 0.035699 -0.117514 0.369858 0.366098 -0.270177 -0.258723 0.237314 0.268908 0.511305 -0.338915 -0.190483 0.162516 -0.338346 -0.086069 0.034045 -0.191211 -0.060295 0.074637 0.327742 0.050204 0.037936 -0.008140 0.003987 -0.147356 -0.062581 -0.038451 -0.264950 -0.038242 0.257065 -0.156960 0.346797 0.200055 0.149748 0.086958 0.178170 -0.338396 0.129766 0.142007 -0.168124 -0.059709 -0.040801 0.101854 0.339922 0.121876 0.278847 -0.130652 -0.259504 0.076368 -0.129532 0.386699 -0.007700 -0.201791 -0.100905 0.180306 0.000131 -0.059782 -0.027175 -0.005429 -0.068030 -0.019078 -0.043843 0.079186 0.009717 0.065660 0.031906 0.047608 -0.161602 0.073640 -0.177234 -0.076251 0.063019 0.092901 0.118434 0.111060 -0.318205 0.076387 -0.117393 -0.015210 -0.006303 0.107497 0.144083 -0.078737 0.189538 -0.142745 -0.000242 -0.085331 -0.108855 -0.123908 -0.148834 0.024532 -0.152795 0.063474 0.061893 0.170705 -0.013175 -0.027609 -0.050281 0.118700 -0.037848 0.114131 0.125358 -0.025177 -0.090601 -0.102586 -0.164126 0.028059 0.010499 0.103998 -0.007515 0.219280 0.007366 0.014815 0.078945 -0.089132 -0.155799 0.110657 -0.014899 0.089661 0.022679 -0.169289 -0.007254
100000567117452 -0.000440 -0.104514 0.296784 0.168920 -0.168517 0.022764 -0.069131 0.030920 -0.096629 0.322457 0.324993 -0.238401 -0.226320 0.200527 0.240552 0.444184 -0.294599 -0.158285 0.133561 -0.302480 -0.071722 0.013647 -0.166991 -0.055860 0.072808 0.286577 0.040711 0.029221 -0.003678 -0.005782 -0.116440 -0.042616 -0.032054 -0.227329 -0.034782 0.233958 -0.127923 0.302289 0.161414 0.134410 0.072003 0.149727 -0.316535 0.103541 0.101226 -0.131547 -0.048996 -0.031405 0.099249 0.312142 0.112445 0.236545 -0.109294 -0.255495 0.065669 -0.112303 0.335600 -0.003711 -0.173542 -0.096615 0.177573 0.005305 -0.056638 -0.029384 -0.014255 -0.059857 -0.007769 -0.048469 0.077045 -0.013113 0.060685 0.041845 0.035478 -0.135942 0.050341 -0.159178 -0.078527 0.059079 0.087438 0.144851 0.087441 -0.293733 0.076405 -0.113226 -0.030391 -0.008519 0.134791 0.148390 -0.060775 0.189643 -0.138296 0.006810 -0.092035 -0.105909 -0.127670 -0.105272 0.010497 -0.137086 0.048255 0.064804 0.155362 -0.021450 -0.012822 -0.046189 0.079456 -0.031453 0.125142 0.117080 0.000694 -0.087802 -0.109189 -0.143178 0.019198 -0.001713 0.090064 -0.002525 0.216111 0.014034 0.013257 0.078442 -0.086001 -0.155850 0.132942 0.000638 0.092355 0.019717 -0.165592 0.002878
1745069082381993 -0.025752 -0.037721 0.270072 0.133837 -0.128093 0.014450 -0.015252 0.019028 -0.077924 0.267226 0.236233 -0.208656 -0.172834 0.140143 0.176781 0.378598 -0.227362 -0.118718 0.114989 -0.246465 -0.065822 -0.015111 -0.133635 -0.022824 0.072015 0.246115 0.021098 0.003187 0.020151 -0.029314 -0.066848 -0.016333 -0.007691 -0.165795 -0.006831 0.216069 -0.083348 0.251929 0.104295 0.113970 0.032017 0.129500 -0.305032 0.078148 0.049272 -0.069487 -0.021761 -0.025882 0.099690 0.270241 0.120634 0.166215 -0.068233 -0.274334 0.027405 -0.069429 0.244599 0.026459 -0.133337 -0.093418 0.187536 0.020462 -0.044377 -0.034268 -0.046793 -0.054184 0.011762 -0.095686 0.077650 -0.070388 0.053722 0.081900 0.010682 -0.097542 -0.014838 -0.116872 -0.076031 0.077727 0.075090 0.203171 0.051239 -0.297327 0.083930 -0.137985 -0.058548 -0.020264 0.215504 0.173860 -0.055970 0.202866 -0.141011 0.029704 -0.115371 -0.121362 -0.127519 -0.018848 0.009665 -0.121922 0.027942 0.067581 0.144555 -0.070655 0.016896 -0.042957 0.026483 -0.040816 0.155263 0.101109 0.058512 -0.083758 -0.128497 -0.109489 0.018270 -0.020526 0.088569 0.001008 0.236464 0.046294 0.027337 0.089007 -0.079640 -0.154167 0.182019 0.015371 0.159070 -0.001591 -0.204855 0.044433
1153878661361467 -0.012751 -0.093467 0.112689 -0.057946 0.148509 0.181277 0.063116 -0.091903 -0.052181 0.123811 -0.059092 -0.162081 -0.253464 0.168578 0.116345 -0.015996 -0.075975 -0.263930 0.044665 -0.202218 -0.108862 0.107185 0.050779 -0.128515 -0.199607 0.027375 0.294645 -0.015984 -0.100235 0.213753 -0.144506 -0.066114 -0.223852 -0.118787 -0.047032 0.016202 -0.146749 -0.060423 0.168513 0.257326 0.123275 0.084729 0.090537 0.066283 -0.001329 -0.018021 -0.087051 0.098210 0.066919 0.084199 -0.169570 0.134840 -0.092202 -0.050916 0.183391 0.212535 0.087893 0.093717 0.162888 -0.016150 -0.116902 -0.127347 -0.245399 0.160905 -0.205053 0.212691 -0.183375 0.122884 -0.160776 0.086286 0.012527 -0.183862 -0.058187 0.490092 0.184926 -0.058611 -0.095627 0.018762 -0.150618 0.262252 0.028719 -0.102548 -0.031283 0.060570 -0.287249 -0.097386 0.376965 0.346964 -0.231950 0.212748 -0.249473 -0.121291 -0.157998 -0.038579 -0.023374 -0.023086 0.152328 -0.043078 -0.227845 0.245237 -0.071137 -0.196415 0.052428 0.008368 -0.172346 -0.282782 -0.034390 0.066147 -0.116167 -0.150560 -0.141409 0.194141 -0.202186 -0.235430 0.224771 0.293851 0.218376 0.156364 -0.019627 0.111635 0.125872 -0.305974 0.075613 0.122575 0.116488 0.057798 -0.266122 0.085699
1799996540222580 -0.050878 0.017624 0.197780 0.088215 -0.079508 -0.011182 0.037222 0.015347 -0.054673 0.187195 0.142497 -0.150322 -0.113218 0.070082 0.111862 0.274444 -0.140120 -0.071011 0.069077 -0.163268 -0.047214 -0.055220 -0.100774 0.005554 0.074439 0.177953 0.001003 0.000337 0.055352 -0.048793 -0.007357 0.017306 0.017518 -0.080699 0.016796 0.199763 -0.035568 0.179061 0.029472 0.079427 -0.012819 0.095005 -0.255353 0.025154 -0.006374 -0.010974 0.009953 -0.014404 0.090981 0.189054 0.104974 0.078999 -0.017344 -0.243474 0.013004 -0.018517 0.138559 0.038794 -0.068720 -0.084909 0.165023 0.052899 -0.032216 -0.022379 -0.056085 -0.040572 0.022734 -0.113245 0.071479 -0.115957 0.038289 0.111554 -0.027566 -0.042057 -0.065731 -0.057587 -0.063457 0.075175 0.063802 0.225031 0.021899 -0.248395 0.068398 -0.138762 -0.076795 -0.032366 0.242482 0.181386 -0.032416 0.184777 -0.139865 0.036672 -0.107058 -0.111660 -0.101312 0.045490 0.015205 -0.079902 0.007196 0.062292 0.110258 -0.098740 0.030967 -0.038569 -0.036548 -0.046645 0.155655 0.075801 0.091177 -0.078005 -0.129954 -0.054473 0.014966 -0.016723 0.081749 -0.002618 0.207708 0.073258 0.031401 0.096200 -0.066801 -0.139619 0.208579 0.041604 0.182253 -0.018857 -0.218184 0.076757
1800077436881157 -0.061577 0.003566 0.218402 0.084225 -0.048940 0.022186 0.044997 0.000681 -0.064502 0.210997 0.143735 -0.174515 -0.159922 0.094500 0.134639 0.265069 -0.160803 -0.115795 0.071312 -0.211761 -0.071533 -0.041264 -0.086490 -0.024055 0.035689 0.177634 0.053080 0.004918 0.041460 -0.016679 -0.034848 0.011456 -0.023308 -0.095696 -0.005754 0.184569 -0.063072 0.159001 0.052924 0.127170 0.014679 0.109150 -0.234489 0.034503 -0.021512 -0.015413 -0.009374 0.011846 0.103140 0.203760 0.068060 0.096670 -0.030160 -0.242147 0.040419 0.013395 0.161746 0.052281 -0.034021 -0.092225 0.143943 0.035064 -0.088818 0.003640 -0.092560 -0.003128 -0.014951 -0.073267 0.050540 -0.101604 0.039328 0.072691 -0.034850 0.046140 -0.024246 -0.073722 -0.088963 0.066197 0.033627 0.278500 0.020717 -0.262901 0.062861 -0.130079 -0.128435 -0.042658 0.313084 0.243670 -0.064590 0.232612 -0.188290 0.018459 -0.130074 -0.115420 -0.113114 0.043105 0.031442 -0.096324 -0.031776 0.117698 0.089801 -0.130107 0.041783 -0.043049 -0.068855 -0.094229 0.148027 0.092659 0.064659 -0.102900 -0.159838 -0.022607 -0.022594 -0.059603 0.121683 0.038700 0.239129 0.091377 0.018875 0.115486 -0.042176 -0.194966 0.226868 0.063798 0.193007 -0.010098 -0.254797 0.083943
1808930162726026 -0.147140 0.113627 0.122252 0.034360 0.030462 -0.058394 0.121429 0.087464 -0.020288 0.142331 0.097381 -0.012739 -0.092285 -0.014250 0.084499 0.213435 -0.087078 -0.028671 -0.028135 -0.157176 -0.075045 -0.133800 -0.076381 0.029686 0.095874 0.145102 0.005035 0.032263 0.145370 -0.092649 0.039185 0.108183 0.023040 0.068699 0.016553 0.165971 -0.030673 0.109412 -0.075343 0.074355 -0.052560 0.065111 -0.238816 -0.102726 -0.162405 0.035039 0.051530 0.045855 0.093907 0.115762 0.108980 -0.057291 0.118605 -0.200548 0.068633 0.025588 0.061658 0.080402 0.045067 -0.151469 0.133040 0.163459 -0.100644 -0.007950 -0.094855 -0.060332 0.015472 -0.108541 0.115532 -0.226067 0.004913 0.185583 -0.102416 0.044203 -0.113036 -0.031490 -0.073499 0.085957 0.070980 0.374148 -0.032603 -0.271208 0.028552 -0.246724 -0.121482 -0.026065 0.398022 0.341027 0.022239 0.284070 -0.254367 0.086958 -0.087842 -0.147363 -0.125435 0.133439 0.042454 -0.088424 -0.052929 0.135309 0.044958 -0.184527 0.065418 -0.073105 -0.183681 -0.128419 0.223383 0.103530 0.122617 -0.103259 -0.188374 0.012974 0.017835 -0.005967 0.139262 -0.056552 0.225586 0.163934 0.018257 0.144368 -0.082337 -0.245122 0.359836 0.106771 0.228442 -0.046499 -0.266749 0.177182
1806382386314137 -0.041672 -0.032161 0.149881 -0.020417 0.079051 0.105440 0.083962 -0.114363 -0.076051 0.109310 -0.074615 -0.194020 -0.168664 0.107229 0.062917 0.008104 -0.033245 -0.179834 0.057440 -0.131257 -0.068546 0.017284 0.045343 -0.086170 -0.137079 0.019195 0.199034 -0.048742 -0.047597 0.130477 -0.043087 -0.051654 -0.138301 -0.095852 -0.003693 0.090706 -0.077067 -0.026259 0.096758 0.190314 0.033687 0.074236 -0.003882 0.067762 0.002809 0.035189 -0.075843 0.058311 0.089824 0.116266 -0.082768 0.106331 -0.078554 -0.158636 0.082996 0.175990 0.037708 0.066131 0.124147 -0.023269 -0.013955 -0.120354 -0.159103 0.111603 -0.172127 0.171583 -0.106465 0.015790 -0.120604 0.001485 0.019656 -0.081726 -0.070344 0.376629 0.052974 -0.000334 -0.093206 0.031508 -0.093028 0.272883 -0.001120 -0.088364 0.016138 0.034090 -0.249304 -0.102361 0.355743 0.276189 -0.148527 0.170666 -0.169435 -0.078180 -0.189492 -0.066435 -0.035508 0.065816 0.081834 -0.025671 -0.179764 0.167811 -0.016161 -0.177292 0.063473 0.022340 -0.159233 -0.188237 0.019118 0.044092 -0.017094 -0.133964 -0.154092 0.163230 -0.154331 -0.178441 0.140267 0.255856 0.232019 0.112192 -0.006720 0.112531 0.089181 -0.207912 0.128118 0.120713 0.203952 0.031548 -0.306262 0.082024
1823940681161499 -0.102208 0.050940 0.188838 0.067280 -0.015434 -0.012272 0.075315 0.059198 -0.040601 0.189306 0.150546 -0.098847 -0.137890 0.052585 0.130865 0.271363 -0.143954 -0.083023 0.031377 -0.205595 -0.080217 -0.074412 -0.093562 -0.001511 0.070885 0.172505 0.034193 0.019078 0.088844 -0.057973 -0.014710 0.061276 -0.001396 -0.020896 0.005552 0.168185 -0.052092 0.152789 0.005315 0.102922 -0.000384 0.083380 -0.238912 -0.029092 -0.084394 0.003655 0.018501 0.028659 0.094615 0.177955 0.097856 0.035276 0.042233 -0.217461 0.061458 0.003078 0.137750 0.058435 -0.020707 -0.127560 0.140232 0.103600 -0.102702 -0.004114 -0.087679 -0.038897 -0.005501 -0.083490 0.091251 -0.159202 0.021714 0.130461 -0.053425 0.035122 -0.056394 -0.076824 -0.075785 0.080062 0.051738 0.313744 0.005105 -0.284790 0.046960 -0.200015 -0.115847 -0.025403 0.340653 0.292771 -0.027152 0.265964 -0.222515 0.055793 -0.096375 -0.128410 -0.125912 0.074308 0.040522 -0.094841 -0.030922 0.128841 0.064423 -0.148916 0.058910 -0.061213 -0.113157 -0.107609 0.183547 0.100755 0.082801 -0.102741 -0.164027 -0.022717 0.005309 -0.032523 0.129886 -0.022503 0.233544 0.133411 0.024922 0.127207 -0.068811 -0.230039 0.284401 0.080942 0.197944 -0.026204 -0.247550 0.127583
100005052426321 -0.032980 -0.016026 0.232392 0.093808 -0.095345 0.014636 0.023428 -0.048899 -0.078638 0.189665 0.120706 -0.213182 -0.134534 0.104289 0.108835 0.231196 -0.139680 -0.105276 0.096394 -0.171132 -0.033195 -0.035367 -0.064582 -0.042706 0.024699 0.137497 0.036773 -0.034696 0.007298 -0.010317 -0.015853 -0.026775 -0.016731 -0.145167 0.001757 0.189063 -0.039219 0.161562 0.083680 0.115813 0.000551 0.101069 -0.220708 0.098343 0.039046 -0.015819 -0.047674 -0.013988 0.104689 0.232074 0.070053 0.152386 -0.085743 -0.278037 -0.011204 0.005714 0.158856 0.026161 -0.066343 -0.061893 0.163416 -0.040930 -0.044055 -0.003278 -0.081034 0.016370 -0.005133 -0.084960 0.018402 -0.070899 0.057569 0.049057 -0.011957 0.023606 -0.031632 -0.055784 -0.088205 0.050170 0.031316 0.209081 0.015182 -0.196840 0.080727 -0.061240 -0.108103 -0.046827 0.233352 0.157040 -0.051053 0.161858 -0.100534 0.003430 -0.159643 -0.091105 -0.099961 0.042919 -0.008991 -0.072007 -0.017382 0.071758 0.110178 -0.083710 0.037772 -0.009521 -0.017971 -0.042576 0.112783 0.065687 0.061725 -0.087764 -0.129542 -0.034661 -0.033068 -0.057886 0.062346 0.078218 0.227136 0.024956 0.028794 0.084372 -0.034267 -0.111740 0.155223 0.048856 0.200028 0.005091 -0.247198 0.044061
1810941749191534 -0.032421 -0.034002 0.272878 0.132823 -0.130571 0.014401 -0.009491 0.007995 -0.079572 0.267661 0.231085 -0.214956 -0.181327 0.148077 0.180098 0.377404 -0.229543 -0.123535 0.111458 -0.248287 -0.067033 -0.016541 -0.136606 -0.022142 0.065138 0.239869 0.028688 0.002695 0.023914 -0.028399 -0.063323 -0.018716 -0.012112 -0.165945 -0.002690 0.219264 -0.077234 0.244663 0.099445 0.120892 0.033135 0.127122 -0.294669 0.074132 0.048286 -0.067328 -0.026420 -0.029255 0.095643 0.264346 0.108972 0.169387 -0.067452 -0.273894 0.023263 -0.060174 0.240547 0.026016 -0.126070 -0.088458 0.180665 0.023259 -0.045972 -0.025665 -0.040600 -0.042599 0.009535 -0.088975 0.075318 -0.070163 0.047427 0.075639 0.004206 -0.085480 -0.012946 -0.109509 -0.076568 0.067844 0.064053 0.190017 0.052258 -0.277368 0.075106 -0.127243 -0.062457 -0.024539 0.202682 0.169213 -0.060968 0.198147 -0.135459 0.023439 -0.107708 -0.107234 -0.117803 -0.019571 0.014815 -0.107141 0.024698 0.068715 0.129078 -0.069281 0.013839 -0.046641 0.023447 -0.036352 0.138486 0.089722 0.051708 -0.080558 -0.119268 -0.096804 0.012407 -0.021850 0.088213 0.003943 0.217716 0.042379 0.026091 0.083480 -0.070306 -0.145615 0.162551 0.017237 0.143918 0.001835 -0.188666 0.038300
190866118021578 -0.134220 0.084665 0.156122 0.037529 0.011570 -0.031599 0.133070 0.010488 -0.060940 0.142949 0.025181 -0.098871 -0.078805 0.013886 0.061765 0.182055 -0.063555 -0.042640 0.007824 -0.115040 -0.062623 -0.122595 -0.056083 0.021110 0.049511 0.113854 0.027236 -0.021300 0.105448 -0.055795 0.051905 0.061013 0.003736 0.030640 0.044832 0.193385 -0.015896 0.095395 -0.055201 0.088105 -0.071718 0.080061 -0.207563 -0.044436 -0.104800 0.061569 0.022227 0.024961 0.104575 0.121842 0.081298 -0.011501 0.065515 -0.240741 0.038532 0.068798 0.025787 0.074003 0.060617 -0.113158 0.130843 0.081212 -0.087582 0.016807 -0.100257 0.001577 0.008875 -0.127737 0.056956 -0.196766 0.025051 0.152681 -0.103219 0.111271 -0.127772 0.013897 -0.076993 0.089136 0.041442 0.347556 -0.031502 -0.225627 0.042961 -0.173547 -0.152338 -0.063068 0.384306 0.313060 -0.009627 0.230696 -0.206186 0.046463 -0.132349 -0.144301 -0.083138 0.155595 0.035905 -0.053129 -0.068656 0.099288 0.050196 -0.188953 0.061639 -0.040842 -0.177186 -0.128868 0.175234 0.065030 0.127771 -0.110168 -0.175776 0.050064 -0.006652 -0.036573 0.117099 0.027959 0.240992 0.139229 0.020668 0.129609 -0.038520 -0.188720 0.312453 0.107856 0.262210 -0.024992 -0.298778 0.148316
190866098021580 -0.146041 0.110123 0.131932 0.027648 0.031520 -0.048104 0.132305 0.057718 -0.039064 0.138959 0.052933 -0.039570 -0.075352 -0.010768 0.060151 0.198529 -0.068331 -0.030276 -0.016872 -0.119376 -0.068735 -0.130825 -0.072679 0.043561 0.079783 0.134264 0.015783 0.009283 0.136693 -0.079597 0.049373 0.090945 0.023405 0.073437 0.046171 0.185434 -0.020504 0.093629 -0.086718 0.070394 -0.063863 0.065366 -0.215220 -0.092923 -0.144964 0.050987 0.046892 0.026377 0.089226 0.097363 0.102483 -0.058173 0.111989 -0.209873 0.053944 0.057681 0.020178 0.081555 0.059431 -0.132912 0.125400 0.136605 -0.093035 0.000832 -0.093017 -0.033375 0.019625 -0.131482 0.086965 -0.225746 0.011967 0.182661 -0.116813 0.077683 -0.137239 0.002064 -0.066383 0.097540 0.058901 0.373701 -0.034143 -0.264443 0.032093 -0.223342 -0.141486 -0.044361 0.403209 0.340378 0.001685 0.257424 -0.238952 0.070231 -0.102034 -0.154103 -0.099418 0.154349 0.054248 -0.068782 -0.062251 0.117266 0.042733 -0.198230 0.066137 -0.064187 -0.191189 -0.140803 0.200336 0.080676 0.136469 -0.113302 -0.179229 0.040339 0.011834 -0.017361 0.139911 -0.018994 0.240124 0.170914 0.019292 0.144805 -0.057787 -0.223151 0.349310 0.107489 0.255683 -0.045650 -0.292244 0.174905
1153797658036234 0.002517 -0.116119 0.079226 -0.086459 0.212081 0.220102 0.063991 -0.068135 -0.048954 0.139119 -0.059604 -0.136939 -0.304133 0.195186 0.144849 -0.012574 -0.096172 -0.312585 0.041635 -0.235918 -0.144758 0.150260 0.049874 -0.129210 -0.225436 0.067026 0.357912 0.024585 -0.108238 0.256074 -0.198428 -0.071425 -0.271860 -0.102434 -0.051287 -0.022998 -0.189798 -0.072182 0.190584 0.294594 0.164813 0.091700 0.120538 0.035338 -0.011837 -0.042731 -0.062393 0.114884 0.056560 0.059515 -0.206891 0.126415 -0.068187 0.012422 0.256347 0.241067 0.106593 0.113451 0.189833 -0.025381 -0.185351 -0.093246 -0.300504 0.189905 -0.226387 0.238226 -0.224308 0.162023 -0.170908 0.112294 -0.007475 -0.215503 -0.070181 0.563385 0.238408 -0.082180 -0.089388 0.032308 -0.182882 0.288689 0.047388 -0.138909 -0.060037 0.037258 -0.319084 -0.095730 0.427989 0.421818 -0.286587 0.260535 -0.328526 -0.137884 -0.134576 -0.045279 -0.019001 -0.062322 0.229935 -0.069728 -0.264719 0.299421 -0.098680 -0.242515 0.053943 -0.015323 -0.206664 -0.366684 -0.043142 0.086077 -0.154833 -0.181194 -0.162358 0.233652 -0.223223 -0.263279 0.299765 0.312987 0.233781 0.230402 -0.036148 0.137585 0.142474 -0.402179 0.089777 0.131925 0.095187 0.053812 -0.265058 0.108180
565849417 0.005174 -0.121761 0.088724 -0.080164 0.208731 0.217162 0.064094 -0.054382 -0.043251 0.143948 -0.034167 -0.126710 -0.311705 0.204855 0.158307 0.014237 -0.103621 -0.310915 0.034612 -0.242968 -0.144116 0.163900 0.034889 -0.122927 -0.214886 0.088581 0.352398 0.033173 -0.104260 0.257892 -0.204499 -0.062210 -0.266897 -0.108002 -0.054409 -0.021738 -0.199182 -0.059965 0.187630 0.287546 0.177648 0.099788 0.112804 0.038197 -0.007111 -0.057457 -0.060438 0.110701 0.041522 0.054088 -0.205509 0.127121 -0.066768 0.034378 0.271646 0.225226 0.124004 0.121553 0.168238 -0.027477 -0.181879 -0.081824 -0.301539 0.179390 -0.213664 0.222657 -0.224675 0.165060 -0.159766 0.113516 -0.009348 -0.218622 -0.071126 0.535829 0.252683 -0.094273 -0.082262 0.033024 -0.172026 0.271472 0.051466 -0.157073 -0.070363 0.015095 -0.303940 -0.081151 0.412146 0.419447 -0.285815 0.266724 -0.340610 -0.133587 -0.128377 -0.046278 -0.018360 -0.072305 0.238694 -0.075226 -0.252561 0.301659 -0.093402 -0.240785 0.043828 -0.021826 -0.185678 -0.368459 -0.042678 0.091504 -0.162184 -0.177160 -0.159843 0.212304 -0.213386 -0.259763 0.307614 0.293578 0.233654 0.234401 -0.035630 0.125309 0.131029 -0.408119 0.082805 0.127099 0.081200 0.050509 -0.257747 0.109144
1170003323079675 -0.069071 0.019447 0.209422 0.047444 -0.051212 0.010345 0.074380 -0.111519 -0.086056 0.128060 -0.019764 -0.232812 -0.069289 0.048838 0.040428 0.106144 -0.038767 -0.063057 0.068990 -0.082955 -0.011147 -0.085770 -0.010984 -0.035142 -0.018794 0.052013 0.044996 -0.078986 0.012397 0.013098 0.047032 -0.020105 -0.018135 -0.093787 0.030357 0.200005 -0.002251 0.087983 0.029946 0.108361 -0.064820 0.086370 -0.164171 0.084311 0.019020 0.052237 -0.062907 -0.000104 0.117276 0.188465 0.048360 0.120033 -0.073799 -0.316401 -0.039910 0.083535 0.045774 0.034778 0.028724 -0.053593 0.153438 -0.087343 -0.046078 0.033265 -0.115468 0.073472 -0.006485 -0.110140 -0.030564 -0.093166 0.056155 0.049995 -0.051207 0.149953 -0.080617 0.021813 -0.087331 0.053731 0.007241 0.255191 -0.017283 -0.129150 0.078603 -0.015365 -0.173377 -0.085913 0.301502 0.178789 -0.052886 0.135981 -0.087936 -0.014254 -0.210868 -0.108593 -0.068038 0.122737 -0.021404 -0.028821 -0.071389 0.060384 0.086201 -0.125620 0.047738 0.011494 -0.091864 -0.051323 0.102001 0.030646 0.098555 -0.100534 -0.148015 0.048262 -0.071056 -0.086115 0.053444 0.154604 0.252689 0.032426 0.021135 0.100679 0.004887 -0.089620 0.193319 0.091186 0.274145 0.011833 -0.325030 0.070938
