188 128
241317679288411 0.059219 0.106674 0.103252 0.215593 0.119486 0.326953 -0.560512 -0.209867 0.254793 -0.273633 0.029427 -0.014312 0.028925 0.033423 -0.049139 -0.137245 -0.082558 -0.256784 0.133177 -0.183218 0.162777 0.076792 -0.162254 -0.231987 0.080292 0.418228 -0.120350 -0.400920 0.251995 0.073498 0.157191 -0.048113 0.033530 -0.399945 -0.046969 -0.113849 0.454311 -0.317889 -0.039889 0.180779 -0.136185 0.257025 0.030215 0.305790 -0.312968 0.286362 0.294671 0.095681 0.508256 -0.355025 -0.136314 -0.224095 -0.047578 0.154806 -0.058741 -0.162456 -0.011570 0.173865 0.154003 -0.395576 0.380295 -0.070397 0.178697 0.758876 -0.010359 -0.266453 -0.029532 -0.219037 -0.298755 -0.032779 0.191604 -0.229429 0.127620 0.045953 -0.176648 -0.349414 0.661405 0.461135 0.196251 -0.004045 -0.033104 -0.555222 0.252456 -0.147131 -0.033392 -0.148845 -0.395059 0.090011 0.315781 0.054001 -0.038089 0.096765 -0.164146 0.240238 0.140512 -0.310550 -0.263521 0.389625 -0.032164 0.180994 0.330376 -0.065305 0.269076 0.290850 -0.224180 -0.354556 0.375120 -0.036481 0.310333 0.183584 -0.489440 0.050395 0.348541 -0.534738 -0.288689 0.205531 -0.401422 0.110538 -0.073850 0.185026 -0.426764 -0.184930 -0.245785 0.656273 -0.330441 0.020297 0.074556 0.237683
179609608748134 0.146778 -0.017719 0.161648 0.021072 -0.116376 0.239513 -0.411333 0.051663 0.069522 0.162174 -0.037211 -0.223930 0.038982 0.282740 -0.278558 -0.227516 -0.080270 -0.064659 -0.602908 -0.229678 -0.042913 0.053405 -0.017932 -0.133846 0.433862 0.178814 -0.216530 0.127682 -0.256479 0.492938 0.208475 -0.301636 -0.040020 -0.489063 0.183503 0.727835 -0.061532 0.238502 -0.061357 -0.665644 -0.215013 -0.011655 0.205182 -0.030674 -0.182867 0.226561 0.320551 0.334223 0.077744 0.205632 -0.327386 0.099515 -0.229268 -0.133859 -0.109412 -0.029936 -0.114258 0.136782 -0.175229 -0.007234 -0.193577 -0.167889 0.148686 -0.098713 0.149114 -0.006084 0.224285 0.011750 -0.206995 -0.054516 -0.150599 -0.243784 0.234318 0.340106 -0.204315 -0.148642 -0.167249 -0.194309 -0.007896 0.076125 0.052288 -0.197546 -0.230328 0.073445 -0.074559 0.016505 -0.138984 0.163296 0.051855 0.304627 0.169532 0.115625 0.489186 -0.128635 0.215484 0.065209 0.288710 0.238364 -0.076789 -0.109286 0.016985 0.039773 -0.103643 0.226559 0.123606 0.012052 0.173862 -0.076594 -0.040284 0.267681 -0.130460 -0.218580 -0.096692 0.053778 0.284119 0.074746 0.105331 0.082725 0.300285 -0.033742 0.024076 -0.096874 -0.423635 0.145244 -0.157915 0.034376 -0.032033 -0.050352
113791238657176 0.064630 -0.096316 0.031061 -0.018747 0.079093 0.141086 -0.307236 -0.063321 0.055929 0.114888 -0.100555 -0.171802 0.048778 0.235813 -0.105975 -0.164858 -0.131506 -0.029772 -0.315910 -0.129961 0.120313 -0.163170 -0.117060 -0.145961 0.147789 0.060984 -0.215017 0.158920 -0.211562 0.240283 0.156261 -0.296158 -0.094267 -0.254449 -0.025753 0.512626 -0.093393 0.128536 -0.012985 -0.344073 -0.098875 0.060331 0.116355 0.122511 -0.030631 0.267240 0.150984 0.184079 0.093157 0.194169 -0.227777 0.180984 -0.145033 -0.228563 0.147885 0.153386 -0.047230 -0.000098 -0.077099 -0.281282 0.074141 -0.210539 0.345014 -0.105141 0.259727 0.067985 0.119360 0.210203 -0.072083 0.023522 -0.271237 -0.046250 0.231525 0.522593 -0.474136 -0.005398 0.211421 -0.115228 -0.062754 -0.070629 -0.126935 -0.088288 0.099496 0.404966 -0.024691 0.003552 0.055867 -0.143111 0.053371 0.289356 0.237827 0.012518 0.356100 -0.136898 0.017867 -0.178450 0.234952 0.024820 -0.302095 -0.074998 0.111325 0.061411 0.039920 0.169728 0.131251 0.029707 0.256534 0.021661 -0.188726 0.183406 -0.142724 -0.256406 -0.093035 -0.083785 0.340681 -0.001906 0.021028 0.022924 0.225046 -0.136331 0.025045 -0.049198 -0.108348 0.073069 0.045947 0.083902 -0.054444 -0.172598
151271931596606 -0.016164 -0.101017 0.077681 -0.027898 0.092195 0.135243 -0.231927 0.032921 0.070264 0.141646 -0.033486 -0.172604 0.156258 0.213627 -0.196687 -0.150880 -0.086768 -0.007213 -0.373611 -0.066706 0.228673 -0.176300 -0.145382 -0.147352 0.196510 0.148549 -0.196101 0.111110 -0.294758 0.308786 0.156077 -0.238457 -0.052172 -0.293763 0.015283 0.590729 -0.108290 -0.012281 -0.080220 -0.304136 -0.072632 0.146871 0.087864 0.206914 0.021912 0.322543 0.217404 0.165309 0.069996 0.055776 -0.297939 0.193521 -0.112327 -0.256756 0.132955 0.219299 -0.001886 -0.076126 0.000038 -0.436895 0.121998 -0.121382 0.347133 -0.146434 0.296336 0.057485 0.100783 0.112528 0.063018 0.001577 -0.175287 0.038572 0.105684 0.439613 -0.368769 -0.048338 0.406885 -0.030217 0.286062 0.023695 -0.068226 0.000233 0.098426 0.174465 -0.129359 -0.067745 0.156923 -0.112418 0.005745 0.167787 0.165532 0.048332 0.212347 -0.193298 -0.040079 -0.247388 0.140662 -0.007674 -0.152903 -0.044186 0.083436 -0.019085 0.043388 0.099384 0.151184 0.052125 0.178107 0.128942 -0.263540 0.083085 -0.147160 -0.127558 -0.032243 -0.221570 0.163274 0.114767 -0.078588 -0.030833 0.129364 -0.032240 0.063183 -0.009430 -0.005963 -0.094948 -0.034003 0.140982 -0.101149 -0.259991
160729029892 0.230104 -0.092006 -0.029485 -0.041175 -0.060724 0.444366 -0.403898 -0.116445 0.144826 -0.068545 -0.312578 -0.118598 0.141024 0.369282 -0.058662 -0.275162 0.039652 0.316779 -0.327081 -0.117610 0.337483 0.007246 -0.218558 -0.112933 0.269597 0.030760 -0.063628 0.051120 -0.276616 0.295564 -0.239979 -0.308862 -0.048385 -0.309949 0.150412 0.363214 -0.102390 0.012610 0.104600 -0.252571 0.110811 0.095988 0.248410 -0.153888 0.045658 0.010691 -0.092532 0.176342 -0.030910 0.147490 -0.079991 -0.048134 -0.049366 -0.290642 -0.021140 0.073573 0.284865 -0.024713 -0.102377 -0.069168 -0.256795 -0.132184 0.104910 -0.113955 -0.072915 -0.006200 0.229364 0.345471 0.097495 -0.001378 -0.306977 -0.376514 0.277940 0.377063 -0.363015 -0.214834 0.072188 -0.056029 -0.242935 -0.156301 -0.015509 -0.054764 -0.142380 0.066794 -0.073163 -0.155337 -0.202309 -0.127167 0.249397 0.429805 0.439623 -0.242315 0.274132 -0.376084 -0.163791 -0.063207 0.026413 -0.075035 -0.449704 0.077476 0.299199 0.024133 0.240731 0.208064 -0.039826 0.047206 0.402794 -0.127499 0.185775 0.322975 -0.250456 -0.129441 -0.111306 -0.176486 0.381568 0.031759 -0.361340 0.235807 0.570835 -0.234274 -0.277474 0.051230 -0.440013 0.459123 0.109816 0.123845 -0.451829 0.230002
132793980083965 -0.088968 -0.267308 0.115201 0.005728 0.331592 0.292309 -0.382654 -0.164251 0.163092 -0.043380 -0.294046 -0.308885 0.035795 0.385879 -0.120868 -0.304688 -0.240191 -0.063416 -0.374045 -0.062330 0.297333 0.003781 -0.239150 -0.162199 0.207842 0.213009 -0.071125 0.068005 -0.252747 0.431034 0.098341 -0.244836 -0.023862 -0.252238 -0.102750 0.411656 -0.024965 0.014331 -0.098386 -0.263990 -0.064238 0.123822 -0.059468 0.117035 0.091466 0.315640 0.256265 0.076179 0.092825 0.051899 -0.119232 0.102845 0.036359 -0.162617 0.120909 0.214725 0.076446 0.029056 -0.140632 -0.516468 -0.105097 -0.245106 0.426479 -0.195891 0.116436 -0.042673 -0.015984 0.228117 0.065801 0.158554 -0.329049 -0.084206 0.426759 0.565377 -0.240525 -0.038874 0.319367 -0.078067 0.108269 -0.113439 -0.061170 -0.133258 0.135567 0.392025 0.191139 -0.095376 0.115589 -0.256421 0.027825 0.380506 0.160416 0.175422 0.233955 -0.172458 -0.053586 -0.199892 0.262352 0.040346 -0.445765 -0.070044 0.255565 -0.133680 0.011773 0.075351 0.398254 0.114854 0.048495 -0.275848 -0.007455 0.116494 0.144295 -0.092779 -0.116899 -0.137950 0.150392 -0.039630 -0.128839 0.012811 0.209863 -0.035408 0.033217 0.323075 -0.000256 -0.197687 -0.058062 0.138685 -0.144936 -0.068888
165780076805908 0.003819 -0.103173 -0.133109 0.089365 0.263770 0.017736 -0.214560 -0.112972 -0.036814 0.243478 -0.128472 -0.172015 0.390637 0.482623 -0.032011 -0.143981 -0.010131 -0.147730 -0.566445 -0.058781 0.390252 -0.090728 -0.245601 -0.366377 0.171567 0.124443 -0.244676 -0.051547 -0.223312 0.304969 0.043115 -0.324457 0.001776 -0.449848 -0.119719 0.427693 -0.031764 -0.161891 -0.036048 -0.161857 0.047906 0.155837 0.030010 0.267411 0.101485 0.250694 0.082861 0.127021 0.100467 -0.107681 -0.057316 0.058042 -0.003094 -0.222619 0.244688 0.321965 0.059912 -0.078650 -0.024900 -0.296413 0.061721 0.053858 0.132556 -0.192285 0.346962 0.015920 -0.002548 -0.026445 0.200727 -0.068995 -0.126644 0.104200 0.222579 0.448321 -0.381293 -0.167547 0.633479 0.093970 0.599830 0.148853 0.041328 -0.128040 0.088356 -0.146057 -0.197046 -0.270967 0.304763 -0.226794 -0.120755 0.202762 0.242514 -0.067785 0.234746 -0.274201 -0.066954 -0.575847 0.006673 0.081322 -0.078922 0.103750 0.021148 -0.078653 0.090112 0.268109 0.116177 0.118598 0.343440 0.265903 -0.318507 -0.018426 -0.076586 0.133520 0.121154 -0.658728 0.260074 0.342699 -0.367324 -0.053092 0.219854 -0.103588 -0.080852 -0.148015 -0.066233 -0.064089 -0.030025 0.284920 -0.148156 -0.383046
256265171166458 0.011088 -0.046679 -0.131880 0.099298 0.254281 0.132681 -0.325237 -0.172758 -0.025372 0.162290 -0.120325 -0.166383 0.353568 0.461895 -0.080517 -0.152223 0.002039 -0.178537 -0.489206 -0.090137 0.410667 -0.018272 -0.237325 -0.391862 0.252958 0.151772 -0.240609 0.022302 -0.157800 0.309634 0.052580 -0.422754 0.042923 -0.510492 -0.127023 0.490648 0.017810 -0.191287 -0.017515 -0.194391 0.109679 0.144505 0.040829 0.373590 0.105482 0.255847 0.123523 0.137581 0.148014 -0.041966 -0.019681 0.058628 -0.051414 -0.194415 0.279381 0.320356 0.080703 -0.077145 -0.015305 -0.273926 0.023759 -0.031896 0.123146 -0.178395 0.372590 0.027142 -0.024435 -0.017047 0.213319 -0.064060 -0.106571 0.051362 0.168064 0.315862 -0.272416 -0.095488 0.567262 0.134489 0.598456 0.172784 0.102808 -0.052055 0.055141 -0.141319 -0.123688 -0.204305 0.301295 -0.193526 -0.180405 0.145812 0.176317 -0.121800 0.067445 -0.301475 -0.146180 -0.443441 0.033757 -0.014860 -0.075598 0.162678 0.030178 -0.097817 0.078489 0.190976 0.147527 0.197613 0.232941 0.231886 -0.225905 -0.055229 -0.069515 0.173018 0.022894 -0.567107 0.236137 0.300151 -0.353885 -0.069293 0.204685 -0.146875 -0.048551 -0.087610 -0.013298 -0.088608 0.006887 0.216732 -0.157340 -0.378772
369904272838 0.106739 0.053375 0.056755 0.035801 -0.073197 0.456315 -0.595018 -0.012436 0.174033 0.112854 -0.007502 -0.216144 0.504864 0.098886 -0.445229 -0.119876 0.110264 0.082446 -0.452473 0.251499 0.229623 -0.255038 -0.179627 -0.325216 0.237848 0.325468 -0.249894 0.077961 -0.288742 0.389183 -0.007137 -0.159672 0.017071 -0.231344 0.253788 0.641808 -0.265741 -0.211069 -0.175452 -0.189277 -0.225622 0.252931 0.169035 0.185648 0.135921 0.032347 0.204895 -0.149422 -0.237141 0.027777 -0.502674 0.171045 -0.043906 -0.589561 -0.180640 -0.079590 0.424492 -0.146674 -0.013128 -0.311411 0.352089 0.093441 0.211109 0.281640 -0.090444 0.106455 0.611643 0.266200 -0.028495 -0.035484 -0.140751 -0.067600 -0.260089 0.574212 -0.251947 -0.219378 0.288207 0.092275 0.232837 -0.166195 -0.085683 0.153824 -0.205107 0.158761 -0.390992 -0.030814 0.064850 -0.012688 0.262895 0.173682 0.383989 0.066311 0.387417 -0.120085 -0.067470 -0.526002 0.076884 -0.022087 -0.067038 -0.169614 -0.181726 -0.034995 0.575225 -0.106329 -0.345226 -0.070909 0.113798 0.313829 -0.122230 0.388366 -0.432159 -0.351842 0.083716 -0.051974 0.283477 0.103205 0.032975 0.212927 0.097696 0.175162 -0.193246 -0.128462 -0.074018 0.229768 -0.135655 0.252832 -0.178943 0.200911
120435151326642 -0.030315 -0.147853 0.020595 0.002563 0.239381 0.177437 -0.252436 -0.086545 0.147061 0.042355 -0.103182 -0.109534 -0.035481 0.215291 0.033235 -0.112791 -0.067572 0.016186 -0.153248 -0.197770 0.334035 -0.128094 -0.183979 -0.000895 -0.035710 0.098887 -0.062907 -0.010877 -0.200263 0.145038 0.119830 -0.141519 -0.007808 -0.151272 -0.062779 0.354140 0.004061 -0.072671 0.012366 -0.109621 -0.000244 0.222487 0.011887 0.207042 -0.096327 0.438877 0.165333 0.239357 0.166975 0.011667 -0.150013 0.095734 -0.103986 -0.058346 0.110399 0.035088 -0.136671 0.036811 0.129418 -0.482213 0.093985 -0.141071 0.365359 -0.154355 0.284501 -0.004690 0.042282 0.111641 -0.094791 -0.027183 -0.155771 -0.109367 0.271569 0.298255 -0.417338 0.086285 0.389135 0.019372 -0.019951 -0.040506 -0.171132 -0.063868 0.331725 0.283839 -0.029921 0.026937 -0.055628 -0.187360 0.165794 0.124711 0.126118 -0.017115 0.105150 -0.086445 -0.040636 -0.083207 0.088435 0.040938 -0.298156 -0.009632 0.213562 0.064363 -0.128839 0.090532 0.233075 -0.045860 0.263342 -0.243133 -0.052715 0.029946 -0.071468 -0.226350 -0.019298 -0.117334 -0.090345 -0.066152 -0.154437 0.025569 0.143134 0.103669 0.000754 0.029623 -0.061282 -0.013537 -0.002501 0.121812 -0.055057 -0.200480
432321240139148 -0.030862 -0.258492 -0.035179 0.054275 0.392548 0.321085 -0.520211 -0.193594 0.105300 0.084961 -0.191846 -0.212180 0.065583 0.267652 -0.174349 -0.234669 -0.284544 -0.196592 -0.276307 0.010064 0.219186 -0.140191 -0.303583 -0.159327 0.056634 0.207225 -0.241621 0.056661 -0.179354 0.266314 0.238954 -0.332943 -0.074390 -0.020732 -0.088737 0.397626 -0.084519 0.067319 0.017795 -0.199361 -0.091355 0.177461 -0.045247 0.312705 0.071863 0.405279 0.221328 0.053848 0.122328 0.131279 -0.234508 0.266745 0.003803 -0.042591 0.133102 0.098487 -0.044920 0.019007 0.003561 -0.368730 0.190377 -0.187574 0.397324 0.050500 0.176277 0.034942 -0.070245 0.026098 0.011525 0.113943 -0.218355 0.093741 0.171135 0.417611 -0.308499 0.010953 0.383876 -0.064375 0.013386 -0.149625 -0.141041 -0.015643 0.237697 0.441652 -0.026743 -0.058008 0.211140 -0.245289 0.020698 0.193837 0.071671 0.119483 0.149766 -0.043553 -0.031374 -0.181717 0.147534 -0.013654 -0.261549 -0.112426 0.169855 -0.047420 0.115402 0.135565 0.301826 -0.072791 0.136750 -0.192081 -0.113434 0.109212 -0.056166 -0.186784 -0.008617 -0.121158 0.138074 -0.038799 -0.035717 0.025166 0.132660 -0.036291 -0.053295 0.159885 -0.047728 0.038607 -0.054559 0.154412 -0.002833 -0.126732
167635259953475 -0.006589 -0.178061 -0.084244 -0.002251 0.282367 0.229404 -0.335812 -0.091408 0.078945 0.091374 -0.170380 -0.129581 0.045738 0.254894 -0.117794 -0.179282 -0.177191 -0.122097 -0.216120 -0.014888 0.262185 -0.102040 -0.240297 -0.129254 0.056855 0.131294 -0.141665 0.065457 -0.138345 0.198374 0.139370 -0.304547 -0.021729 -0.078922 0.007313 0.347950 -0.109827 0.003082 0.062090 -0.205583 -0.021010 0.159603 0.024195 0.253822 0.082882 0.351369 0.138632 0.171275 0.118695 0.128832 -0.235343 0.312068 -0.025370 -0.113350 0.169182 0.136405 0.001403 -0.044925 0.048833 -0.339429 0.122352 -0.217096 0.376837 -0.046078 0.256351 0.040264 -0.028692 0.062696 0.050149 0.081608 -0.195020 0.007635 0.241364 0.349022 -0.362494 0.004926 0.410720 -0.048902 0.076379 -0.081608 -0.116512 -0.023449 0.230963 0.327399 -0.016003 -0.056085 0.221521 -0.227074 0.040351 0.240387 0.163670 0.031601 0.115707 -0.150902 -0.083222 -0.118483 0.095836 -0.038940 -0.295664 0.004982 0.201350 -0.028941 0.096390 0.133812 0.397025 -0.056573 0.219202 -0.080386 -0.050946 0.088785 -0.128246 -0.196313 -0.079172 -0.161767 0.243469 0.017977 -0.081180 0.058585 0.197862 -0.051584 -0.102928 0.146830 -0.090840 0.069160 0.008699 0.195894 -0.118802 -0.197320
1667630436831222 -0.056859 -0.237066 -0.053772 0.034388 0.441977 0.257486 -0.339322 -0.124533 0.124766 -0.056601 -0.208721 -0.249128 -0.014060 0.361040 -0.106097 -0.217304 -0.258910 -0.199046 -0.246198 0.009403 0.297206 -0.015410 -0.287682 -0.128625 0.032160 0.220334 -0.093125 0.062578 -0.099696 0.258217 0.162587 -0.276536 -0.073461 -0.048715 -0.028738 0.275501 0.000011 -0.058487 -0.046377 -0.124380 -0.111298 0.159766 -0.086634 0.182771 0.109931 0.323092 0.181366 0.186827 0.142929 0.039170 -0.197333 0.165843 0.088500 -0.101732 0.094231 0.109040 -0.040137 -0.037222 -0.032966 -0.351850 0.078613 -0.231106 0.346298 0.026493 0.160994 -0.059558 -0.094035 0.086240 0.079117 0.125637 -0.211535 0.067001 0.342709 0.430716 -0.320804 -0.037292 0.405491 -0.036945 0.040334 -0.104701 -0.138678 -0.137572 0.280682 0.408847 0.119559 -0.038300 0.165452 -0.283006 -0.051750 0.297946 0.120868 0.150399 0.073289 -0.066488 -0.048744 -0.148919 0.124053 0.085795 -0.381274 -0.030390 0.259838 -0.106122 0.034468 0.144549 0.424353 -0.031825 0.120783 -0.233932 -0.011597 0.062452 -0.050694 -0.137608 -0.070962 -0.113617 0.139473 0.003272 -0.067093 0.084726 0.206277 0.007131 -0.094569 0.244276 -0.079305 -0.003882 -0.076397 0.204775 -0.098212 -0.159128
1742013332726265 -0.052502 -0.160573 -0.039142 0.038548 0.319886 0.214359 -0.380783 -0.165544 0.056280 0.078882 -0.147299 -0.182631 0.106043 0.275864 -0.084800 -0.168022 -0.152255 -0.161204 -0.277363 -0.031990 0.253916 -0.094713 -0.234670 -0.190254 0.090336 0.180627 -0.172101 0.062901 -0.163300 0.272023 0.186359 -0.299194 -0.016006 -0.142155 -0.097464 0.399600 -0.032743 -0.030601 -0.006827 -0.168952 -0.025785 0.161489 -0.050059 0.322925 0.063234 0.371080 0.202138 0.088912 0.120140 0.053617 -0.120273 0.196285 -0.033251 -0.103022 0.185053 0.180764 -0.041831 -0.021292 0.001104 -0.380190 0.128024 -0.157899 0.315461 -0.079006 0.265138 0.033965 -0.014852 0.043295 0.063924 0.055395 -0.191243 0.052892 0.173517 0.357333 -0.278586 0.032772 0.404995 0.007940 0.159015 -0.039957 -0.077926 -0.015307 0.214486 0.283587 -0.011677 -0.018895 0.192576 -0.209482 -0.030861 0.161711 0.091156 0.041073 0.105090 -0.126475 -0.053560 -0.189860 0.134274 -0.011633 -0.235073 -0.021636 0.162775 -0.039430 0.074934 0.135407 0.251710 0.044073 0.186069 -0.089715 -0.113933 0.081440 -0.065587 -0.112104 -0.025417 -0.235652 0.168552 0.048830 -0.136493 0.013283 0.196865 -0.061656 -0.012140 0.109848 -0.040684 -0.050616 -0.011421 0.167284 -0.057997 -0.215505
1730669957193936 -0.047794 -0.183881 -0.018984 0.012061 0.293185 0.217022 -0.366934 -0.136285 0.101069 0.088106 -0.174479 -0.198500 0.075110 0.261357 -0.098263 -0.179968 -0.150059 -0.089010 -0.284817 -0.017664 0.235302 -0.142012 -0.223685 -0.125928 0.042755 0.164297 -0.150543 0.068109 -0.202020 0.275613 0.163565 -0.240256 -0.036929 -0.107524 -0.059324 0.447574 -0.069092 0.006608 -0.006196 -0.218103 -0.067589 0.188699 -0.014178 0.246995 0.036183 0.375968 0.202296 0.112118 0.084824 0.099189 -0.179721 0.222929 -0.033202 -0.151724 0.109878 0.115181 -0.021355 0.004479 -0.003940 -0.388702 0.123302 -0.151908 0.348980 -0.093988 0.200848 0.047454 0.065517 0.117602 0.001498 0.057196 -0.232592 0.019479 0.189443 0.417421 -0.317219 0.039405 0.330411 -0.042947 0.036333 -0.106272 -0.128001 -0.013339 0.212595 0.354576 -0.030057 0.006804 0.138268 -0.219253 0.059425 0.182770 0.137147 0.066817 0.200146 -0.090277 -0.025557 -0.187524 0.169645 0.005869 -0.272399 -0.081946 0.147868 -0.012840 0.070014 0.110648 0.230763 -0.009964 0.200779 -0.131172 -0.112249 0.130119 -0.071813 -0.205070 -0.018669 -0.158003 0.161804 -0.012684 -0.087156 0.062075 0.226575 -0.014162 -0.034143 0.096782 -0.071922 -0.019600 -0.013514 0.196632 -0.060379 -0.151473
100000091688605 0.241898 0.221624 0.120165 0.472167 0.124807 0.498840 -0.566950 -0.195664 0.433380 -0.277165 -0.155514 0.103194 0.192993 0.016859 -0.084869 -0.353219 0.043824 -0.351023 -0.031152 -0.220532 -0.019763 0.269812 -0.121909 -0.235335 0.144519 0.531876 0.069477 -0.568310 0.343143 0.062230 0.166586 -0.317451 0.256855 -0.647683 0.123695 -0.253732 0.269470 -0.410599 0.073425 0.067837 -0.011652 0.152371 0.044079 0.405252 -0.292170 0.186826 0.529697 0.010853 0.630369 -0.193779 -0.116938 0.035377 -0.042746 0.278483 -0.028486 -0.018686 0.199222 0.075779 0.197821 -0.509729 0.183574 -0.166078 0.009733 0.620209 0.043737 -0.071112 0.171164 -0.439416 -0.276212 0.051664 0.215076 -0.293904 0.283900 -0.251648 -0.059963 -0.356367 0.778027 0.560412 0.379805 0.046481 0.158131 -0.908601 0.282598 -0.358482 0.085231 -0.193082 -0.300388 0.344301 0.563832 0.132000 -0.003075 0.212666 -0.020771 0.129265 0.375877 -0.144169 -0.247188 0.249429 -0.145699 0.477441 0.199629 -0.182371 0.280875 -0.041438 -0.022847 -0.559548 0.298389 0.135581 0.551203 0.093261 -0.415636 0.180156 0.225813 -0.566872 -0.031912 0.148405 -0.264039 0.156553 -0.093027 -0.001263 -0.550770 0.023576 -0.313384 0.645159 -0.165804 0.061018 0.120744 0.300837
151600248227631 0.169934 -0.063121 -0.331344 -0.017365 0.265765 0.128521 -0.252383 0.122827 0.152908 -0.298393 -0.068451 -0.119984 -0.149043 0.261816 -0.184547 -0.112258 -0.307693 -0.319031 -0.036034 0.080908 0.296164 -0.143385 -0.180950 -0.180241 -0.004546 0.269216 -0.077162 0.127914 0.133903 0.083411 0.148486 -0.326925 -0.237653 -0.063709 0.139619 0.254616 0.045908 -0.018220 -0.087829 -0.125414 -0.137128 0.158624 0.111895 0.148357 0.197800 0.110845 0.057530 0.452245 0.312578 0.083599 -0.464077 0.185522 0.043297 -0.310030 0.196425 0.047558 0.003813 -0.135811 -0.019840 -0.180575 0.280860 -0.346328 0.281972 0.466167 0.268078 -0.019113 -0.075587 0.235274 0.002200 -0.000093 -0.040654 0.228026 0.273986 0.536890 -0.548422 -0.150039 0.466808 -0.032494 0.130791 0.077808 -0.138477 -0.288886 0.205040 0.443225 0.044762 -0.045173 0.298114 -0.327598 -0.213460 0.472186 0.245782 0.122053 0.001378 -0.071488 -0.135277 -0.376694 -0.063151 0.247034 -0.401335 -0.011602 0.359165 -0.083027 0.128777 0.190283 0.610313 -0.053924 0.116961 0.080389 -0.017951 -0.053612 -0.259731 -0.316329 -0.124998 -0.109354 0.367259 0.060389 0.109516 0.083153 0.130284 0.002934 -0.125771 0.057301 -0.020969 0.154368 -0.002605 0.285475 -0.128175 -0.348575
1741455746115357 -0.120532 -0.215037 0.124332 0.044675 0.311076 0.227380 -0.389341 -0.116523 0.117865 0.094769 -0.100122 -0.220463 0.081587 0.196634 -0.132427 -0.146073 -0.145024 -0.137928 -0.341199 -0.096579 0.276829 -0.183428 -0.198129 -0.106682 0.024517 0.268102 -0.159483 -0.010959 -0.269168 0.314846 0.253228 -0.104656 -0.004069 -0.042765 -0.098662 0.360139 -0.008541 0.005424 -0.079803 -0.119214 -0.053050 0.157469 -0.147193 0.194149 -0.032018 0.381869 0.210907 0.028920 0.028536 0.027107 -0.097549 0.141425 -0.060480 -0.046245 0.064849 0.045514 -0.139235 0.087409 0.025414 -0.459581 0.126566 -0.089887 0.345790 -0.149750 0.261988 0.019157 0.036009 0.097834 -0.051550 0.056642 -0.243701 -0.022329 0.236865 0.486622 -0.350815 0.070792 0.390435 -0.082834 0.099390 -0.057666 -0.136073 0.022350 0.253323 0.367547 -0.070095 0.001132 0.101538 -0.223324 0.083230 0.164308 0.077562 0.160150 0.253246 -0.046802 -0.027412 -0.188324 0.239061 0.035134 -0.284698 -0.180026 0.175589 0.005591 -0.015029 0.102179 0.266079 -0.005006 0.192105 -0.243683 -0.141510 0.175164 -0.034703 -0.251115 0.011140 -0.138979 -0.029805 -0.031104 -0.121194 0.033126 0.193951 0.119800 0.039458 0.090364 -0.102016 -0.113840 -0.110853 0.147094 -0.042490 -0.165116
1732978630296402 0.031526 -0.092648 -0.124528 -0.013540 0.278940 0.195360 -0.323591 -0.024428 0.111682 -0.058584 -0.064379 -0.165022 -0.013314 0.262170 -0.133624 -0.117707 -0.176934 -0.202470 -0.185242 -0.019430 0.353943 -0.167295 -0.193415 -0.118185 0.025352 0.226126 -0.118596 0.108750 -0.101618 0.179863 0.157595 -0.240432 -0.105326 -0.068071 0.042612 0.321274 -0.019649 -0.041267 -0.049994 -0.104518 -0.069621 0.180913 0.041483 0.158063 0.072507 0.208104 0.120029 0.278392 0.123480 0.080509 -0.265887 0.155800 -0.050341 -0.165322 0.137499 0.037428 -0.041417 -0.058470 0.040899 -0.275069 0.160009 -0.212286 0.271185 0.107393 0.272241 -0.010151 0.038027 0.170697 -0.004154 0.011516 -0.145539 0.041812 0.230003 0.426117 -0.416794 0.000497 0.332262 -0.073359 0.052136 0.010947 -0.147346 -0.038918 0.205169 0.359091 -0.060430 0.006748 0.156520 -0.251488 -0.062185 0.277444 0.168748 0.038593 0.102177 -0.124865 -0.129628 -0.217514 0.092518 0.078334 -0.299972 -0.061887 0.243620 0.022137 0.034600 0.140635 0.350904 0.001679 0.164286 -0.052124 -0.065131 0.077146 -0.192975 -0.279640 -0.095664 -0.098739 0.190983 0.032366 -0.017928 0.089726 0.237798 0.020783 -0.055471 0.050482 -0.086126 0.081483 -0.007398 0.159174 -0.134737 -0.231276
1732197670374498 0.076600 -0.082244 -0.080720 -0.027380 0.144809 0.230800 -0.250648 -0.094105 0.091959 0.019809 -0.132188 -0.083432 0.009028 0.271330 0.047955 -0.122485 -0.013854 0.080699 -0.212825 -0.163168 0.404012 -0.101668 -0.205502 -0.079238 0.053890 0.037591 -0.086007 0.064587 -0.200537 0.161126 -0.028200 -0.256803 -0.026932 -0.211813 0.009555 0.439095 -0.047463 -0.025594 0.091122 -0.200889 0.080374 0.196114 0.097101 0.118887 -0.027757 0.310592 0.036094 0.280619 0.103613 0.121398 -0.103905 0.083303 -0.100838 -0.158804 0.158492 0.089795 -0.022196 0.008144 0.057911 -0.276006 -0.012662 -0.140607 0.253559 -0.187275 0.230569 0.022172 0.091042 0.183203 -0.002199 -0.042076 -0.221830 -0.195236 0.302998 0.362005 -0.466690 0.002837 0.284267 -0.043633 -0.078801 -0.034740 -0.119328 -0.017899 0.178014 0.183568 -0.087852 -0.015746 -0.018280 -0.253095 0.095618 0.250612 0.271739 -0.172402 0.197355 -0.251037 -0.148583 -0.131796 0.071316 -0.031030 -0.341342 0.017587 0.180189 0.104574 -0.033864 0.145571 0.170089 0.054230 0.324369 -0.149850 -0.038843 0.080481 -0.095695 -0.202446 -0.071313 -0.145720 0.115416 0.007390 -0.209481 0.086619 0.305925 -0.055935 -0.078199 -0.018251 -0.157405 0.127913 0.125608 0.128974 -0.202708 -0.124271
307018962803684 0.098625 0.065169 0.200489 0.038743 -0.180215 0.426091 -0.457578 0.040212 0.121487 0.130756 0.036631 -0.249814 0.411930 0.182375 -0.374392 -0.160568 0.099066 0.117632 -0.539427 0.085010 0.269637 -0.150698 -0.121375 -0.270552 0.358584 0.310117 -0.219013 0.081530 -0.344585 0.471231 -0.010963 -0.166695 0.058442 -0.249656 0.260685 0.523803 -0.198718 -0.132082 -0.150345 -0.262995 -0.149584 0.085353 0.098563 -0.010318 0.048494 -0.063891 0.187211 -0.073768 -0.264759 0.076926 -0.376233 0.128186 -0.106062 -0.430683 -0.215592 -0.042682 0.289808 -0.062366 -0.085742 -0.157757 0.093302 0.068323 0.090719 0.082691 -0.009505 0.074778 0.531599 0.214841 0.044047 -0.006622 -0.183364 -0.200636 -0.118363 0.515895 -0.188582 -0.220914 0.155973 -0.086270 0.234525 -0.073630 -0.022210 0.140480 -0.262107 0.051939 -0.303269 -0.078074 -0.027468 0.037915 0.205284 0.282001 0.385715 0.058359 0.428799 -0.265815 -0.047838 -0.322327 0.153090 -0.000916 -0.105879 -0.200135 -0.090146 -0.008317 0.389075 -0.032933 -0.271841 0.011825 0.071535 0.218164 -0.041701 0.421509 -0.385415 -0.289213 -0.016308 0.033640 0.286839 0.170084 -0.007297 0.244441 0.231055 0.077522 -0.159875 -0.097725 -0.313467 0.197777 -0.141553 0.122445 -0.264269 0.254700
1033174230114819 0.064775 0.070951 0.187145 0.039152 -0.175355 0.252345 -0.324177 0.092307 0.041358 0.222784 0.092522 -0.253887 0.331768 0.168499 -0.336343 -0.111760 0.076928 0.044025 -0.623197 -0.008526 0.177365 -0.114694 -0.055640 -0.273548 0.375714 0.291513 -0.262784 0.101042 -0.344657 0.505526 0.109587 -0.215660 0.073398 -0.301958 0.215299 0.550361 -0.163846 -0.051626 -0.111640 -0.348232 -0.129488 0.012794 0.065964 0.003755 -0.024103 0.025514 0.212165 0.038117 -0.198906 0.104819 -0.331791 0.153862 -0.169905 -0.301509 -0.144337 -0.040557 0.103000 -0.005510 -0.086127 -0.098647 0.019922 0.010623 0.070809 -0.046326 0.143952 0.098247 0.403062 0.113186 0.017797 -0.057464 -0.157153 -0.168158 -0.034332 0.418807 -0.216511 -0.128236 0.139655 -0.134576 0.285560 0.041770 0.007355 0.130296 -0.187022 0.042410 -0.227232 -0.062399 0.058159 0.044625 0.092673 0.236200 0.320077 0.046025 0.393812 -0.226057 0.003404 -0.200892 0.217627 0.043302 -0.074579 -0.158847 -0.073076 -0.008831 0.200653 0.058439 -0.098635 0.072792 0.128037 0.141929 -0.099467 0.354335 -0.304273 -0.255859 -0.098110 -0.022007 0.343103 0.188485 -0.007778 0.150745 0.284255 0.035783 -0.077399 -0.103725 -0.377117 0.096516 -0.151257 0.090543 -0.201793 0.039888
136496423176024 0.374997 0.037203 0.160583 0.356155 0.200323 0.457907 -0.644301 -0.252939 0.094736 -0.466908 -0.066308 -0.030959 0.234109 0.102707 0.085562 -0.140939 -0.092098 -0.063404 -0.068364 -0.238335 0.069319 0.301161 -0.355142 -0.156955 0.326740 0.524629 -0.212226 -0.257097 0.163035 0.248894 0.204027 -0.023363 -0.131008 -0.410507 -0.009348 -0.207396 0.352857 -0.346928 -0.292003 0.048985 -0.378092 0.284267 0.130491 0.096623 -0.260471 0.169330 0.271797 0.127574 0.496332 -0.502594 -0.255864 -0.577186 -0.020397 0.004872 0.082412 -0.132934 0.066427 0.028996 0.046801 -0.507785 0.122462 -0.278839 0.025419 0.867968 -0.143321 -0.189947 0.006730 -0.089662 0.098117 -0.062095 0.317767 0.032060 -0.122253 0.192483 -0.056743 -0.281609 0.632232 0.726491 0.222627 0.033467 -0.014876 -0.766851 -0.005103 -0.070990 -0.229697 -0.310886 -0.783314 0.292790 0.422147 0.292526 0.015698 0.150773 -0.238479 0.197472 0.521257 -0.168272 -0.124453 0.447725 -0.019725 0.005383 0.447799 -0.074444 0.349666 0.092592 -0.466032 -0.412600 0.010944 0.045050 0.356969 0.094495 -0.521563 0.142073 0.413588 -0.456967 -0.094170 0.159438 -0.202023 0.072631 -0.035968 -0.068455 -0.429465 -0.218345 -0.440949 0.583874 -0.342078 -0.193095 0.249777 0.135782
10207420268054993 0.353078 0.051290 0.141015 0.368362 0.192647 0.432974 -0.579042 -0.199508 0.102710 -0.426044 -0.068043 -0.007404 0.204181 0.065265 0.078912 -0.139582 -0.069475 -0.089382 -0.042099 -0.248432 0.055157 0.290496 -0.305665 -0.161782 0.284031 0.497665 -0.192612 -0.277364 0.161885 0.193939 0.182938 -0.027835 -0.099131 -0.392837 -0.010094 -0.199342 0.344250 -0.303527 -0.236891 0.054739 -0.323456 0.273657 0.104056 0.112920 -0.256580 0.181852 0.267351 0.143065 0.495583 -0.458950 -0.225611 -0.529164 -0.039437 0.028773 0.086496 -0.132687 0.043192 0.056491 0.066387 -0.486032 0.115182 -0.252133 0.026840 0.813233 -0.117477 -0.197618 0.004286 -0.134264 0.053908 -0.047699 0.316861 0.017076 -0.074175 0.168441 -0.046874 -0.280535 0.638339 0.723226 0.248601 0.053234 -0.008371 -0.769641 0.041157 -0.088792 -0.183054 -0.295243 -0.732780 0.299168 0.414641 0.266590 -0.011310 0.163181 -0.235349 0.207394 0.499000 -0.152421 -0.146986 0.446566 -0.039800 0.040650 0.430567 -0.073312 0.315243 0.079336 -0.445073 -0.418660 0.012501 0.001730 0.360772 0.084388 -0.487285 0.165594 0.407296 -0.453187 -0.129115 0.144998 -0.204369 0.069527 -0.067029 -0.033474 -0.439908 -0.187820 -0.419313 0.588556 -0.324973 -0.175506 0.252264 0.153091
516375861892113 0.270245 -0.030359 0.171481 0.263856 0.407051 0.437182 -0.526202 -0.294642 0.181695 -0.417151 -0.093627 -0.025114 -0.114779 0.057291 0.239934 -0.138304 -0.188170 -0.206347 0.066323 -0.457115 0.221814 0.123843 -0.265987 -0.146423 0.009849 0.449464 -0.064330 -0.319407 0.178051 0.040874 0.170369 -0.061483 -0.059885 -0.377491 -0.113180 -0.176124 0.441738 -0.254257 -0.073422 0.201785 -0.077585 0.308289 -0.033500 0.274801 -0.257073 0.429790 0.226539 0.202246 0.569257 -0.408960 -0.089962 -0.414628 -0.106574 0.196483 0.130364 -0.054036 -0.241119 0.179417 0.151649 -0.600888 0.195325 -0.192761 0.179500 0.620781 0.097447 -0.234312 -0.069351 -0.210963 -0.210900 -0.081299 0.269092 -0.201289 0.185456 0.041468 -0.276731 -0.162737 0.749306 0.537993 0.097754 0.077891 -0.171700 -0.693825 0.370176 -0.001923 0.032271 -0.173368 -0.636034 0.029429 0.338217 0.131003 -0.040292 0.020663 -0.246814 0.164446 0.187244 -0.130362 -0.207470 0.323897 -0.216624 0.141665 0.419380 0.016190 0.115068 0.253110 -0.211368 -0.267325 0.381706 -0.254042 0.286832 0.089358 -0.374314 0.029796 0.318333 -0.466627 -0.441883 0.025659 -0.401660 0.110100 0.032364 0.187374 -0.171065 -0.128160 -0.296636 0.420981 -0.192930 0.009327 0.069425 0.076713
338799903129249 -0.047515 -0.123748 -0.145447 0.057723 0.317254 0.096288 -0.321115 -0.207020 -0.005978 0.231556 -0.175200 -0.210706 0.363750 0.485563 -0.039167 -0.200481 -0.068036 -0.131259 -0.537752 -0.034186 0.402471 -0.113907 -0.275710 -0.352003 0.190462 0.087115 -0.262203 0.005879 -0.265349 0.333513 0.038047 -0.395559 0.007367 -0.418573 -0.164329 0.518425 -0.070678 -0.120673 -0.014879 -0.203355 0.072666 0.196251 0.027352 0.354003 0.150151 0.321261 0.136581 0.089983 0.082658 -0.022621 -0.028919 0.094253 -0.014062 -0.230187 0.265044 0.303628 0.116771 -0.077965 -0.053141 -0.331663 0.059835 0.015062 0.191116 -0.212459 0.299347 0.029364 -0.002288 0.034386 0.183948 -0.036877 -0.194844 0.061261 0.190259 0.439329 -0.328839 -0.111796 0.546999 0.087062 0.468196 0.108076 0.027075 -0.025111 0.070891 -0.036793 -0.140210 -0.221175 0.308696 -0.266055 -0.106475 0.165755 0.240107 -0.081718 0.214929 -0.297179 -0.112849 -0.509078 0.078907 -0.014123 -0.130232 0.070021 -0.001190 -0.062941 0.125423 0.199810 0.089189 0.161285 0.277968 0.154116 -0.252644 0.013343 -0.023161 0.084871 0.045530 -0.533206 0.269655 0.249819 -0.347126 -0.030098 0.255578 -0.146596 -0.060653 -0.063316 -0.030142 -0.056823 0.021592 0.250048 -0.172420 -0.283140
295578530487432 0.204213 -0.038750 0.146696 0.261457 0.448238 0.387963 -0.518901 -0.286715 0.212022 -0.381446 -0.080715 -0.025096 -0.120931 0.050569 0.219076 -0.125571 -0.211444 -0.276447 0.114599 -0.404448 0.210934 0.093215 -0.258743 -0.128129 -0.057962 0.446658 -0.050575 -0.327432 0.191829 0.030088 0.217259 -0.055075 -0.023173 -0.325200 -0.140213 -0.174295 0.427257 -0.251982 -0.042463 0.210340 -0.074673 0.307995 -0.063557 0.314824 -0.240529 0.446391 0.259632 0.194272 0.564040 -0.385263 -0.076249 -0.312570 -0.096294 0.208004 0.129806 -0.059094 -0.253002 0.178751 0.167329 -0.627091 0.258737 -0.185151 0.233497 0.586155 0.145108 -0.224537 -0.093032 -0.215870 -0.238454 -0.069040 0.238100 -0.142866 0.200062 0.044825 -0.299887 -0.113598 0.754731 0.500383 0.103030 0.058902 -0.182369 -0.630697 0.432715 0.068395 0.061858 -0.108933 -0.484692 -0.013745 0.290917 0.088637 -0.063887 0.054528 -0.248486 0.207486 0.156688 -0.147818 -0.165434 0.289458 -0.229949 0.129348 0.411081 0.017595 0.081446 0.234617 -0.095990 -0.276230 0.381427 -0.270951 0.261034 0.065818 -0.329852 -0.006962 0.293467 -0.445391 -0.431188 0.013029 -0.398072 0.087210 0.014059 0.209592 -0.165222 -0.111254 -0.238188 0.375005 -0.199525 0.035325 0.101442 0.020701
1742095812718017 -0.014307 -0.217535 -0.021442 0.011832 0.275851 0.227186 -0.396015 -0.126860 0.078237 0.099141 -0.182752 -0.230355 0.103901 0.288510 -0.173498 -0.226359 -0.222612 -0.121359 -0.354646 0.013749 0.152856 -0.116812 -0.226332 -0.137720 0.095959 0.149978 -0.196380 0.077230 -0.208240 0.302739 0.160526 -0.258427 -0.093245 -0.089920 -0.028278 0.432891 -0.093236 0.093798 -0.028022 -0.279333 -0.124331 0.136097 0.027641 0.169606 0.076826 0.279004 0.186303 0.088468 0.045060 0.124087 -0.225678 0.201269 -0.006966 -0.163525 0.060874 0.090030 0.016936 0.006219 -0.088731 -0.284870 0.102846 -0.149227 0.304548 -0.007918 0.127719 0.037140 0.031868 0.102430 0.030328 0.074663 -0.248003 0.056865 0.169070 0.471123 -0.264386 -0.037445 0.215015 -0.104820 0.033433 -0.106346 -0.095926 -0.036093 0.071259 0.348283 -0.040200 -0.051571 0.169423 -0.187536 -0.009093 0.263541 0.152209 0.123145 0.281330 -0.088227 0.018694 -0.214770 0.202289 0.046444 -0.227900 -0.126217 0.129751 -0.035989 0.094973 0.155731 0.228065 0.000812 0.147629 -0.108826 -0.135743 0.159762 -0.064148 -0.182222 -0.036381 -0.126087 0.265198 0.018574 -0.031699 0.059129 0.277295 -0.090879 -0.029994 0.118302 -0.125790 0.014763 -0.042983 0.177897 -0.068048 -0.128200
514876042042095 0.068146 -0.034944 0.071125 0.237264 0.413714 0.357078 -0.536584 -0.262479 0.250657 -0.311471 -0.044935 -0.079060 -0.101424 0.075713 0.087684 -0.156128 -0.159493 -0.230831 0.121461 -0.242033 0.243396 0.017982 -0.246103 -0.066166 -0.123421 0.361522 -0.070062 -0.262842 0.151303 0.019667 0.208102 -0.001382 -0.015738 -0.181841 -0.120868 -0.093983 0.355457 -0.242140 -0.093095 0.220923 -0.174892 0.357307 -0.043509 0.290767 -0.194115 0.409007 0.244861 0.118302 0.419416 -0.250994 -0.155065 -0.207871 -0.030562 0.139097 0.099546 -0.122197 -0.157009 0.119745 0.185523 -0.588699 0.306066 -0.162713 0.285004 0.461457 0.078075 -0.169909 -0.084301 -0.104083 -0.219228 -0.006091 0.139647 -0.053928 0.158334 0.111942 -0.255050 -0.053398 0.618746 0.354912 0.017121 -0.034533 -0.138828 -0.411881 0.420916 0.169771 -0.019333 -0.071109 -0.416006 -0.088121 0.259022 0.007867 -0.117645 0.107452 -0.185720 0.226145 0.152885 -0.175576 -0.155481 0.257988 -0.169955 0.019992 0.366941 -0.026366 0.075893 0.165604 -0.044143 -0.239353 0.227788 -0.224125 0.194376 0.001699 -0.214573 -0.065929 0.248141 -0.343972 -0.342864 -0.030464 -0.203073 0.038975 -0.038790 0.171644 -0.198617 -0.025496 -0.063404 0.246645 -0.139759 0.027478 0.120649 0.002643
1731567660437499 -0.027126 -0.168852 0.008762 -0.005573 0.268972 0.276215 -0.383351 -0.127454 0.130165 0.058221 -0.175959 -0.180587 0.022629 0.266427 -0.072422 -0.208594 -0.151337 -0.059038 -0.244804 -0.068946 0.276217 -0.120432 -0.223257 -0.068016 0.064116 0.149184 -0.120872 0.062153 -0.238000 0.248787 0.147967 -0.242141 -0.036572 -0.090303 -0.038262 0.377064 -0.070401 0.007616 0.023175 -0.180249 -0.048030 0.187097 0.009837 0.194968 -0.001114 0.357297 0.210505 0.157732 0.103246 0.107999 -0.174171 0.191075 -0.059366 -0.082987 0.097424 0.083988 -0.028543 0.005559 0.028260 -0.374506 0.084098 -0.176579 0.330618 -0.096772 0.197255 0.027734 0.061785 0.118512 -0.024094 0.070818 -0.240268 -0.045738 0.258552 0.351289 -0.324410 0.063719 0.288198 -0.064412 -0.052515 -0.110497 -0.159610 -0.021018 0.239832 0.375844 -0.006829 0.029954 0.074367 -0.201902 0.092469 0.182261 0.132301 0.045937 0.187793 -0.108345 -0.041223 -0.093402 0.173589 -0.010337 -0.297749 -0.057865 0.209833 0.037823 0.012713 0.099881 0.274540 -0.027031 0.207440 -0.190458 -0.065071 0.135235 -0.074746 -0.236429 -0.066724 -0.097433 0.147668 -0.033820 -0.079798 0.073801 0.256732 -0.032781 -0.032186 0.136792 -0.109612 0.017513 0.010999 0.129206 -0.086591 -0.133704
532465233609835 0.040003 -0.003189 0.014965 0.129888 0.246359 0.198590 -0.281945 -0.087567 0.192256 -0.135685 0.024172 -0.008554 -0.156558 0.016915 0.150546 -0.003132 0.000137 -0.038110 0.129783 -0.264415 0.306583 -0.122759 -0.191572 0.026653 -0.239248 0.179372 -0.076310 -0.154854 0.026309 -0.039347 0.156147 0.052717 0.002438 -0.043656 -0.056259 0.085560 0.191765 -0.151455 0.003394 0.149514 -0.086961 0.327946 -0.022978 0.225734 -0.239298 0.466210 0.122117 0.242804 0.271405 -0.130990 -0.120418 -0.060149 -0.100963 0.031690 0.095244 -0.143071 -0.249686 0.102269 0.279711 -0.499936 0.296430 -0.125550 0.311805 0.106576 0.218686 -0.050100 0.006524 0.019652 -0.210082 -0.062012 0.010111 -0.073176 0.168586 0.174287 -0.431063 0.098847 0.457122 0.218164 -0.117504 -0.033314 -0.229535 -0.143858 0.507938 0.249841 -0.112203 0.059490 -0.273788 -0.152685 0.271326 -0.010524 0.004346 -0.010756 -0.087259 0.124951 0.033214 -0.084955 -0.026606 0.159618 -0.279390 -0.061605 0.315463 0.107775 -0.086418 0.146004 0.034341 -0.170405 0.330247 -0.286480 0.040574 0.020517 -0.208976 -0.238509 0.116942 -0.188642 -0.266594 -0.071329 -0.139032 0.035726 0.049084 0.207629 -0.147073 -0.125920 -0.094595 0.186234 -0.015823 0.054435 0.046889 -0.128883
1732138430380422 0.069842 -0.110193 -0.220019 -0.010079 0.253850 0.101584 -0.291595 -0.016787 0.076596 -0.067923 -0.109240 -0.165666 -0.060867 0.257312 -0.153242 -0.151489 -0.274502 -0.258485 -0.178017 0.014845 0.175206 -0.180601 -0.154892 -0.139652 -0.004735 0.132054 -0.154712 0.120674 -0.026181 0.155531 0.168893 -0.294420 -0.183710 -0.108745 0.017173 0.393045 -0.009787 0.093430 -0.036214 -0.237201 -0.136183 0.176800 0.122235 0.194403 0.111963 0.226556 0.126833 0.307262 0.210286 0.133569 -0.322847 0.191311 -0.022654 -0.239790 0.155107 0.065646 -0.005567 -0.049773 -0.056318 -0.232320 0.209534 -0.249319 0.301101 0.218156 0.211188 0.014974 -0.016712 0.174272 -0.059580 0.002408 -0.140702 0.152345 0.205641 0.478353 -0.410978 -0.062089 0.283442 -0.061346 0.045642 0.018385 -0.122478 -0.172291 0.133751 0.389075 -0.005932 -0.032528 0.215710 -0.250486 -0.109736 0.333020 0.177634 0.103816 0.176068 -0.052370 -0.029519 -0.320441 0.097496 0.160759 -0.289457 -0.062515 0.244343 -0.020070 0.079516 0.217527 0.398308 -0.007205 0.174445 -0.020887 -0.099375 0.035359 -0.160019 -0.256918 -0.084760 -0.138591 0.332581 0.026125 0.066723 0.045832 0.245458 -0.068087 -0.046143 0.047843 -0.064529 0.089483 0.005988 0.224664 -0.072221 -0.281603
343532235989349 -0.058376 -0.078354 -0.128150 0.076721 0.298017 0.077512 -0.290965 -0.183022 -0.010319 0.231905 -0.146145 -0.212391 0.417225 0.497457 -0.033900 -0.206682 -0.059120 -0.167078 -0.562929 -0.052757 0.428202 -0.077215 -0.262045 -0.389076 0.239324 0.118066 -0.263720 -0.054867 -0.263380 0.351772 0.027947 -0.385707 0.034249 -0.499205 -0.182161 0.456688 -0.032651 -0.161919 -0.048949 -0.158216 0.097410 0.184259 0.001708 0.333824 0.157301 0.292609 0.137374 0.099589 0.096990 -0.096618 0.028469 0.060057 -0.000211 -0.180040 0.274775 0.314548 0.107914 -0.076928 -0.049753 -0.301751 0.026013 0.059346 0.121522 -0.216585 0.366034 -0.000020 -0.069299 -0.027289 0.218904 -0.041808 -0.159331 0.090424 0.218653 0.416593 -0.313209 -0.144267 0.632946 0.119640 0.615033 0.206629 0.073957 -0.064602 0.058477 -0.146083 -0.143367 -0.280923 0.340676 -0.254909 -0.153918 0.144214 0.206274 -0.061175 0.169009 -0.320356 -0.121989 -0.525425 0.045569 0.000557 -0.066622 0.095814 -0.025772 -0.090550 0.091670 0.182144 0.082670 0.171275 0.233887 0.214765 -0.240774 -0.033343 0.000890 0.161669 0.067306 -0.585951 0.208391 0.306141 -0.379507 -0.061032 0.201073 -0.127696 -0.061679 -0.090193 -0.007557 -0.092327 -0.010225 0.220113 -0.181323 -0.310672
1775095692759001 0.071175 -0.149072 0.119857 -0.020155 0.048325 0.265152 -0.242318 -0.065090 0.080672 -0.000931 -0.186884 -0.232619 0.019967 0.320542 -0.102908 -0.240427 -0.109941 0.096346 -0.401000 -0.156447 0.143636 0.120470 -0.121562 -0.072539 0.309449 0.103188 -0.050793 0.111551 -0.282123 0.381382 -0.025499 -0.202947 -0.026143 -0.276247 0.094865 0.363230 -0.025066 0.097725 -0.018085 -0.379228 -0.032489 -0.001914 0.075523 -0.146111 -0.012869 0.137787 0.134207 0.200397 0.006642 0.117948 -0.127407 -0.020858 -0.060259 -0.143726 -0.042002 0.087189 0.036636 0.062787 -0.196769 -0.185701 -0.313818 -0.206547 0.203555 -0.200226 0.018173 -0.050003 0.108331 0.158891 0.005780 0.051386 -0.302725 -0.308432 0.403112 0.438470 -0.263283 -0.141462 0.048116 -0.165405 -0.106440 -0.068791 -0.025771 -0.141211 -0.094876 0.197473 0.097399 -0.105712 -0.126983 -0.072287 0.113286 0.443661 0.273276 0.030839 0.369849 -0.260691 0.008817 0.008514 0.213713 0.088296 -0.347837 -0.047732 0.242112 -0.015735 0.007788 0.186455 0.145306 0.097923 0.172089 -0.235794 0.074614 0.259424 -0.037757 -0.103712 -0.155050 -0.022984 0.245953 0.019578 -0.164363 0.137813 0.442058 -0.127670 -0.050345 0.177238 -0.368829 0.088129 -0.066747 0.019771 -0.224128 0.057215
353134391695800 -0.021293 -0.045617 -0.150707 0.066833 0.221889 0.036186 -0.236113 -0.128196 -0.060115 0.226496 -0.093933 -0.155040 0.316393 0.397731 -0.078712 -0.109046 -0.015237 -0.181402 -0.479793 -0.045301 0.305910 -0.095278 -0.171594 -0.363935 0.209029 0.105443 -0.262249 0.047450 -0.175725 0.320929 0.109711 -0.404908 0.030741 -0.420054 -0.132751 0.473433 -0.038148 -0.111102 -0.016288 -0.205334 0.067034 0.134402 0.024558 0.370560 0.093978 0.271327 0.142446 0.102479 0.123250 -0.000961 -0.057627 0.114544 -0.053160 -0.198722 0.249093 0.248762 0.061188 -0.061184 -0.026479 -0.256870 0.076787 -0.032990 0.146066 -0.131161 0.349089 0.070313 0.020307 0.019631 0.135376 -0.061322 -0.109801 0.071543 0.134279 0.368342 -0.296527 -0.086010 0.488969 0.104900 0.513629 0.148902 0.071574 -0.073057 0.039517 -0.040604 -0.115280 -0.161646 0.293454 -0.181119 -0.112889 0.173907 0.208933 -0.056478 0.190345 -0.212454 -0.057107 -0.471069 0.080754 0.040243 -0.086198 0.117249 0.004189 -0.059956 0.102869 0.185269 0.120680 0.153491 0.253005 0.208112 -0.217661 0.019431 -0.093688 0.048882 0.016085 -0.493772 0.291998 0.254157 -0.233525 -0.041602 0.199119 -0.112454 -0.055287 -0.100052 -0.078665 -0.004966 -0.015973 0.205319 -0.111457 -0.310961
1774504979484739 0.160069 -0.074398 -0.055865 -0.074437 -0.011310 0.203813 -0.217507 -0.018862 0.023581 0.042710 -0.142921 -0.120909 -0.006703 0.270492 -0.063598 -0.169230 -0.063846 0.107006 -0.300666 -0.115322 0.154460 -0.011568 -0.109805 -0.083351 0.238434 0.021209 -0.112381 0.173933 -0.226309 0.257679 -0.035750 -0.324323 -0.095416 -0.275020 0.131615 0.518763 -0.102339 0.113960 0.082190 -0.442192 -0.022588 0.066648 0.222587 -0.011099 -0.007188 0.171844 0.065169 0.325819 0.086378 0.220775 -0.247304 0.097274 -0.107292 -0.237946 0.044679 0.087443 0.056793 -0.011413 -0.106859 -0.122214 -0.153735 -0.212108 0.210227 -0.105159 0.089942 0.018303 0.159476 0.201547 -0.018976 -0.028778 -0.243749 -0.246055 0.291182 0.370801 -0.360140 -0.114836 0.044019 -0.140968 -0.144468 -0.053512 -0.064604 -0.101722 -0.086448 0.177453 -0.011247 -0.056577 -0.046635 -0.096751 0.079480 0.397135 0.338884 -0.111273 0.321061 -0.278351 -0.037862 -0.036598 0.131562 0.029656 -0.285959 0.027363 0.188908 0.060212 0.049562 0.205351 0.122684 0.032973 0.278648 -0.073704 0.018605 0.217764 -0.175451 -0.168370 -0.146867 -0.059957 0.348877 0.057600 -0.097712 0.149019 0.410728 -0.186680 -0.102377 0.032933 -0.343314 0.240893 0.058082 0.068777 -0.219059 -0.023335
326683984410 0.328921 -0.048216 -0.060927 -0.018575 0.066056 0.628591 -0.512966 -0.178024 0.100962 -0.168895 -0.405805 -0.125701 0.045503 0.443003 0.106210 -0.330346 0.005321 0.343922 -0.252086 -0.128873 0.396932 0.079692 -0.345098 -0.171154 0.253837 0.145251 -0.038113 0.018336 -0.150850 0.243763 -0.368894 -0.352685 -0.037778 -0.339766 0.275400 0.294909 -0.045323 -0.033093 0.220392 -0.166933 0.109591 0.143470 0.255103 -0.208895 0.012234 0.000156 -0.175620 0.268651 -0.003669 0.115112 -0.154431 -0.023471 -0.066572 -0.253524 0.018839 0.057666 0.278253 0.024126 -0.043813 -0.031508 -0.310584 -0.185721 0.124487 -0.073716 -0.117526 -0.070848 0.213267 0.290202 0.112591 0.036533 -0.317938 -0.502836 0.405906 0.341805 -0.391946 -0.248800 0.158565 -0.081635 -0.360493 -0.145454 -0.172572 -0.086817 -0.044649 0.084238 0.017691 -0.204290 -0.255778 -0.136518 0.354788 0.504181 0.528909 -0.362101 0.111270 -0.488024 -0.246414 0.095281 -0.112080 -0.027679 -0.482575 0.002723 0.401447 0.006066 0.354435 0.198920 -0.113656 -0.104122 0.337005 -0.128819 0.347566 0.387099 -0.285729 -0.100238 -0.100828 -0.181984 0.278249 -0.004850 -0.399310 0.377072 0.573695 -0.140942 -0.446101 0.120675 -0.397852 0.548356 0.149948 0.087353 -0.498017 0.417390
465683626812716 0.282428 0.041834 0.160910 0.274745 0.362286 0.777235 -0.979019 -0.357478 0.269005 -0.159237 -0.185308 -0.368088 0.265286 0.446341 -0.241147 -0.444481 -0.193124 -0.259353 -0.614787 -0.360557 0.334179 0.107713 -0.332948 -0.498092 0.418820 0.612383 -0.342712 -0.093619 -0.196810 0.562621 0.164088 -0.458196 0.026109 -0.782837 0.112978 0.510677 0.264303 -0.207764 -0.114013 -0.342174 -0.260598 0.437512 0.130580 0.375490 -0.155213 0.498646 0.525234 0.253071 0.438342 -0.133397 -0.505387 -0.168904 -0.136204 -0.223401 0.032817 0.007414 0.122311 0.138779 -0.048280 -0.782140 0.123007 -0.214561 0.437542 0.508629 0.103212 -0.150826 0.298091 -0.093430 -0.206941 -0.075845 -0.088195 -0.379277 0.422492 0.623338 -0.507966 -0.426276 0.816536 0.289323 0.287250 -0.024377 -0.099318 -0.583349 0.094163 0.113696 -0.074806 -0.303700 -0.402824 -0.051689 0.350262 0.499986 0.296804 0.153346 0.374824 -0.137385 0.188748 -0.525863 0.018920 0.305088 -0.387510 0.022613 0.385505 -0.067695 0.438566 0.365954 -0.236650 -0.151302 0.497004 -0.088242 0.193218 0.440739 -0.493895 -0.146128 0.150014 -0.589416 0.126556 0.258009 -0.421458 0.242107 0.447906 0.008119 -0.436417 -0.048011 -0.565594 0.571344 -0.235152 0.138867 -0.163163 0.158867
308291172876720 0.277125 0.042140 0.154597 0.274730 0.367336 0.781170 -0.978896 -0.358552 0.268490 -0.153899 -0.181078 -0.369204 0.270753 0.447642 -0.243556 -0.445050 -0.190922 -0.266697 -0.607082 -0.352307 0.330218 0.109156 -0.334207 -0.494641 0.421266 0.619049 -0.336857 -0.095545 -0.197437 0.558744 0.160369 -0.454734 0.025259 -0.782810 0.114298 0.503791 0.267847 -0.217872 -0.118990 -0.333581 -0.263531 0.442276 0.124978 0.376914 -0.152362 0.497114 0.529347 0.248343 0.440065 -0.141412 -0.504769 -0.167435 -0.137150 -0.219219 0.042045 0.011627 0.127679 0.137105 -0.042626 -0.784952 0.123748 -0.207466 0.435975 0.516465 0.103358 -0.149285 0.287091 -0.099364 -0.198735 -0.079602 -0.085876 -0.377454 0.421727 0.621799 -0.505034 -0.433249 0.814463 0.292392 0.294704 -0.028188 -0.095824 -0.585769 0.101536 0.110674 -0.072715 -0.309880 -0.403853 -0.051686 0.345216 0.500917 0.288433 0.155410 0.371166 -0.138167 0.193138 -0.528702 0.016754 0.302217 -0.387529 0.023832 0.382230 -0.071771 0.438505 0.365081 -0.240608 -0.152296 0.492757 -0.085479 0.196587 0.439142 -0.489576 -0.145842 0.146675 -0.590646 0.122605 0.263307 -0.423448 0.242071 0.443146 0.003722 -0.435913 -0.049834 -0.565156 0.572014 -0.231622 0.137288 -0.165094 0.157662
345206612488578 -0.029091 -0.062684 -0.125642 0.079592 0.263167 0.059909 -0.241628 -0.145868 -0.047105 0.236639 -0.094572 -0.176535 0.308372 0.433044 -0.029643 -0.118903 -0.000948 -0.161118 -0.492511 -0.084502 0.350984 -0.078316 -0.192590 -0.349522 0.192945 0.107037 -0.253807 0.024186 -0.182351 0.307233 0.089293 -0.391781 0.042613 -0.422491 -0.127813 0.467105 -0.031041 -0.138249 0.001524 -0.179259 0.079971 0.147175 -0.003129 0.362006 0.061274 0.299893 0.140388 0.133776 0.129885 -0.015947 -0.024823 0.092723 -0.053383 -0.173538 0.232925 0.238364 0.009590 -0.050596 -0.003605 -0.256187 0.060162 -0.012495 0.137817 -0.182301 0.360907 0.060930 0.020108 0.002679 0.130549 -0.067647 -0.108945 0.042600 0.171270 0.328725 -0.320058 -0.059844 0.519876 0.099358 0.490069 0.144105 0.044681 -0.065147 0.087741 -0.060151 -0.097627 -0.144547 0.267455 -0.211968 -0.126768 0.143940 0.202094 -0.089232 0.152373 -0.245403 -0.093175 -0.412201 0.061384 0.009022 -0.106900 0.129524 -0.006474 -0.043623 0.047450 0.190883 0.114207 0.154935 0.272647 0.170557 -0.220114 0.003620 -0.063838 0.092177 0.014263 -0.490083 0.234315 0.261365 -0.278801 -0.030043 0.191443 -0.092416 -0.047397 -0.110758 -0.078052 -0.040578 0.006832 0.211322 -0.135924 -0.332676
1690415054614118 -0.021531 -0.058901 -0.044406 -0.000454 0.124500 0.232603 -0.380996 -0.033219 0.104861 0.121725 -0.053334 -0.188934 0.299901 0.167910 -0.293445 -0.094942 -0.034851 -0.068553 -0.320481 0.180945 0.250733 -0.238492 -0.180297 -0.217040 0.105104 0.207076 -0.194713 0.106174 -0.216104 0.294677 0.099518 -0.198600 -0.031055 -0.108834 0.077504 0.523650 -0.176871 -0.124941 -0.116473 -0.150261 -0.126762 0.201577 0.084063 0.234123 0.155351 0.152939 0.167172 -0.021223 -0.096224 0.052830 -0.336013 0.212265 -0.031556 -0.400138 -0.015094 0.028264 0.208701 -0.127547 0.009661 -0.320557 0.282862 -0.033934 0.263157 0.109958 0.093313 0.078350 0.291821 0.205423 0.019606 0.006033 -0.146937 0.065474 -0.097325 0.462081 -0.258842 -0.063092 0.295373 0.021147 0.183206 -0.100783 -0.085629 0.117584 0.003161 0.266509 -0.209331 -0.007312 0.195801 -0.126971 0.088009 0.153643 0.245501 0.078871 0.224949 -0.104620 -0.085266 -0.390263 0.111073 -0.012031 -0.154090 -0.113289 -0.029485 -0.043653 0.307693 -0.022010 0.009164 -0.020585 0.108563 0.134636 -0.151037 0.197353 -0.261209 -0.303296 0.010411 -0.083006 0.231395 0.033748 0.011663 0.119853 0.120590 0.092971 -0.083689 -0.018709 -0.000457 0.072612 -0.073909 0.244092 -0.131961 -0.030627
344965915845981 -0.034058 -0.039866 -0.164520 0.065902 0.260985 0.048240 -0.273000 -0.111217 -0.025950 0.236234 -0.091476 -0.173326 0.364019 0.422588 -0.104398 -0.113562 -0.014720 -0.205807 -0.504681 0.002457 0.368461 -0.169515 -0.186980 -0.361004 0.154371 0.128840 -0.261335 0.023642 -0.191568 0.301672 0.109964 -0.370584 0.024932 -0.385983 -0.108964 0.488073 -0.063956 -0.148278 -0.032443 -0.146702 0.053644 0.153571 0.013936 0.347690 0.121630 0.238131 0.119959 0.099547 0.075159 -0.020064 -0.078552 0.147274 -0.039146 -0.227709 0.216189 0.214957 0.077266 -0.087704 0.006276 -0.243436 0.142701 0.005562 0.139435 -0.119244 0.368439 0.070872 0.061521 0.052253 0.119652 -0.065832 -0.125761 0.108678 0.123777 0.408837 -0.352317 -0.069284 0.534075 0.078521 0.513487 0.141445 0.032434 -0.033761 0.085294 -0.001458 -0.161609 -0.146233 0.347370 -0.233668 -0.123399 0.168754 0.238820 -0.046407 0.203157 -0.219008 -0.108803 -0.519330 0.069285 0.033923 -0.108732 0.075614 -0.008662 -0.046426 0.116121 0.162760 0.141404 0.125925 0.264325 0.237695 -0.253126 0.028729 -0.123761 -0.015187 0.025842 -0.474023 0.284512 0.249264 -0.218151 -0.011645 0.195269 -0.055127 -0.065214 -0.130382 -0.041888 -0.018429 -0.010351 0.256014 -0.139655 -0.318175
342805252728714 -0.044267 -0.072799 -0.101138 0.078516 0.261131 0.086540 -0.296553 -0.135363 -0.027425 0.215600 -0.076691 -0.171129 0.335790 0.371553 -0.124348 -0.112978 -0.044216 -0.209450 -0.463442 -0.023315 0.333896 -0.112318 -0.193662 -0.345336 0.203348 0.162917 -0.263207 0.060292 -0.198211 0.321682 0.150186 -0.377053 0.028477 -0.358503 -0.125123 0.473944 -0.042566 -0.137670 -0.052687 -0.187922 0.036515 0.154076 0.002376 0.386048 0.104358 0.302448 0.177690 0.077918 0.106108 0.001479 -0.099403 0.143881 -0.061152 -0.203608 0.251623 0.256865 0.046053 -0.077516 -0.004715 -0.354439 0.122967 -0.063691 0.221213 -0.126272 0.371183 0.066589 0.026435 0.031642 0.133873 -0.032802 -0.137253 0.083405 0.131852 0.401753 -0.313457 -0.052413 0.532149 0.083354 0.506542 0.104212 0.028195 -0.022558 0.095519 0.051698 -0.130379 -0.139630 0.309259 -0.211754 -0.119351 0.179254 0.185384 -0.021886 0.179699 -0.218559 -0.082594 -0.463001 0.105318 0.006255 -0.112848 0.082431 0.026320 -0.065729 0.107154 0.158193 0.154648 0.134764 0.230071 0.185518 -0.252205 0.036724 -0.116417 0.003278 0.006404 -0.454650 0.260512 0.226941 -0.215062 -0.032331 0.183921 -0.085346 -0.030076 -0.062601 -0.030592 -0.057948 -0.031954 0.208082 -0.110338 -0.325563
1742096346051297 -0.010116 -0.122426 -0.086510 0.025198 0.276985 0.224258 -0.388126 -0.122194 0.086287 0.127622 -0.108171 -0.167695 0.134694 0.255859 -0.121890 -0.150293 -0.135692 -0.141568 -0.302876 -0.020179 0.334437 -0.183180 -0.247526 -0.183757 0.025039 0.141911 -0.215492 0.047702 -0.182208 0.229194 0.147195 -0.312137 -0.016885 -0.071664 -0.051189 0.375306 -0.087609 -0.012697 0.032502 -0.140290 0.006691 0.170885 0.008175 0.270598 0.083708 0.309277 0.118348 0.099485 0.037902 0.108792 -0.157574 0.246848 -0.039467 -0.106825 0.150037 0.060675 -0.006931 -0.024450 0.056917 -0.257794 0.178310 -0.105060 0.265680 -0.039457 0.257151 0.067582 0.022785 0.081708 0.030799 0.033481 -0.210053 0.018657 0.141751 0.380201 -0.360820 0.020535 0.362593 -0.046380 0.083831 -0.040092 -0.103439 0.063632 0.186126 0.285123 -0.116407 -0.029011 0.199253 -0.248596 0.016705 0.175765 0.166920 -0.009117 0.164957 -0.148214 -0.103359 -0.230235 0.115565 -0.035054 -0.247737 -0.062120 0.107628 0.010291 0.097910 0.107491 0.227266 0.014259 0.214571 -0.075481 -0.121066 0.105554 -0.125848 -0.225975 -0.052201 -0.157551 0.220058 0.025609 -0.093769 0.055146 0.217483 -0.027786 -0.071616 0.032986 -0.085558 0.072681 0.015291 0.174231 -0.115195 -0.157598
564870833709282 0.185568 0.263155 0.113494 0.470838 0.072515 0.409058 -0.384826 -0.084429 0.281306 -0.180682 0.037007 -0.036181 0.073869 -0.053630 -0.182994 -0.047574 0.138519 -0.185337 -0.166339 -0.387600 0.221938 0.158654 -0.214757 -0.383582 -0.045385 0.401973 -0.284835 -0.393125 0.285400 -0.029303 0.098052 -0.080208 0.206966 -0.600386 0.000383 -0.005473 0.444290 -0.237999 -0.207763 0.195433 -0.209731 0.355120 0.131906 0.330947 -0.324006 0.323775 0.331056 -0.014408 0.366421 -0.302420 -0.099696 -0.394962 -0.125855 0.062988 0.027575 -0.219410 -0.120442 0.268619 0.224231 -0.460287 0.170105 0.042736 0.094899 0.424569 -0.073151 -0.124273 0.197335 -0.429524 -0.320333 -0.070311 0.221925 -0.178107 0.177658 0.025998 -0.096646 -0.341379 0.510552 0.642247 0.362959 0.206833 0.094707 -0.540118 0.182717 -0.297809 -0.224180 -0.341630 -0.511882 0.289678 0.434388 -0.047604 -0.149046 0.191827 -0.025359 0.161803 0.226032 -0.299993 -0.167941 0.310707 -0.129238 0.055558 0.303013 -0.236287 0.181489 0.142529 -0.444593 -0.255053 0.372101 -0.077920 0.270920 0.085996 -0.475633 0.260363 0.336507 -0.642277 -0.241282 0.178005 -0.358600 -0.054955 -0.005551 0.280147 -0.453499 -0.353717 -0.363559 0.608981 -0.310243 -0.100723 0.178622 0.224996
518474825015550 0.180251 0.018475 0.153483 0.284263 0.366106 0.387864 -0.532656 -0.278003 0.221638 -0.363751 -0.035309 -0.048484 -0.086072 0.047286 0.129236 -0.140199 -0.167235 -0.280484 0.070413 -0.374288 0.165335 0.125715 -0.225456 -0.151934 -0.023411 0.433275 -0.075044 -0.337114 0.211549 0.043984 0.199687 -0.048879 -0.011809 -0.362172 -0.100381 -0.168751 0.443004 -0.249625 -0.089478 0.201133 -0.135820 0.303273 -0.037008 0.292671 -0.252637 0.388809 0.286074 0.138386 0.515425 -0.348112 -0.122164 -0.344766 -0.076108 0.185696 0.078017 -0.089556 -0.198641 0.167704 0.137473 -0.556733 0.238475 -0.144641 0.189019 0.588469 0.072446 -0.207028 -0.051365 -0.223837 -0.257293 -0.053961 0.237646 -0.154347 0.174921 0.028986 -0.209262 -0.160943 0.662191 0.453044 0.116591 0.053591 -0.109791 -0.605291 0.333568 0.014998 0.034750 -0.143966 -0.509013 0.029984 0.281490 0.057929 -0.093882 0.103085 -0.187684 0.211970 0.192400 -0.176016 -0.182313 0.318922 -0.154411 0.108325 0.348871 -0.027375 0.114093 0.225083 -0.160162 -0.251591 0.312056 -0.187861 0.246208 0.071519 -0.318097 0.034847 0.270519 -0.421607 -0.362484 0.048316 -0.311957 0.076165 -0.001902 0.178879 -0.176768 -0.101167 -0.224575 0.359174 -0.201931 0.005900 0.115406 0.066229
1761596697434595 0.019806 -0.185814 -0.071811 -0.018286 0.282914 0.286086 -0.419222 -0.121646 0.112776 0.064076 -0.190557 -0.170248 0.032415 0.281530 -0.094771 -0.218912 -0.200470 -0.056750 -0.248092 -0.036608 0.298387 -0.168287 -0.267657 -0.112586 0.031404 0.120495 -0.172843 0.080548 -0.204315 0.228202 0.122117 -0.317876 -0.079503 -0.079886 -0.005289 0.457054 -0.116046 0.058948 0.060080 -0.224104 -0.045678 0.192425 0.056177 0.199072 0.061405 0.355475 0.115012 0.188803 0.091161 0.149683 -0.234849 0.257914 -0.041004 -0.147345 0.141117 0.092223 -0.008447 -0.019882 0.031046 -0.306090 0.139006 -0.183294 0.357989 -0.051758 0.217163 0.051801 0.024797 0.134996 0.019942 0.053144 -0.250960 0.004861 0.217166 0.433700 -0.414487 0.010378 0.332466 -0.094392 -0.060274 -0.109936 -0.165184 0.004118 0.203910 0.376573 -0.060733 -0.021711 0.154910 -0.260276 0.055953 0.243978 0.192035 0.003958 0.188094 -0.156021 -0.089320 -0.132633 0.116195 -0.032123 -0.317024 -0.093360 0.177826 0.019662 0.084490 0.127864 0.285254 -0.039462 0.216512 -0.132864 -0.084828 0.115070 -0.101822 -0.267051 -0.061381 -0.093638 0.212184 -0.033692 -0.059643 0.074664 0.221532 -0.061325 -0.078101 0.094867 -0.084785 0.081741 0.053169 0.187449 -0.123570 -0.141438
1741849949409270 0.005803 -0.157743 -0.051548 0.004770 0.227499 0.172720 -0.374669 -0.161114 0.045795 0.167863 -0.166755 -0.186935 0.077259 0.276904 -0.104354 -0.190295 -0.171472 -0.092247 -0.358486 -0.089328 0.161398 -0.172242 -0.202150 -0.146305 0.078726 0.056767 -0.245156 0.094412 -0.233940 0.277865 0.164556 -0.321035 -0.059309 -0.199625 -0.080632 0.565783 -0.096264 0.139495 0.050158 -0.357989 -0.077741 0.177243 0.092031 0.269183 0.000316 0.396508 0.197558 0.144668 0.107261 0.171070 -0.211038 0.223369 -0.110555 -0.160443 0.147348 0.109948 -0.017667 0.045817 -0.043081 -0.331943 0.111076 -0.168542 0.366165 -0.097742 0.208352 0.066228 0.077433 0.095310 -0.049414 0.015893 -0.254128 -0.004593 0.168781 0.444450 -0.343710 0.021830 0.234829 -0.055775 0.011244 -0.069478 -0.084975 -0.030425 0.111031 0.322833 -0.076395 -0.028839 0.141868 -0.171301 0.064388 0.203205 0.180214 0.010010 0.321560 -0.097411 0.020087 -0.255534 0.225958 0.022527 -0.217059 -0.074606 0.103572 0.048604 0.058845 0.179396 0.167475 0.033509 0.270075 -0.082051 -0.172332 0.129853 -0.070875 -0.210929 -0.033901 -0.209978 0.279801 0.004561 -0.061769 0.014400 0.298867 -0.111563 -0.019123 0.024728 -0.114852 0.060267 0.027854 0.145772 -0.029233 -0.169214
1838301766399393 0.118909 -0.116950 -0.212794 0.019582 0.192595 0.202500 -0.359596 -0.142935 0.010820 0.162971 -0.276482 -0.144680 -0.003060 0.328254 0.033181 -0.187245 -0.023699 0.023744 -0.340149 -0.023912 0.037607 -0.230949 -0.208850 -0.262283 0.007756 -0.011424 -0.260344 0.095056 -0.090865 0.244062 0.107740 -0.420439 -0.046999 -0.279742 -0.017987 0.646066 -0.182962 0.191653 0.156561 -0.384375 -0.166351 0.261280 0.078636 0.404830 -0.054554 0.453172 0.212870 0.112035 0.220809 0.230776 -0.300214 0.332214 -0.076627 -0.361969 0.155710 0.099496 0.074749 0.072750 -0.071637 -0.160229 0.291944 -0.084996 0.329052 0.020202 0.087896 0.230413 0.282341 0.180647 -0.066798 0.000489 -0.128256 0.122364 0.126953 0.442743 -0.375136 0.069519 0.194173 0.043711 0.052034 -0.169960 -0.086510 -0.142981 0.129503 0.362387 -0.027785 0.105660 0.273484 -0.249529 0.009373 0.149793 0.285020 -0.036550 0.396635 0.046984 0.082339 -0.425795 0.181595 0.073325 -0.234539 0.020495 -0.009790 0.101251 0.163528 0.235265 0.201427 0.053449 0.455942 0.099812 -0.195639 0.134734 -0.030935 -0.207925 0.016309 -0.368269 0.521579 0.075826 0.103137 -0.029870 0.187116 -0.088959 -0.074381 -0.074806 -0.062208 0.125742 0.187881 0.361716 0.072099 -0.238137
1702601406728816 -0.171070 -0.208335 0.042223 -0.000164 0.347586 0.171919 -0.381448 -0.281813 0.139077 0.130048 -0.256229 -0.313024 0.100126 0.389997 -0.125910 -0.291369 -0.260995 -0.142047 -0.368104 -0.067982 0.218319 -0.108319 -0.181419 -0.119540 0.118311 0.048746 -0.158450 0.096476 -0.370146 0.384494 0.149493 -0.208893 -0.020206 -0.242537 -0.227031 0.497860 -0.024495 0.070382 -0.085299 -0.309941 -0.112666 0.232984 0.061446 0.233328 0.084419 0.412157 0.317428 0.041306 0.068237 0.059012 -0.119556 0.113451 -0.053158 -0.197088 0.118068 0.199288 0.094542 0.016703 -0.137844 -0.622538 0.018863 -0.211593 0.460009 -0.192957 0.184853 -0.032958 0.042378 0.192279 -0.091665 0.127570 -0.383074 0.031182 0.279843 0.564858 -0.240825 0.060712 0.247350 -0.018913 0.047118 -0.082229 -0.089240 -0.064019 0.166468 0.452365 0.069213 -0.045463 0.130255 -0.197263 0.086667 0.219160 0.133879 0.177255 0.391929 -0.072193 0.036248 -0.386907 0.335199 0.074865 -0.322327 -0.141146 0.193326 -0.023977 0.038154 0.115459 0.173416 0.138036 0.148002 -0.214920 -0.147898 0.115765 0.092736 -0.191530 -0.035090 -0.215356 0.213678 -0.077865 -0.148896 0.021100 0.406894 -0.123362 0.047942 0.183998 -0.026826 -0.146318 -0.061626 0.108671 -0.061969 -0.081667
563280827201616 0.303633 0.077449 0.147761 0.368646 0.191296 0.419893 -0.582493 -0.221924 0.131115 -0.417102 -0.049123 -0.018364 0.188491 0.078392 0.057709 -0.168033 -0.066403 -0.127899 -0.022600 -0.242181 0.073683 0.278206 -0.282626 -0.168453 0.264405 0.501846 -0.170478 -0.299229 0.185720 0.190642 0.185032 -0.028327 -0.067206 -0.406610 -0.016570 -0.195435 0.377089 -0.325660 -0.224608 0.088809 -0.304704 0.282709 0.092169 0.143419 -0.260200 0.182913 0.273149 0.124661 0.487014 -0.439630 -0.211880 -0.500976 -0.035557 0.057754 0.060047 -0.133617 0.049521 0.063689 0.069923 -0.490350 0.142016 -0.224493 0.043449 0.790450 -0.110418 -0.207966 -0.005205 -0.149379 0.006866 -0.044028 0.295501 -0.009528 -0.038961 0.131794 -0.052838 -0.285012 0.633802 0.660624 0.241785 0.037241 0.002450 -0.723461 0.071938 -0.114417 -0.160020 -0.284707 -0.680740 0.251509 0.388372 0.226580 -0.032105 0.159649 -0.222989 0.209249 0.446999 -0.188681 -0.164883 0.429229 -0.018227 0.061141 0.398444 -0.095719 0.314343 0.105915 -0.407970 -0.392012 0.040702 0.013180 0.345715 0.080371 -0.447665 0.181221 0.394042 -0.469707 -0.145323 0.154389 -0.225436 0.067376 -0.067564 -0.002148 -0.426951 -0.167147 -0.353165 0.541604 -0.313001 -0.163491 0.225735 0.162387
1690788777910079 -0.100784 -0.121733 -0.046351 -0.008188 0.241616 0.085853 -0.341246 -0.206258 0.089249 0.181519 -0.164571 -0.281171 0.159149 0.373683 -0.141055 -0.220230 -0.206556 -0.149145 -0.433459 -0.054373 0.236548 -0.194605 -0.134631 -0.189437 0.120200 0.015467 -0.223239 0.113253 -0.346244 0.359358 0.129427 -0.253021 -0.036854 -0.288953 -0.194962 0.540092 -0.057590 0.079529 -0.077119 -0.320711 -0.078398 0.206327 0.128054 0.229343 0.107561 0.312303 0.233261 0.081253 0.027273 0.081178 -0.139317 0.113132 -0.097912 -0.275675 0.135656 0.162460 0.120007 -0.015131 -0.126229 -0.466061 0.071903 -0.131144 0.352693 -0.131482 0.230467 0.010725 0.104599 0.224159 -0.097971 0.033112 -0.328100 0.053117 0.182355 0.565759 -0.305110 0.025424 0.229113 -0.023069 0.127716 0.022301 -0.056979 -0.016206 0.078470 0.345667 -0.038635 -0.074744 0.196835 -0.212523 0.018649 0.215630 0.221667 0.080522 0.417190 -0.127921 -0.018541 -0.499444 0.287784 0.081362 -0.260555 -0.133335 0.100498 -0.000962 0.074032 0.137070 0.109204 0.183539 0.198952 -0.063307 -0.212724 0.108966 0.004225 -0.226286 -0.038849 -0.261346 0.321090 -0.003533 -0.132457 0.013536 0.403125 -0.121480 0.037217 0.015032 -0.051690 -0.071626 -0.027766 0.144522 -0.105808 -0.130867
10210487078110060 0.086496 0.154590 0.202015 0.361061 0.286405 0.569736 -0.874181 -0.444755 0.348439 -0.339744 0.067539 -0.225021 0.069734 0.175621 -0.073471 -0.382485 -0.089802 -0.331046 -0.051881 -0.260083 0.145331 0.231635 -0.089177 -0.276698 0.192260 0.549980 -0.086492 -0.420669 0.257825 0.101611 0.111688 -0.036111 0.122607 -0.615632 -0.025364 -0.118954 0.614472 -0.362350 -0.090444 0.210816 -0.222654 0.335651 0.042678 0.277183 -0.230743 0.161935 0.352691 0.021638 0.441573 -0.233006 -0.258393 -0.373914 -0.083713 0.215416 -0.052945 -0.170900 0.012152 0.178892 0.011475 -0.481109 0.190988 0.005292 0.161915 0.670320 -0.160711 -0.345469 0.006662 -0.265828 -0.401539 -0.036979 0.266571 -0.364886 0.186877 -0.066476 -0.043075 -0.397313 0.604566 0.234483 0.201377 -0.009127 0.134921 -0.497173 0.035070 -0.279623 0.047147 -0.217076 -0.568788 0.017061 0.194688 -0.082404 -0.141232 0.078580 -0.053237 0.187242 0.158121 -0.284386 -0.388278 0.337229 0.186806 0.197449 0.223468 -0.176131 0.309192 0.347158 -0.421841 -0.138837 0.224644 0.063743 0.343174 0.135895 -0.191715 0.245156 0.325058 -0.520031 -0.374629 0.225378 -0.351163 0.071070 -0.061004 0.143809 -0.306480 -0.044213 -0.113331 0.391779 -0.253395 -0.042105 0.041342 0.301649
10211088875714624 0.206620 0.266902 0.211615 0.224444 0.070085 0.552572 -0.821256 -0.328554 0.211778 -0.274483 0.000046 -0.142886 0.198978 0.156948 -0.189124 -0.344664 -0.068364 -0.355432 -0.057726 -0.425649 0.158680 0.131268 -0.016792 -0.517825 0.206562 0.492319 -0.114476 -0.387460 0.253169 0.046847 0.027476 -0.008691 0.048369 -0.637934 0.047243 -0.189678 0.541749 -0.127492 -0.018540 0.208284 -0.030447 0.271423 -0.032419 0.203318 -0.241496 0.196074 0.267910 0.161042 0.472606 -0.389535 -0.235497 -0.432525 -0.132818 0.075159 -0.198724 -0.073289 0.090900 0.313381 0.028403 -0.289179 0.282037 0.093073 0.131116 0.759368 -0.056405 -0.437641 0.016485 -0.362072 -0.379899 -0.075544 0.227036 -0.369921 0.178667 -0.021340 0.029102 -0.541989 0.417749 0.396151 0.219672 0.030681 -0.057761 -0.538775 0.127366 -0.389068 0.045950 -0.233206 -0.497052 0.234823 0.253193 0.078415 -0.083506 0.119042 -0.187065 0.216087 0.085435 -0.443624 -0.300925 0.398091 -0.022545 0.109313 0.222214 -0.002520 0.402254 0.425927 -0.564151 -0.292632 0.445530 0.031308 0.188255 0.427810 -0.422834 0.138065 0.228660 -0.442631 -0.324283 0.269753 -0.398494 0.153131 0.006088 0.249879 -0.276890 -0.188532 -0.146163 0.527868 -0.237566 -0.004642 -0.064549 0.414200
358919387591 0.009648 -0.028084 0.016456 0.155766 0.369652 0.293838 -0.430406 -0.210252 0.219587 -0.198397 -0.014743 -0.060617 -0.115313 0.069967 0.133278 -0.083645 -0.064992 -0.100634 0.144998 -0.221582 0.326646 -0.088802 -0.232737 -0.038662 -0.224085 0.245323 -0.082606 -0.230562 0.077460 -0.042770 0.151990 0.049809 0.005918 -0.103828 -0.097502 0.016538 0.272197 -0.219137 -0.031285 0.229069 -0.135187 0.407949 -0.046814 0.293394 -0.221592 0.475030 0.174570 0.168918 0.341264 -0.209894 -0.157228 -0.143908 -0.056777 0.051664 0.100004 -0.160869 -0.200958 0.117707 0.257028 -0.585652 0.351071 -0.099735 0.354556 0.254987 0.130868 -0.109153 -0.024341 -0.012658 -0.214768 -0.046655 0.069846 -0.055197 0.147758 0.172863 -0.369990 0.026693 0.559795 0.262992 -0.068232 -0.076017 -0.207413 -0.211815 0.484225 0.232412 -0.072764 0.014115 -0.338289 -0.170633 0.270645 -0.049557 -0.042734 0.023549 -0.147302 0.182197 0.056826 -0.168126 -0.120299 0.190326 -0.226808 -0.043553 0.330064 0.042885 0.024834 0.158565 -0.047889 -0.199590 0.277528 -0.263617 0.092750 0.005123 -0.169264 -0.152887 0.214490 -0.287007 -0.358354 -0.044895 -0.189376 0.024282 -0.036272 0.235717 -0.191910 -0.094319 -0.015842 0.204166 -0.061519 0.067391 0.093073 -0.055277
1642154296035502 0.005401 -0.084304 -0.216285 0.138438 0.260903 0.069474 -0.394371 -0.279668 -0.112693 0.148586 -0.112829 -0.222448 0.281346 0.492235 -0.117769 -0.180590 -0.123378 -0.359036 -0.557194 -0.118017 0.245765 0.127533 -0.170185 -0.514049 0.367507 0.160425 -0.283682 0.105132 -0.013905 0.414635 0.171211 -0.615025 0.065009 -0.634853 -0.190824 0.567834 0.137325 -0.077392 0.000750 -0.402906 0.146530 0.012655 0.012782 0.517784 0.138223 0.308010 0.208759 0.196453 0.265427 0.029750 0.089919 0.064590 -0.055478 -0.137220 0.366063 0.403309 -0.010016 -0.022617 -0.158421 -0.194856 -0.075981 -0.164065 0.111429 -0.112004 0.408795 0.021605 -0.166485 -0.133452 0.181830 -0.079892 -0.103244 0.043055 0.154860 0.236741 -0.155777 -0.118894 0.553449 0.172152 0.675776 0.258217 0.231508 -0.162082 -0.021382 -0.171354 0.073929 -0.223925 0.352087 -0.129961 -0.284772 0.205641 0.138732 -0.104225 0.003111 -0.321044 -0.045815 -0.353566 0.062019 0.042880 -0.096134 0.262147 0.026235 -0.213732 0.094267 0.298598 0.186910 0.306596 0.210807 0.132079 -0.077646 -0.057718 -0.062782 0.328076 -0.057821 -0.532108 0.387062 0.331345 -0.371829 -0.092922 0.244406 -0.310694 -0.026347 -0.033227 -0.180292 -0.079368 -0.070009 0.192094 -0.122651 -0.400033
1060698677362374 0.079938 0.038454 0.145825 0.030784 -0.133414 0.462223 -0.497868 0.002934 0.151054 0.114544 -0.019543 -0.249533 0.465447 0.160395 -0.401830 -0.175990 0.085059 0.133207 -0.508442 0.167276 0.278245 -0.187834 -0.177832 -0.308692 0.328759 0.333462 -0.225782 0.060711 -0.339054 0.461907 -0.032242 -0.157012 0.050957 -0.253475 0.261673 0.572983 -0.222246 -0.159583 -0.164951 -0.228134 -0.171418 0.163462 0.119862 0.035461 0.096158 -0.019888 0.188448 -0.124431 -0.266183 0.044994 -0.417854 0.124309 -0.071313 -0.488700 -0.211465 -0.046003 0.355435 -0.082637 -0.076497 -0.213845 0.161514 0.089752 0.134041 0.154478 -0.077917 0.073409 0.538353 0.217683 0.041334 -0.018822 -0.157307 -0.150906 -0.185399 0.522097 -0.170407 -0.230189 0.200108 -0.031222 0.233000 -0.122251 -0.036343 0.155843 -0.257795 0.058572 -0.330074 -0.078673 0.014546 0.011195 0.226227 0.215430 0.371658 0.068463 0.384209 -0.207372 -0.059621 -0.391285 0.093113 -0.015247 -0.072355 -0.202337 -0.151122 -0.035575 0.482818 -0.080986 -0.338902 -0.016981 0.064464 0.263110 -0.063247 0.381937 -0.368521 -0.289599 0.046283 0.004349 0.244172 0.131552 -0.001302 0.223990 0.143772 0.132957 -0.186097 -0.115153 -0.197499 0.194062 -0.134823 0.183121 -0.239719 0.275523
1060741374024771 0.088737 0.055891 0.133650 0.033723 -0.138083 0.458728 -0.511531 0.018962 0.163197 0.108992 0.013988 -0.219847 0.462269 0.115837 -0.403388 -0.137315 0.112034 0.134850 -0.466103 0.174014 0.302338 -0.231799 -0.175656 -0.294412 0.282542 0.333730 -0.226522 0.064870 -0.321540 0.416349 -0.037155 -0.149109 0.048213 -0.240813 0.272101 0.606451 -0.227643 -0.192244 -0.158373 -0.204852 -0.163073 0.208253 0.144539 0.083173 0.087268 0.007742 0.179047 -0.110982 -0.249516 0.040194 -0.445176 0.135152 -0.084001 -0.507955 -0.193511 -0.063693 0.352190 -0.101507 -0.019073 -0.246489 0.233696 0.086752 0.162837 0.174477 -0.059766 0.084684 0.557476 0.233349 0.009297 -0.044149 -0.131507 -0.146350 -0.214126 0.516172 -0.218105 -0.211081 0.236612 0.002024 0.224020 -0.125137 -0.055384 0.169286 -0.210512 0.072454 -0.370637 -0.056393 0.004605 0.002643 0.242299 0.188515 0.366658 0.034182 0.359343 -0.191974 -0.073609 -0.408301 0.080016 -0.028675 -0.075456 -0.193926 -0.151108 -0.018401 0.470367 -0.092435 -0.327395 -0.033616 0.081560 0.261924 -0.084249 0.359541 -0.387500 -0.327315 0.047180 0.000900 0.219672 0.116190 0.006923 0.213081 0.113277 0.146262 -0.170879 -0.138941 -0.159427 0.194738 -0.113291 0.191694 -0.222329 0.224637
100000629738802 0.175161 0.040630 0.231475 0.023504 -0.119999 0.199676 -0.307607 -0.018461 -0.111875 0.266809 0.062141 -0.280668 0.071500 0.364578 -0.126312 -0.273227 -0.093981 0.002068 -0.630308 -0.289006 -0.135988 0.136720 0.079155 -0.044521 0.508711 0.020578 -0.191785 0.232711 -0.310807 0.322749 0.129140 -0.309826 -0.135363 -0.483554 0.121859 0.560547 -0.020690 0.119804 -0.053170 -0.611394 -0.213482 -0.127404 0.203272 -0.000855 -0.249391 0.122602 0.419738 0.401965 0.217346 0.194468 -0.224158 -0.064539 -0.224895 -0.066609 -0.095145 0.119534 -0.168754 0.001785 -0.196954 -0.079530 -0.205720 -0.180427 0.012359 -0.128396 0.121198 -0.014655 0.277798 -0.033776 -0.096552 -0.005776 -0.151008 -0.285519 0.231674 0.232759 -0.193458 -0.112308 -0.039604 -0.188440 0.037569 0.042736 -0.058313 -0.350705 -0.286560 0.014099 0.035916 -0.088236 -0.251965 0.191524 0.054101 0.407692 0.237029 0.081165 0.514554 -0.273150 0.262272 0.028447 0.322418 0.168434 -0.054377 0.099580 0.160867 0.135821 -0.104560 0.319744 -0.137215 -0.066222 0.229509 -0.002093 -0.098582 0.414312 -0.315875 0.047892 -0.173801 -0.016134 0.354992 0.291800 0.031217 0.261160 0.493132 -0.319985 0.043481 -0.038034 -0.679278 0.148391 -0.155616 -0.171492 -0.093360 -0.073778
351726008502307 0.120323 0.035703 0.193722 0.026314 -0.090566 0.101984 -0.207095 0.042801 0.022727 0.098101 0.010796 -0.275629 0.101432 0.168910 -0.343207 -0.113960 -0.169803 -0.147324 -0.643631 -0.168373 -0.241768 0.195354 0.055560 -0.173282 0.496392 0.198850 -0.184341 0.201214 -0.266876 0.564096 0.238265 -0.184845 0.002462 -0.491986 0.153286 0.540238 0.010221 0.259342 -0.167516 -0.662186 -0.252406 -0.059186 0.073511 -0.031511 -0.104209 0.248263 0.416856 0.215283 0.073472 0.083611 -0.354527 0.030711 -0.167883 -0.098873 -0.107021 -0.041648 -0.084888 0.201371 -0.266322 -0.121972 -0.256672 -0.222378 0.285665 0.017586 0.022973 -0.057219 0.225075 -0.152823 -0.157966 -0.024283 -0.076914 -0.233354 0.268569 0.413091 -0.162997 -0.154876 -0.060020 -0.159256 0.120223 0.087823 0.121266 -0.244929 -0.323395 0.155437 0.073611 -0.063942 -0.097837 0.226732 0.112098 0.342050 0.134273 0.261334 0.574497 -0.026856 0.301149 -0.023449 0.395963 0.342459 -0.115266 -0.101509 0.120611 -0.025153 0.055965 0.271139 0.107391 0.110462 0.219213 -0.105591 0.026549 0.380228 -0.139802 -0.204543 -0.165732 -0.010243 0.424714 0.056658 0.026410 0.038872 0.408896 -0.047893 0.077652 0.068089 -0.476019 0.121364 -0.284834 -0.067345 0.034288 -0.032772
380339425641963 -0.050000 -0.092866 -0.131174 0.090766 0.312304 0.089766 -0.307198 -0.191890 -0.010739 0.233866 -0.140095 -0.183245 0.381895 0.486430 -0.038398 -0.183092 -0.038736 -0.183676 -0.512226 -0.067863 0.419554 -0.059426 -0.245851 -0.374179 0.217601 0.131106 -0.247874 -0.032875 -0.207976 0.331975 0.075343 -0.409090 0.055546 -0.480771 -0.160398 0.467626 -0.016390 -0.184894 -0.020446 -0.164102 0.097453 0.177287 0.009567 0.375165 0.104651 0.323661 0.157287 0.121764 0.137033 -0.070755 0.001634 0.083173 -0.022704 -0.158554 0.251788 0.287213 0.064787 -0.073699 0.002377 -0.304095 0.050280 0.011306 0.136544 -0.213794 0.374755 0.013332 -0.051794 -0.044238 0.180767 -0.051390 -0.127555 0.069474 0.190577 0.325568 -0.289572 -0.098672 0.602716 0.131969 0.568714 0.166859 0.062539 -0.080126 0.095730 -0.142394 -0.119763 -0.222985 0.298996 -0.220532 -0.115367 0.139641 0.181154 -0.075205 0.120036 -0.285437 -0.105174 -0.447829 0.022758 0.004218 -0.071831 0.138174 -0.006329 -0.089237 0.067994 0.171294 0.112506 0.130257 0.235359 0.176589 -0.207269 -0.034492 -0.031303 0.147822 0.059812 -0.539063 0.177910 0.274963 -0.352384 -0.049179 0.160917 -0.104113 -0.070678 -0.078817 -0.027616 -0.077279 -0.022990 0.219882 -0.155922 -0.321516
1691034417885515 0.014878 -0.090639 -0.064678 -0.019156 0.122080 0.088642 -0.255609 -0.055697 0.024091 0.184125 -0.064671 -0.173708 0.106841 0.257226 -0.128672 -0.103333 -0.078774 -0.064999 -0.385069 -0.040187 0.156020 -0.172392 -0.106226 -0.128070 0.113552 0.056032 -0.198430 0.159972 -0.247057 0.285478 0.155837 -0.301064 -0.058067 -0.206164 -0.015059 0.591146 -0.119949 0.048317 -0.000049 -0.366571 -0.104758 0.137982 0.109133 0.222957 -0.000954 0.300714 0.203830 0.189526 0.080626 0.168589 -0.253596 0.184046 -0.104792 -0.242489 0.056984 0.069598 -0.002150 -0.026334 -0.049881 -0.284120 0.101616 -0.143171 0.276271 -0.064293 0.222131 0.073356 0.206287 0.170261 -0.077473 -0.045293 -0.198156 -0.026921 0.133494 0.442967 -0.357644 0.004070 0.204922 -0.057780 0.077915 -0.039482 -0.077753 -0.035308 0.063299 0.284246 -0.093389 0.004319 0.145338 -0.162853 0.031034 0.248754 0.256935 0.014729 0.364252 -0.121621 0.012741 -0.287622 0.234162 0.054760 -0.218180 -0.028475 0.057084 0.051640 0.026335 0.156008 0.164759 0.045952 0.262982 -0.020804 -0.175284 0.153735 -0.155118 -0.260678 -0.073113 -0.140674 0.317350 0.056851 0.001539 0.076051 0.290166 -0.080249 -0.003638 -0.025540 -0.176734 0.051097 0.005214 0.181519 -0.073675 -0.208355
1060974104001498 0.203888 0.029048 0.110664 -0.012561 -0.224168 0.538177 -0.437864 -0.000723 0.151903 -0.023333 -0.101182 -0.157015 0.274182 0.179075 -0.242678 -0.196648 0.149405 0.324991 -0.389913 0.020506 0.348382 -0.083683 -0.183584 -0.209035 0.329955 0.228198 -0.118272 0.063980 -0.297735 0.369550 -0.231435 -0.199777 0.044754 -0.281865 0.326935 0.518029 -0.195885 -0.097051 -0.020828 -0.271481 -0.018710 0.137981 0.203540 -0.128360 0.047451 -0.065442 0.019443 0.027501 -0.235714 0.125322 -0.322558 0.040414 -0.096359 -0.450252 -0.165767 -0.033582 0.354130 -0.023270 -0.064552 -0.089107 -0.068232 0.016918 0.095403 0.029280 -0.133092 0.047595 0.475927 0.312488 0.048152 -0.040362 -0.218729 -0.386830 0.013650 0.473270 -0.268881 -0.261791 0.085593 -0.083615 -0.031166 -0.149092 -0.038261 0.098360 -0.245589 0.005960 -0.257482 -0.085104 -0.162913 -0.043249 0.274471 0.339071 0.471908 -0.149687 0.338395 -0.346803 -0.147748 -0.190972 0.013705 -0.077049 -0.230526 -0.120864 -0.029994 0.027841 0.374236 -0.040369 -0.277071 0.027554 0.135849 0.112944 0.088651 0.333699 -0.295895 -0.249308 -0.037383 0.051075 0.218126 0.074885 -0.114354 0.246813 0.231900 0.036477 -0.241306 -0.083347 -0.278700 0.302051 0.030914 0.125762 -0.357949 0.343768
194732697617853 0.320224 -0.041390 -0.056029 -0.029460 0.069733 0.592686 -0.486045 -0.195477 0.082149 -0.137745 -0.377278 -0.111980 0.084300 0.427434 0.083256 -0.308294 0.027326 0.341052 -0.290262 -0.108937 0.378596 0.079104 -0.317186 -0.187435 0.261490 0.115149 -0.051609 0.028820 -0.174873 0.256338 -0.367685 -0.361729 -0.027652 -0.349017 0.259559 0.310077 -0.081637 -0.047580 0.207402 -0.194340 0.119088 0.141207 0.239411 -0.173591 0.034777 -0.007442 -0.173958 0.232049 -0.024528 0.108257 -0.146207 -0.036570 -0.054577 -0.246765 0.005989 0.067392 0.285715 0.031202 -0.039936 -0.028671 -0.309705 -0.133477 0.100220 -0.099585 -0.116465 -0.066305 0.228047 0.261062 0.115773 0.031033 -0.285001 -0.458564 0.356708 0.329758 -0.344802 -0.228313 0.168194 -0.087190 -0.289840 -0.150102 -0.144404 -0.063168 -0.074750 0.051042 0.004045 -0.197287 -0.219375 -0.120781 0.318397 0.474238 0.497043 -0.340180 0.132008 -0.455483 -0.228260 0.050646 -0.097359 -0.044403 -0.439472 0.003592 0.349448 -0.001628 0.366556 0.176896 -0.154615 -0.077446 0.318044 -0.091686 0.307705 0.379346 -0.280664 -0.086064 -0.089872 -0.187832 0.288993 0.019727 -0.392770 0.351844 0.530437 -0.147513 -0.417549 0.091011 -0.381801 0.511537 0.144632 0.096937 -0.481647 0.395696
1705903553065268 -0.004513 -0.090048 -0.076887 0.005700 0.179246 0.135185 -0.340205 -0.095028 0.035294 0.214341 -0.098814 -0.187840 0.181106 0.290804 -0.172640 -0.123961 -0.080685 -0.121859 -0.416518 0.006281 0.179141 -0.219050 -0.126472 -0.171453 0.106122 0.087694 -0.225096 0.129500 -0.233076 0.287192 0.172710 -0.322478 -0.043458 -0.197831 -0.037846 0.557725 -0.134400 0.031078 -0.009092 -0.300396 -0.092110 0.142825 0.074283 0.269504 0.023432 0.270617 0.216794 0.109419 0.061415 0.171956 -0.229004 0.230502 -0.096263 -0.230916 0.084367 0.071797 0.042517 -0.026854 -0.025727 -0.275238 0.157574 -0.122331 0.274886 -0.040332 0.220507 0.098137 0.213146 0.171640 -0.064582 -0.012564 -0.207091 0.018827 0.101968 0.453803 -0.339296 0.015918 0.221113 -0.055807 0.107758 -0.051623 -0.076509 -0.017109 0.059012 0.308009 -0.111783 0.008330 0.191400 -0.159382 0.038025 0.228725 0.241582 0.038354 0.364386 -0.097071 0.004447 -0.349096 0.235763 0.034913 -0.199275 -0.042729 0.029503 0.046364 0.083507 0.104453 0.156558 0.021360 0.229861 0.031781 -0.189596 0.166302 -0.152426 -0.269809 -0.053994 -0.161686 0.323932 0.048471 0.015824 0.077272 0.266675 -0.053453 -0.027487 -0.041496 -0.134901 0.060896 -0.007315 0.187164 -0.051004 -0.174396
1676229349363550 -0.105882 0.056156 -0.040090 0.162470 0.336105 0.087687 -0.274204 -0.209760 -0.183813 0.316504 0.009667 -0.180236 0.420998 0.418568 -0.182261 -0.025087 0.046177 -0.413427 -0.554900 -0.154688 0.301330 0.052881 -0.108776 -0.478466 0.459514 0.218156 -0.343094 0.166433 -0.166937 0.408303 0.223262 -0.521113 0.134015 -0.510085 -0.191416 0.387296 0.021986 -0.218716 -0.098729 -0.179814 0.129621 0.111525 -0.071682 0.597896 0.074442 0.282993 0.350288 -0.026734 0.174076 -0.001294 -0.070146 0.067290 -0.197705 -0.065729 0.410149 0.347765 0.018815 -0.045652 -0.014164 -0.450049 -0.009632 -0.193404 0.241507 -0.124594 0.441585 0.060352 0.043025 -0.076998 0.187983 0.005727 -0.030673 -0.099666 0.151988 0.253282 -0.092406 -0.050353 0.467795 0.158200 0.757261 0.223231 0.221395 -0.004967 -0.039632 -0.013850 -0.059816 -0.117974 0.222637 -0.084194 -0.242411 0.198201 0.080987 -0.064102 0.102334 -0.233155 -0.101131 -0.487858 0.220770 -0.026317 -0.001855 0.240642 0.076541 -0.089106 0.063307 0.154854 0.169743 0.308114 0.161549 0.253545 -0.249363 0.051706 -0.137988 0.129805 -0.126736 -0.641700 0.298655 0.349964 -0.280195 -0.111134 0.293790 -0.149805 0.007882 -0.011151 -0.080920 -0.028661 -0.057334 0.031321 -0.063435 -0.338522
1764732510461986 0.088251 -0.038998 0.042330 -0.016127 -0.029408 0.027905 -0.179437 0.023244 -0.010494 0.142982 0.009102 -0.198795 -0.048184 0.149139 -0.192296 -0.112211 -0.182307 -0.100872 -0.413980 -0.152927 -0.151424 -0.024327 0.019695 -0.082655 0.232627 0.063834 -0.221178 0.193990 -0.225741 0.337438 0.246384 -0.258168 -0.103125 -0.231891 0.056106 0.484008 -0.044296 0.242688 -0.013975 -0.529994 -0.229936 0.020163 0.175528 0.096361 -0.087761 0.279112 0.279622 0.274454 0.159485 0.197267 -0.362938 0.133551 -0.153951 -0.141642 -0.013482 0.007245 -0.092986 0.054582 -0.163717 -0.203906 -0.013109 -0.234708 0.272968 0.057757 0.139968 0.039601 0.162761 0.051040 -0.178184 -0.015917 -0.163063 -0.095231 0.202317 0.380739 -0.270535 -0.062192 -0.001555 -0.109724 -0.025630 -0.009879 -0.036485 -0.184531 -0.076862 0.320549 0.016434 -0.011987 0.016107 0.030059 0.044128 0.320960 0.205960 0.137603 0.466292 -0.029385 0.200483 -0.132151 0.310263 0.209039 -0.158945 -0.043353 0.169995 0.045525 -0.004032 0.291630 0.164960 0.027420 0.300090 -0.090316 -0.095066 0.276913 -0.218574 -0.261866 -0.139214 -0.094436 0.477280 0.084293 0.093953 0.062681 0.420752 -0.164328 0.022679 0.032493 -0.411418 0.176813 -0.110503 0.033328 0.000048 -0.150650
1764440430491194 0.057955 -0.037172 0.046646 -0.016276 -0.012229 0.047471 -0.196876 0.013348 -0.006532 0.168473 0.018925 -0.202805 0.020080 0.160908 -0.190387 -0.103491 -0.134217 -0.083617 -0.434061 -0.129712 -0.080195 -0.027578 -0.003139 -0.081172 0.220679 0.079728 -0.212997 0.165870 -0.237822 0.326652 0.213685 -0.225677 -0.080499 -0.235441 0.057834 0.501815 -0.058407 0.167038 -0.040656 -0.470412 -0.205950 0.043575 0.137258 0.109300 -0.088788 0.266011 0.276701 0.235783 0.111484 0.161329 -0.313662 0.111878 -0.142281 -0.141207 -0.030272 -0.009187 -0.092887 0.041258 -0.126496 -0.186446 -0.006054 -0.170770 0.224975 0.007106 0.144635 0.042199 0.189022 0.032956 -0.158333 -0.038976 -0.140468 -0.083859 0.151365 0.354583 -0.239388 -0.041140 0.005816 -0.112277 0.015651 -0.000509 -0.038399 -0.122998 -0.083264 0.251810 -0.033671 -0.001079 0.013312 0.035974 0.046087 0.257784 0.182311 0.124221 0.434579 -0.043302 0.175045 -0.127652 0.296314 0.174227 -0.107903 -0.067160 0.097636 0.053973 -0.017629 0.222713 0.099902 0.021174 0.230097 -0.076534 -0.114617 0.250723 -0.189526 -0.232697 -0.113168 -0.044666 0.368796 0.085592 0.090216 0.074644 0.355345 -0.109547 0.041301 -0.002968 -0.369351 0.110652 -0.120813 0.027767 0.008977 -0.155024
194693764288413 0.267318 -0.063830 -0.039816 -0.029939 0.065403 0.557013 -0.450352 -0.193138 0.093450 -0.116957 -0.374290 -0.125002 0.087623 0.406265 0.067254 -0.303578 0.019649 0.323981 -0.281993 -0.107331 0.371957 0.069408 -0.304475 -0.167770 0.251292 0.108256 -0.044179 0.030737 -0.196993 0.262963 -0.345767 -0.332906 -0.014988 -0.332457 0.224226 0.324431 -0.077708 -0.031068 0.197293 -0.209370 0.131175 0.139542 0.218131 -0.163169 0.041699 0.026751 -0.150902 0.207548 -0.033060 0.103902 -0.129531 -0.023830 -0.056544 -0.240398 0.012285 0.083499 0.276444 0.038610 -0.055397 -0.077827 -0.312048 -0.138619 0.133034 -0.133472 -0.106055 -0.060921 0.195126 0.258415 0.108480 0.032985 -0.302773 -0.436676 0.352595 0.334744 -0.331473 -0.210037 0.165196 -0.089532 -0.269322 -0.139855 -0.125777 -0.040082 -0.065667 0.057291 0.003893 -0.192129 -0.196144 -0.136529 0.301593 0.446090 0.466049 -0.305734 0.147023 -0.442605 -0.220146 0.041100 -0.068891 -0.063069 -0.426867 -0.007467 0.321908 -0.009346 0.325683 0.158999 -0.123411 -0.038960 0.287101 -0.106879 0.273409 0.337112 -0.215471 -0.085882 -0.087067 -0.175385 0.258514 0.003704 -0.384605 0.304463 0.499438 -0.145859 -0.370785 0.106418 -0.343294 0.434604 0.136161 0.091884 -0.454320 0.357824
420796315726 -0.075631 -0.128706 -0.116695 0.090488 0.389668 0.065246 -0.338657 -0.199731 0.005924 0.307187 -0.156800 -0.249525 0.408742 0.543306 -0.042858 -0.211791 -0.103363 -0.220600 -0.623436 -0.083998 0.411142 -0.149225 -0.285788 -0.353231 0.163482 0.107499 -0.302336 -0.053310 -0.309886 0.342455 0.100729 -0.350706 -0.001901 -0.408704 -0.219910 0.426345 -0.051942 -0.123550 -0.056056 -0.132952 0.048890 0.226906 0.005583 0.357049 0.139787 0.317849 0.161357 0.086109 0.098411 -0.099119 -0.034677 0.072807 0.009463 -0.120758 0.263591 0.258673 0.068477 -0.067271 -0.007543 -0.353301 0.104288 0.063906 0.153081 -0.191253 0.361957 -0.000119 -0.054162 -0.023238 0.163622 -0.016085 -0.179124 0.145995 0.216230 0.435059 -0.327476 -0.081646 0.588200 0.065096 0.544436 0.165490 0.019498 -0.053393 0.116650 -0.026912 -0.173674 -0.255142 0.347181 -0.285309 -0.134729 0.134974 0.174033 -0.008825 0.247933 -0.236496 -0.091971 -0.598616 0.117215 0.038768 -0.081756 0.043161 0.007742 -0.045714 0.050066 0.198119 0.151937 0.129396 0.283559 0.158183 -0.323489 -0.024917 0.012515 0.078198 0.093050 -0.605631 0.228689 0.271403 -0.324343 -0.072736 0.264511 -0.108495 -0.037867 -0.076692 -0.029193 -0.107382 -0.027485 0.223324 -0.123177 -0.348683
1691085864547037 -0.003694 -0.113847 -0.086022 -0.009008 0.209466 0.111724 -0.297388 -0.081697 0.030460 0.175693 -0.104047 -0.176033 0.140568 0.292034 -0.147610 -0.114000 -0.096838 -0.109894 -0.378017 -0.010752 0.183941 -0.194426 -0.152141 -0.164974 0.109426 0.069086 -0.221748 0.157220 -0.232285 0.263660 0.161958 -0.307183 -0.071666 -0.202899 -0.047665 0.572534 -0.119132 0.037969 -0.028448 -0.309570 -0.112836 0.170849 0.100021 0.269626 0.030113 0.305188 0.205143 0.149274 0.095139 0.137939 -0.276138 0.183139 -0.090981 -0.253381 0.116286 0.106158 0.026039 -0.029639 -0.035799 -0.310662 0.145687 -0.141569 0.313886 -0.040465 0.197518 0.066111 0.166975 0.176101 -0.034675 -0.004918 -0.190934 0.023929 0.131132 0.460036 -0.351554 0.006780 0.228132 -0.048968 0.090427 -0.053851 -0.083183 -0.019685 0.068281 0.315085 -0.105063 -0.005665 0.167427 -0.181908 0.015387 0.237025 0.231336 0.019669 0.317783 -0.109042 -0.012873 -0.342563 0.216978 0.042197 -0.215931 -0.035860 0.082920 0.035609 0.067482 0.141869 0.176041 0.040168 0.245385 0.010901 -0.209708 0.130177 -0.129360 -0.251886 -0.055140 -0.191059 0.302659 0.046829 -0.002338 0.048686 0.261423 -0.066436 -0.005622 -0.011715 -0.088253 0.041097 0.004777 0.177042 -0.053268 -0.199206
197419850682471 0.337293 -0.021784 -0.026679 -0.038374 0.024899 0.553936 -0.431385 -0.150482 0.079869 -0.160897 -0.336480 -0.108707 0.013864 0.369876 0.071448 -0.295584 -0.003441 0.322991 -0.277744 -0.142929 0.297244 0.112961 -0.262648 -0.144759 0.272170 0.107630 -0.035674 0.060739 -0.168606 0.241414 -0.346726 -0.336763 -0.048731 -0.335491 0.282010 0.272928 -0.061501 0.016594 0.203246 -0.247708 0.087022 0.098283 0.254047 -0.229690 -0.001865 -0.024960 -0.161590 0.280642 0.010933 0.119027 -0.174331 -0.048835 -0.057458 -0.216884 -0.020165 0.044558 0.248287 0.051843 -0.067637 -0.003349 -0.340731 -0.169121 0.110265 -0.062685 -0.137661 -0.084148 0.210831 0.237943 0.076675 0.028616 -0.267264 -0.480715 0.390949 0.323241 -0.344197 -0.246437 0.110602 -0.112661 -0.333540 -0.137529 -0.139653 -0.115692 -0.099178 0.067168 0.041427 -0.189755 -0.258472 -0.084967 0.309949 0.504914 0.477105 -0.299615 0.168392 -0.427777 -0.178954 0.094224 -0.070919 -0.003112 -0.436942 0.002741 0.369576 0.007245 0.322762 0.203999 -0.133735 -0.080602 0.316086 -0.119651 0.322466 0.392034 -0.284313 -0.099754 -0.111850 -0.137525 0.312319 0.019074 -0.339311 0.340743 0.537355 -0.164797 -0.391616 0.102162 -0.439069 0.518237 0.114160 0.055485 -0.446229 0.379270
1691620804493543 -0.050745 -0.130486 -0.095724 0.002979 0.262967 0.107838 -0.345690 -0.105766 0.054851 0.211503 -0.112677 -0.230367 0.176151 0.328384 -0.185685 -0.145522 -0.151504 -0.183363 -0.434923 0.005512 0.215981 -0.223947 -0.174282 -0.193221 0.081930 0.106175 -0.246007 0.124676 -0.254920 0.313685 0.216601 -0.324121 -0.057927 -0.208381 -0.083018 0.604741 -0.119273 0.022804 -0.042847 -0.302449 -0.112896 0.200922 0.078374 0.334026 0.066547 0.356817 0.256589 0.132315 0.094594 0.118442 -0.260617 0.233111 -0.072473 -0.245809 0.118871 0.107866 0.023244 -0.039674 -0.029599 -0.362155 0.198308 -0.125946 0.331835 -0.048195 0.254976 0.070499 0.139314 0.126458 -0.054956 -0.014697 -0.198978 0.103744 0.114070 0.481603 -0.344190 0.020664 0.305897 -0.031143 0.192792 -0.013396 -0.076259 -0.017202 0.111521 0.329571 -0.099090 -0.021188 0.267364 -0.203715 -0.015824 0.188372 0.195059 0.083965 0.325948 -0.085812 0.002007 -0.401930 0.239228 0.060255 -0.194238 -0.059431 0.053911 0.006003 0.066040 0.141006 0.234836 0.048694 0.226278 0.000533 -0.239820 0.095081 -0.105369 -0.259122 -0.034691 -0.224586 0.298213 0.050334 -0.017535 0.027216 0.257295 -0.041524 0.009835 -0.000461 -0.067549 -0.031278 -0.034038 0.229880 -0.038234 -0.269367
344353522573887 -0.025456 -0.054832 -0.166314 0.079951 0.253880 0.033596 -0.253805 -0.159718 -0.060705 0.257516 -0.116473 -0.167010 0.374919 0.474357 -0.039992 -0.153287 -0.006970 -0.187605 -0.524770 -0.078988 0.378497 -0.091368 -0.206451 -0.405020 0.216568 0.090019 -0.281731 -0.009349 -0.178733 0.313307 0.078025 -0.432822 0.035958 -0.516117 -0.154332 0.501643 -0.015020 -0.135810 -0.005076 -0.186126 0.082034 0.155406 0.032339 0.387295 0.084333 0.307203 0.140954 0.140032 0.158335 -0.049335 -0.023655 0.084027 -0.051585 -0.193087 0.267295 0.294311 0.044486 -0.060390 -0.015171 -0.256411 0.074369 0.020127 0.122511 -0.178031 0.386941 0.044224 -0.020824 -0.030372 0.160430 -0.077978 -0.100316 0.093835 0.154723 0.336508 -0.308149 -0.112906 0.575778 0.124043 0.580589 0.187014 0.078936 -0.104416 0.061535 -0.147325 -0.131364 -0.216314 0.310513 -0.203752 -0.149846 0.144242 0.202321 -0.088516 0.146777 -0.263353 -0.080670 -0.494723 0.019114 0.027951 -0.058613 0.150698 -0.014191 -0.075384 0.076450 0.218396 0.091913 0.155721 0.280956 0.255253 -0.257932 -0.021871 -0.065741 0.146256 0.061369 -0.580607 0.250270 0.310060 -0.316168 -0.068614 0.167727 -0.131943 -0.054963 -0.148460 -0.043962 -0.042714 -0.001663 0.229217 -0.136094 -0.360623
1731070420487223 -0.015732 -0.062319 -0.075536 0.002714 0.163788 0.073598 -0.268707 -0.081997 0.023975 0.204326 -0.049588 -0.163411 0.150017 0.258736 -0.134302 -0.080734 -0.066724 -0.115612 -0.387342 -0.061696 0.205447 -0.206843 -0.118081 -0.186420 0.092882 0.058372 -0.238254 0.139043 -0.222693 0.265610 0.177743 -0.296599 -0.020135 -0.240855 -0.075123 0.582861 -0.089115 0.015911 -0.010212 -0.313854 -0.070063 0.181755 0.106869 0.323320 0.014413 0.348456 0.201943 0.158836 0.098170 0.127866 -0.238127 0.188232 -0.132089 -0.251505 0.135449 0.104585 0.007048 -0.024083 -0.006926 -0.353199 0.162237 -0.126688 0.324390 -0.078247 0.266198 0.079494 0.176786 0.146175 -0.071987 -0.051091 -0.167831 0.008007 0.099865 0.428583 -0.348208 0.025715 0.273749 -0.004509 0.174522 0.007411 -0.047815 0.014140 0.089753 0.255809 -0.121066 -0.005685 0.179647 -0.169408 0.012226 0.179423 0.224025 0.000030 0.309889 -0.111210 -0.016090 -0.366625 0.219064 0.039650 -0.179911 -0.029563 0.040814 0.039768 0.046693 0.146303 0.142569 0.087441 0.279790 0.036856 -0.214894 0.109774 -0.142146 -0.247431 -0.051084 -0.229584 0.293436 0.072343 -0.039934 0.012605 0.252972 -0.054390 0.018140 -0.070339 -0.097548 0.017385 0.004486 0.181463 -0.054012 -0.243903
1741962999397965 -0.054894 -0.071943 -0.008025 0.037343 0.226842 0.117318 -0.244207 -0.096883 0.082673 0.083919 -0.046747 -0.096669 0.080050 0.182036 -0.015616 -0.052581 -0.020809 -0.089705 -0.208677 -0.111608 0.288439 -0.160931 -0.151503 -0.104432 -0.004399 0.130821 -0.121029 0.008585 -0.163446 0.174861 0.160650 -0.148238 0.029112 -0.121851 -0.094271 0.315677 0.005896 -0.082392 -0.004875 -0.081453 0.002919 0.187855 -0.029405 0.252954 -0.055719 0.349660 0.152892 0.124899 0.113107 0.012644 -0.102229 0.114419 -0.098005 -0.073790 0.133802 0.057455 -0.089515 0.028874 0.091090 -0.394984 0.137032 -0.107932 0.285460 -0.113408 0.288443 0.025900 0.068398 0.101773 -0.057341 -0.017521 -0.155916 -0.044054 0.194411 0.337401 -0.378309 0.075249 0.392556 0.027454 0.102894 -0.013064 -0.105522 -0.009129 0.281728 0.254574 -0.082391 0.020871 0.068681 -0.211214 0.083729 0.122375 0.139552 -0.003826 0.160131 -0.072144 -0.046012 -0.228114 0.144611 0.027652 -0.243238 -0.019319 0.145790 0.051075 -0.035085 0.119437 0.202662 0.018142 0.281735 -0.101424 -0.122497 0.075114 -0.108264 -0.226330 -0.002822 -0.226795 0.055630 0.018506 -0.131044 0.018960 0.187560 0.044044 -0.017931 -0.024472 -0.082300 0.002991 -0.006011 0.136323 -0.053279 -0.211313
380663362276236 0.018083 -0.029867 -0.196758 0.078077 0.199367 0.053117 -0.269932 -0.152132 -0.053278 0.234886 -0.108638 -0.129964 0.365259 0.450251 -0.027909 -0.129701 0.022543 -0.144173 -0.497403 -0.072847 0.392150 -0.089092 -0.209042 -0.405840 0.211623 0.086305 -0.264057 -0.010634 -0.147448 0.295968 0.056161 -0.465661 0.053621 -0.536205 -0.128511 0.541706 -0.019184 -0.152256 0.034543 -0.208346 0.144924 0.142767 0.066321 0.402996 0.093480 0.297858 0.094351 0.167971 0.158338 -0.023608 0.002813 0.117539 -0.056266 -0.209730 0.273943 0.296734 0.063598 -0.082597 0.007929 -0.199042 0.067745 0.016893 0.084044 -0.193354 0.403833 0.068033 -0.010868 -0.033481 0.164973 -0.109158 -0.087068 0.072391 0.126346 0.280470 -0.324457 -0.102203 0.586912 0.149054 0.587863 0.207958 0.094327 -0.075626 0.055883 -0.205944 -0.146414 -0.212420 0.335837 -0.198345 -0.131219 0.123036 0.233383 -0.155594 0.104448 -0.317006 -0.111912 -0.451235 -0.023437 -0.004329 -0.065345 0.188527 -0.022920 -0.077988 0.101125 0.209099 0.081007 0.153644 0.319526 0.266145 -0.196353 -0.029088 -0.117145 0.152404 0.053741 -0.575976 0.283453 0.307048 -0.348420 -0.053087 0.175141 -0.146630 -0.086201 -0.168763 -0.080291 0.001632 0.018026 0.246560 -0.171264 -0.353443
1732003213727277 -0.003497 -0.135784 -0.066629 -0.000561 0.215759 0.120911 -0.315584 -0.101055 0.046083 0.147424 -0.120598 -0.197793 0.092274 0.304639 -0.129253 -0.150917 -0.151329 -0.116664 -0.365441 -0.045645 0.157658 -0.172732 -0.148892 -0.129666 0.099907 0.065490 -0.201073 0.137253 -0.217217 0.267203 0.171998 -0.297397 -0.093121 -0.208380 -0.059761 0.552284 -0.096925 0.068987 -0.014209 -0.329968 -0.109381 0.158941 0.099837 0.244338 0.026215 0.321935 0.208563 0.184658 0.125370 0.146855 -0.242751 0.186564 -0.078502 -0.213256 0.107416 0.098683 0.012061 -0.020711 -0.045025 -0.315840 0.119362 -0.167384 0.314516 -0.041832 0.218313 0.054977 0.112820 0.158859 -0.047186 -0.002722 -0.204772 0.036007 0.171427 0.454100 -0.350713 0.008632 0.252262 -0.039691 0.088917 -0.043409 -0.086614 -0.083005 0.091528 0.321857 -0.057672 -0.026068 0.163315 -0.180545 0.009550 0.246445 0.205802 0.051759 0.307038 -0.095140 0.019095 -0.306272 0.222292 0.064581 -0.225421 -0.031846 0.104547 0.029726 0.031023 0.152195 0.218493 0.019026 0.219616 -0.039299 -0.171726 0.112431 -0.107909 -0.213243 -0.047101 -0.171445 0.272050 0.029912 -0.009419 0.040003 0.251604 -0.080271 -0.002041 0.015254 -0.106851 0.031659 -0.011886 0.169370 -0.043258 -0.215662
1657283527865913 -0.127151 -0.314200 0.054506 0.030811 0.479865 0.315009 -0.331317 -0.157392 0.149980 -0.110888 -0.297917 -0.364224 0.023769 0.469122 -0.153462 -0.308377 -0.298402 -0.157943 -0.352975 0.044069 0.268424 0.115177 -0.295701 -0.146219 0.189144 0.245662 -0.022859 0.117176 -0.188149 0.417506 0.078965 -0.230485 -0.050000 -0.102571 -0.019653 0.264936 0.012119 -0.084033 -0.150377 -0.187845 -0.160669 0.102095 -0.127123 0.041171 0.179795 0.247982 0.236269 0.104280 0.055600 -0.021845 -0.177111 0.051811 0.154250 -0.190096 0.013515 0.196535 0.078467 -0.042247 -0.190254 -0.421697 -0.120885 -0.282834 0.378373 -0.060674 0.018333 -0.139741 -0.094093 0.158005 0.142457 0.225051 -0.312140 -0.001277 0.430514 0.546454 -0.219691 -0.117964 0.356000 -0.070525 0.052818 -0.160231 -0.101869 -0.197101 0.182982 0.454219 0.273116 -0.079342 0.104445 -0.275963 -0.049310 0.432178 0.162017 0.243810 0.140490 -0.124773 -0.035953 -0.151040 0.196934 0.104679 -0.457390 -0.051102 0.300311 -0.198691 0.057658 0.124176 0.430420 0.068774 0.004249 -0.307563 0.037434 0.105736 0.074522 -0.071786 -0.121014 -0.059048 0.145880 -0.012316 -0.107109 0.110517 0.261264 -0.017319 -0.066016 0.429456 -0.064720 -0.154696 -0.140894 0.180950 -0.174396 -0.036481
123624513983 -0.109205 -0.286612 -0.002230 0.040380 0.474763 0.283298 -0.301326 -0.132807 0.145033 -0.099083 -0.251529 -0.331358 0.030661 0.455240 -0.157164 -0.264716 -0.279850 -0.199879 -0.339334 0.053374 0.294963 0.086131 -0.296585 -0.175275 0.153840 0.245794 -0.040334 0.104499 -0.117974 0.374330 0.114300 -0.290545 -0.036883 -0.092770 -0.008793 0.248804 0.024215 -0.110525 -0.136821 -0.163456 -0.159192 0.093174 -0.121285 0.076234 0.161744 0.236739 0.228275 0.115706 0.087323 -0.016337 -0.218086 0.087178 0.141712 -0.193469 0.018315 0.169676 0.051154 -0.049195 -0.171728 -0.367711 -0.048081 -0.272167 0.342943 -0.002466 0.045722 -0.115246 -0.087673 0.148975 0.140613 0.191695 -0.231970 0.029461 0.399710 0.530823 -0.241555 -0.110810 0.392630 -0.040173 0.115817 -0.123958 -0.076946 -0.202814 0.184171 0.412491 0.250191 -0.074268 0.155655 -0.275906 -0.096919 0.421856 0.166089 0.237989 0.109038 -0.095604 -0.044139 -0.177104 0.171564 0.116262 -0.426791 -0.012761 0.259011 -0.199058 0.050756 0.108374 0.445037 0.070999 0.025362 -0.244533 0.023582 0.052767 0.031818 -0.076456 -0.127273 -0.054034 0.154785 0.001761 -0.058842 0.106971 0.195608 0.008254 -0.059479 0.378144 -0.049327 -0.142268 -0.125968 0.210649 -0.158140 -0.096097
133880733349264 -0.189494 -0.136936 0.021257 0.027125 0.312376 0.054444 -0.411401 -0.288108 0.118341 0.209263 -0.200678 -0.334214 0.125265 0.340391 -0.153373 -0.276309 -0.291668 -0.245755 -0.427518 -0.142428 0.157945 -0.190481 -0.137655 -0.141891 0.123547 -0.012246 -0.214188 0.075086 -0.413534 0.412094 0.239415 -0.182909 -0.017306 -0.322324 -0.333412 0.566650 -0.004259 0.134518 -0.136238 -0.356045 -0.148038 0.246374 0.143055 0.310510 0.080495 0.440060 0.380012 0.029368 0.080503 0.073193 -0.091075 0.131139 -0.135535 -0.222531 0.195024 0.175577 0.114296 0.025075 -0.154460 -0.695858 0.070600 -0.238380 0.493289 -0.193433 0.269742 0.007852 0.064443 0.215472 -0.201680 0.098855 -0.406959 0.069450 0.235860 0.611902 -0.272528 0.123981 0.237604 0.039314 0.069187 0.009165 -0.067732 -0.074671 0.141023 0.490312 0.032734 -0.040393 0.112521 -0.128312 0.132824 0.191874 0.104927 0.211554 0.485086 -0.028312 0.110727 -0.505063 0.439503 0.103163 -0.290451 -0.155335 0.179352 0.033897 0.010275 0.123517 0.140213 0.175361 0.195377 -0.166276 -0.214593 0.117349 0.071387 -0.260537 -0.037325 -0.290661 0.287724 -0.091100 -0.144004 -0.044615 0.485097 -0.138119 0.093356 0.103683 -0.006738 -0.144561 -0.084596 0.066105 -0.013510 -0.149294
